100 64
83 -0.008058961 -0.17033596 0.17733449 -0.02586007 -0.056154903 -0.2840222 0.073030956 0.007489203 0.017977476 -0.082984306 0.06814278 -0.24252953 0.100950465 0.033205353 0.034324534 0.14351022 0.043541797 0.036679298 0.07476315 0.058365054 0.080070384 0.17349744 0.064740606 0.015868945 0.04096443 0.07582589 -0.26661205 -0.015540702 -0.037636377 -0.1403844 -0.07888594 -0.08461312 0.004027447 -0.078661546 -0.068282254 0.008810236 -0.06402963 0.002108688 0.013517003 0.053490505 -0.024334343 0.029788861 -0.061755195 0.098505735 0.17385346 0.019033639 -0.009799477 0.13678999 0.059975497 0.24738592 -0.12495674 0.13516411 -0.02387674 0.119384855 0.025119811 0.08869448 0.036410343 -0.09746132 -0.060828775 0.24732393 -0.1309331 -0.040858608 -0.073778264 -0.17955516
39 0.12538823 -0.119169615 0.07406015 -0.06722304 -0.06449441 -0.15852222 0.048518233 -0.15106326 0.10052277 -0.08190154 0.12573984 -0.20768586 0.02690249 0.12287448 0.026187351 0.057899334 -0.088400915 0.11029283 -0.01903628 0.08665292 0.13761763 0.11583018 0.13894439 -0.096926525 -0.024072917 -0.00774923 -0.14311202 -0.07272461 0.16690859 -0.17352667 -0.001196359 0.026137305 0.052734938 -0.029567616 -0.0381265 -0.097179785 -0.02127803 0.21686661 0.07707556 0.0777 -0.10263456 -0.03432672 -0.027588764 -0.11424838 0.059792902 -0.1473226 -0.0052311434 -0.17891002 -0.067349665 0.21959326 -0.1486627 -0.12393105 0.08541783 0.1019622 0.14042541 0.07745 -0.021893473 -0.016780129 -0.12362472 0.13092452 0.11631401 -0.18811448 0.0038389815 -0.115091145
93 -0.0753906 -0.00848631 0.053977646 0.01677087 -0.16783836 -0.16538048 0.14123037 -0.102360696 -0.034112867 -0.15741779 0.24882233 -0.11743896 -0.11482676 -0.029225625 0.14658237 -0.031626575 0.023840545 -0.05291112 0.014146832 0.10338544 0.09037234 0.17379174 0.083782345 0.03182388 0.09182081 0.22249642 -0.06351052 0.22275548 0.03113038 0.041950684 0.02493776 -0.11228011 0.045674242 -0.023941651 -0.02362589 -0.016409703 -0.017945848 -0.12217319 0.08786412 0.011559036 0.09845816 0.014733033 -0.13428082 0.03740383 0.08293367 -0.14139749 0.057545416 -0.19227001 0.042384796 0.17218305 0.020736577 -0.061912656 -0.18607521 0.07585341 0.12247346 -0.020300863 0.14654124 -0.11510693 -0.09868969 0.3713122 0.005214311 -0.016550107 -0.16540556 -0.0886421
31 -0.13257973 0.03336454 0.09978092 0.015364984 0.047451906 -0.28894317 0.13972086 -0.17809077 -0.0009122931 0.03020819 0.1167222 -0.07544765 -0.097710975 -0.019060384 0.16269836 -0.099156946 0.21659967 -0.012260763 0.10689617 0.03645314 0.27035376 0.13394594 0.13742985 0.007864046 0.06691205 0.064120226 -0.20334734 0.1906924 0.018968176 -0.14259776 -0.06164727 0.078832425 -0.15223956 -0.046756834 -0.05026396 0.03261295 -0.052024867 0.029260509 0.096296385 -0.104759894 0.019557182 0.0023931928 -0.00769766 -0.07050255 -0.02029701 -0.09373137 0.022228412 -0.04759054 -0.06370489 0.29983672 -0.077384904 0.09479852 0.087893136 0.21213408 -0.033462513 0.05475863 -0.0032455344 -0.020226084 -0.09190906 0.06058199 0.0048732352 -0.20285459 -0.010870188 0.11415831
43 0.035737343 0.036339786 0.071999624 -0.15740174 0.030321624 -0.13991763 0.037331015 -0.032975487 -0.24174288 -0.018345248 -0.01794677 -0.18244568 -0.13299547 0.11194176 0.24058247 0.19241732 0.08124908 0.012672717 0.085630104 0.22590546 0.08333774 0.009198751 0.2103823 -0.032056287 -0.089203276 0.07031716 -0.025176054 0.03342497 0.22646213 -0.012380156 -0.00357045 0.06640224 0.032506566 -0.06511203 -0.2262131 0.013952461 0.0017579306 -0.08941751 0.035013895 0.11198102 0.12710749 -0.07863291 -0.10851272 0.2288003 0.16238476 -0.143287 -0.01642693 -0.007041436 0.05174419 -0.073754944 0.037377384 0.11063429 0.08353446 0.041619934 0.008857662 0.14442039 -0.002145773 -0.011407468 -0.13133968 0.1392202 -0.023052603 -0.16108406 0.01074036 -0.01701162
74 -0.003815629 -0.111104466 0.044519573 -0.14745077 -0.1306848 -0.33310196 0.12730089 -0.16359384 -0.09002627 -0.110953584 -0.047825467 0.019053906 -0.050593372 0.07958879 0.045011092 0.06945221 -0.0042224205 -0.0019228879 -0.06283379 0.026041461 0.2514468 0.11262617 0.10189713 -0.1108738 0.0564807 0.043960348 -0.050309807 0.1275958 0.084099665 -0.17669961 -0.034198422 -0.037092343 -0.034211118 0.08754528 -0.15337053 -0.11883939 -0.03409201 -0.25109208 0.14620104 0.04337946 0.14597605 0.043440487 0.09922612 -0.013790292 0.004732462 -0.08065412 0.08903339 0.050017025 0.06925543 0.053046964 -0.037866198 0.035679623 -0.13148038 -0.021839142 0.11363921 0.14932074 -0.04287316 0.08254113 -0.17089915 0.21351846 0.06161639 -0.12369803 -0.10028967 -0.1474207
52 0.105657585 -0.11946372 0.1083235 -0.1345705 -0.08280498 -0.1195745 0.095984764 -0.17272982 -0.061587334 -0.2032376 0.03109777 -0.11963299 0.036946956 0.16326201 0.07716845 0.14758882 -0.044534545 0.012677793 -0.047374308 0.12865074 0.17821649 0.10177993 0.050528195 -0.030930176 0.006963344 0.107612535 -0.21435216 -0.10667496 0.089675315 -0.028690722 -0.15041257 0.2431738 -0.08925923 0.041258216 -0.1035582 -0.18296216 0.017568093 -0.08073157 0.019787991 0.03721691 -0.08488733 -0.058153637 -0.16496933 0.15370564 -0.102884024 -0.1064878 0.20233572 0.007242083 0.082356095 0.15577564 -0.022407783 -0.04101344 0.047553867 0.11263745 0.044933483 0.00041024695 0.051921442 0.051806886 -0.074970596 0.13822393 -0.062253527 -0.12792443 -0.039641183 -0.09249171
47 0.069383524 -0.004175516 0.065759085 -0.027771609 -0.030209465 -0.21089284 0.019740297 -0.116947405 -0.13246614 -0.085937634 -0.025107812 0.014913179 -0.15771626 -0.11139054 0.013325645 0.09332442 -0.02700398 0.10375836 0.03174448 0.05520467 0.06587005 0.06047541 0.13382173 0.035053626 -0.037198167 0.07307764 -0.13627861 0.108221374 0.16704188 -0.17081048 -0.036575407 -0.087356515 0.06563395 0.07152932 0.030157857 0.04173793 -0.06003447 0.019462137 0.044450384 0.0114103 -0.030976651 -0.030844789 0.013940957 -0.04578452 -0.0055045225 -0.07273097 0.10439487 0.08196382 -0.040062454 0.036026713 -0.061961904 -0.063866675 0.049507223 0.11911178 0.051085513 -0.028931959 0.0795804 -0.027998304 -0.16030656 0.4753209 -0.018942127 -0.19217663 0.18689504 -0.031424593
54 0.040636465 -0.18107043 0.13108584 0.107260734 -0.14546797 -0.08705669 0.010580684 -0.073331684 -0.18326102 -0.073224545 -0.05509403 -0.15375762 0.13236766 -0.13630924 0.0850683 0.10448981 0.065063395 0.07682136 0.09305703 0.21516511 0.18012953 0.13050857 0.04367688 -0.1419077 0.1931633 0.08521644 -0.08723407 0.09630153 0.14843613 -0.10946306 0.008751253 -0.21705255 -0.06923967 -0.04647019 -0.020659778 -0.032345776 0.02649915 0.055743743 0.118296675 0.02068472 0.13779745 -0.039494544 -0.05468049 0.06732305 -0.011172579 -0.0758364 -0.0398184 -0.10207019 -0.019795233 0.11421141 0.07094891 0.08859386 -0.013206175 0.15440759 0.030358149 -0.033760455 0.05572065 -0.00094175024 -0.18947177 0.11864642 0.0771687 -0.16200687 -0.19703935 0.023011202
4 -0.042807907 -0.21410601 0.1091163 -0.011700493 0.037710305 -0.2909519 0.04069561 -0.2515821 -0.015635308 -0.12838528 0.107189864 0.021029778 -0.06466889 0.043858092 0.13733275 0.19404791 0.056315657 -0.045460086 0.014540566 0.11360318 0.107040904 0.04233325 0.14328517 -0.14726526 0.09895619 0.1634448 -0.13330583 0.20024881 0.13250206 -0.100847624 0.10115571 -0.004830691 0.11601917 -0.007102763 -0.12466425 -0.062086232 0.1383527 -0.009158742 0.013380666 -0.16682331 -0.11442628 -0.050656166 -0.189392 0.1370374 0.051326644 0.024786111 0.057593536 -0.052449234 0.021198975 0.16720665 0.11310893 -0.12647393 -0.06086629 0.016759463 0.0025084463 0.059857253 -0.024937637 -0.14425145 -0.16805913 0.18856928 -0.038593683 -0.11811747 0.013158979 -0.11019986
27 0.025494834 0.094504975 0.15006363 -0.018226497 -0.09788508 -0.20290028 -0.051311165 0.16648102 -0.07175581 0.102030545 0.10835392 -0.13463214 -0.15683699 -0.13939114 0.23019788 0.14480619 0.058645714 0.094107606 0.13235044 0.1124346 -0.008791294 -0.07104382 0.08376835 0.09772678 -0.08496799 -0.04143133 -0.11160268 0.04548786 0.13835222 -0.12320831 -0.1732212 0.07224444 -0.05645629 -0.12579903 -0.12558958 -0.07847616 0.12025878 0.058378514 0.20720962 0.10952388 -0.013429966 -0.0040210616 0.05440222 -0.04446477 -0.054467127 -0.0021667741 0.17051809 -0.0604971 -0.010490518 0.22613521 0.0677053 0.004497613 0.10778756 0.22129487 0.17521565 0.072569944 -0.039283942 0.16230258 -0.11954857 0.2561276 -0.025598388 -0.08799195 0.14351305 0.030418353
8 0.055831254 0.07626524 0.109877475 -0.099902734 0.0062172036 -0.043004252 0.05551413 -0.115083404 -0.159574 0.04377335 -0.1344429 -0.21501009 -0.05681899 0.111481145 -0.005397331 -0.0018607065 0.14853984 0.18662308 -0.060909696 0.33116573 0.062924825 0.15840033 -0.015882853 -0.009324071 0.019256193 0.0026220686 -0.23126125 -0.11331949 0.15767455 -0.050115135 0.019049745 0.102229334 -0.025171038 -0.015433545 -0.049964342 -0.1690268 -0.0147419665 -0.025661783 0.0045565832 0.0741687 0.08325482 0.034660265 0.028569125 -0.019150212 0.08221196 -0.050176762 0.07165068 -0.10101439 0.21470824 0.08194277 0.048367575 0.13105068 0.10739424 0.07302072 0.018409772 0.28185588 0.02184715 -0.082432844 -0.12287478 0.15623318 -0.033415914 -0.28133368 -0.14789651 -0.11519964
40 -0.016632406 -0.14068379 -0.011274088 -0.041785482 -0.18474093 -0.15135434 0.009438485 -0.17209126 -0.106802054 0.043441337 -0.15506878 -0.27153882 -0.13095367 0.104074314 -0.09986097 0.02652603 0.036626194 -0.15429747 0.14695 0.008005939 -0.039086226 0.030301379 0.03908151 0.027815124 -0.007189859 -0.0012262781 -0.08202022 -0.011557077 0.14634553 -0.193909 -0.08665239 0.0069818855 -0.09900403 -0.22066565 0.014095163 -0.13922039 0.12050004 0.10324802 0.24343103 0.08384322 -0.008705246 0.059293475 -0.13425352 -0.05506363 0.13239326 -0.15871178 0.11632311 0.04244196 0.15140939 0.035589855 -0.060813833 0.0016639441 0.055836275 0.10869519 0.17487651 0.067607075 -0.14620413 0.072347954 -0.09566552 0.29224047 -0.078192785 -0.24281639 0.027285423 -0.012078457
36 -0.097597554 0.02055432 0.105033614 -0.0673184 -0.07056126 -0.28705236 0.12970096 0.009199077 0.003814866 -0.095264554 0.10039919 0.071632504 -0.069457136 -0.11407331 -0.013756187 0.14914362 -0.20629273 0.02063262 -0.17095396 0.012180502 -0.0033854404 0.09259583 0.13853256 -0.30419698 -0.035380248 -0.08414151 -0.14655784 -0.034530092 -0.011549707 -0.08142685 0.0109375175 0.014358755 -0.17565246 -0.10547499 -0.16179314 -0.1627611 -0.05165684 -0.10322497 0.18916556 0.07809943 -0.03340921 -0.18457045 0.014240359 0.092993826 0.09718219 -0.17847425 0.06748773 -0.13857858 -0.008651357 0.14027569 -0.049930226 0.13494764 0.17371884 0.19792792 0.02854626 0.07384048 0.023660392 -0.02000595 -0.17857885 0.14400725 0.07728224 -0.031269297 0.12848252 -0.08622469
53 0.10268044 -0.047892075 0.095906645 0.096236594 -0.0089792805 -0.23189169 -0.08075288 0.022809831 -0.07054225 -0.1935003 0.13246349 -0.07513699 -0.05377133 -0.031091029 0.055090524 0.08425759 0.06941543 -0.0499631 -0.043667134 0.04438824 0.051792644 0.08348427 0.04239611 -0.18905066 -0.085335076 -0.09208026 -0.11121141 -0.13166024 0.08256061 0.04576524 -0.11394254 -0.027837882 -0.02987904 0.09836768 -0.15231119 0.032013487 0.11172592 -0.03590003 0.2097632 -0.029012594 0.19179773 -0.17435504 0.13388787 0.02784171 0.011645589 -0.20494847 -0.07797279 -0.03190305 0.20259 0.16690563 0.045957517 -0.041006688 -0.007152671 0.23620243 -0.047515158 0.08100812 0.04046256 -0.09037476 -0.01628613 0.29541078 0.029791499 -0.16292046 -0.0021633322 0.026484348
61 0.13955206 -0.1573605 0.09830774 -0.036937725 -0.010066706 -0.2174462 -0.24064551 -0.05098206 -0.28631607 0.0013294164 0.052034516 -0.1103956 0.043718416 0.14016229 0.14404705 0.15398715 0.115831174 -0.08923355 0.11910977 0.31034094 0.15456371 0.13094275 -0.01604955 -0.14736861 -0.03422773 0.09434303 -0.22378483 0.0052420334 0.047868922 0.02361591 -0.09242056 0.03819112 -0.10731793 0.086784504 0.06295011 -0.048183568 0.009105293 -0.043842364 0.11526164 0.09375386 -0.020307086 -0.083544016 -0.003736564 -0.018040588 0.07494046 -0.072437845 0.03239128 -0.012514994 0.14899954 0.10006465 -0.17967182 -0.23473978 -0.093797624 -0.09195079 -0.04363919 -0.12146077 0.06602317 -0.044577856 -0.13083625 0.16895218 0.020386746 -0.077271104 0.12875672 0.00025095986
0 0.03285696 0.06469909 -0.039175626 0.13222858 -0.04542538 -0.1755604 0.030489448 -0.14041364 -0.2450395 -0.021772161 0.09064005 -0.047673978 0.02829204 -0.097267315 0.093045756 -0.08461995 -0.05840314 0.14658514 -0.120314635 0.1617554 0.07985183 0.053538613 0.025210474 -0.015732981 0.0014391245 0.19585688 -0.291752 0.3547862 0.09537851 -0.10589998 -0.110126905 0.03789427 0.12999251 -0.110803634 -0.11592949 -0.12604833 -0.033746783 -0.23579994 0.24170546 0.09986146 -0.06828982 -0.22491035 0.055477552 0.012972119 0.032481473 -0.08870622 -0.03141255 0.029979719 -0.14140129 0.06013951 -0.16268085 0.056422908 0.12823744 0.038988642 0.14757743 0.0074619055 -0.047995765 -0.030061286 -0.011930462 0.0850714 0.08843696 -0.19301526 -0.05648748 -0.037907153
91 -0.052619614 -0.09322609 0.15080649 -0.024877148 -0.061188255 -0.11560507 0.0072603184 -0.005458779 0.0023612936 -0.06815573 -0.02989493 -0.09803828 -0.11952008 -0.08570728 0.024623048 0.14084843 0.23665659 -0.026889006 -0.060561776 0.1995991 0.12724489 0.18896092 0.19636978 -0.18171196 -0.047994453 -0.059842397 -0.28078318 0.019178066 0.016950008 0.0974809 0.16918102 0.10210306 0.07944362 -0.021830827 -0.059471916 -0.10788481 -0.20425591 -0.010162915 0.13188665 -0.014604026 -0.058636796 0.09525979 -0.0005982749 0.026041815 -0.18495174 -0.058910836 0.1044901 -0.04812708 -0.023444474 0.2211533 -0.08837441 -0.20532167 0.1451662 0.11396789 -0.12640028 0.0063012308 -0.107853696 0.0172635 -0.13027802 0.17903335 -0.009832332 -0.21965931 0.05803077 -0.004209674
1 -0.10719649 -0.08628374 -0.03876913 0.15348686 -0.07159 -0.1283042 0.278225 -0.0036318311 -0.11143831 -0.1431607 0.091156915 -0.17197728 -0.14632075 -0.0015019345 0.01030285 0.0026002338 0.011453573 -0.056962967 -0.09238835 0.304158 0.051301256 0.21928991 0.022856034 -0.09344547 0.14378154 0.17920202 -0.13901982 0.07099953 0.1180398 -0.08627694 -0.015313883 0.17012884 0.0046409094 -0.061487243 -0.07932759 -0.18640289 0.18105324 -0.17225066 0.044752188 0.17680852 -0.0059007243 0.03265337 0.082211174 0.041001152 0.12559597 -0.24554609 0.11749855 0.09904458 0.011748877 0.12221491 -0.077222474 -0.028910473 0.054493453 -0.019638287 0.1397281 0.16957438 0.07289883 0.018089266 0.030843139 0.06951957 0.0845893 0.04754486 -0.1403591 -0.044450928
57 0.07198348 0.04369453 0.11223847 0.05958697 -0.18204613 -0.16587716 0.11704404 -0.037359435 -0.10817245 0.04385532 0.00799323 -0.078200564 -0.0865163 0.08866178 0.12471502 0.19969961 -0.16468424 -0.0132814525 0.096942455 0.1262096 -0.08906673 0.07719137 0.08219933 -0.20783748 -0.05374031 0.1824534 -0.21765429 -0.059627157 -0.009842874 -0.34274212 -0.032089233 -0.07742526 0.14169854 0.057179675 -0.2216983 0.02704556 0.057968758 -0.089040615 0.07279107 -0.050602194 0.044049043 -0.026494022 -0.20852084 0.23834656 -0.17458898 0.030425513 0.2139862 -0.070104636 0.015205372 0.13204959 0.08459869 0.12561052 0.08107063 0.04983171 0.021103766 0.14631574 0.05832465 0.07596944 -0.054619193 0.21462613 0.015405732 -0.14427043 0.059176274 -0.01513626
64 0.048693113 -0.12490262 -0.040837985 -0.014679056 0.14414981 -0.14464566 0.10392311 0.0078933155 -0.33881447 -0.046828806 0.10521396 -0.09700886 -0.016781284 -0.05516318 -0.004117873 0.03930439 0.117668256 -0.069022596 -0.03205887 0.25468326 0.07928103 0.041086413 0.07300437 -0.042228382 -0.13293213 0.025633965 -0.15604283 -0.02622733 0.22135504 -0.08740463 0.09872069 -0.011692699 -0.12769647 -0.042939052 -0.008830363 -0.12660077 -0.11658935 0.035984863 -0.011753828 0.06984212 0.16364895 -0.03373865 0.16145743 0.14104886 0.034483146 -0.11302292 0.073233575 -0.04680416 0.044225134 0.044725455 -0.17336859 -0.072442494 0.2327337 0.07707347 0.020296006 -0.05761042 0.1405725 -0.15311764 0.0039521274 0.11448345 0.05387373 -0.22746481 -0.0721922 0.026542315
95 0.0219375 -0.22098055 0.13881522 -0.018575495 -0.33999202 -0.123035215 0.14586782 0.0034967293 -0.111030206 -0.032719776 -0.010295407 -0.34194666 -0.0022745992 -0.048159484 -0.023391815 0.07012343 -0.012592849 0.03978235 0.109348305 0.20765297 0.13540515 0.14686134 0.07057394 -0.058670368 0.03479872 0.028827488 -0.20084397 -0.16705264 0.18949664 -0.014909989 0.09917546 0.15568727 0.07419606 -0.039214715 -0.10783367 0.14456081 -0.0016926659 -0.056856554 -0.0069897193 -0.019195398 0.02382502 -0.038885407 0.022752373 0.12603687 0.055749904 -0.18815516 0.100613914 0.052425027 0.0082508465 -0.032677807 -0.08588581 0.05751769 0.007862221 0.1946509 -0.11461368 0.10030641 0.23865835 -0.04824518 0.035076596 0.053037092 -0.015202929 -0.22120634 0.015269174 -0.023057338
25 0.093150094 -0.026312435 0.20527336 -0.12651882 -0.110957816 -0.2784171 -0.053311735 0.0117486 -0.07119457 0.032412387 0.0715911 -0.23985042 0.0717699 -0.11698168 0.019075993 0.1729523 0.06683995 -0.21125619 -0.04715369 -0.0041649877 -0.097265504 0.1900689 0.26123452 -0.12415481 -0.0398277 0.008258587 -0.2799807 -0.01287228 0.091357924 -0.047065966 0.073537685 0.03578424 -0.13885167 -0.08077492 0.09293804 -0.16785692 0.047353998 0.027867446 0.1491281 0.20243286 -0.04008714 -0.11052989 0.054889433 -0.019113464 0.08707227 -0.077100776 0.07082402 0.08650136 0.008901037 0.08339962 0.013685308 -0.07103889 0.053049624 -0.012498765 -0.07578015 0.115937226 0.06381043 0.06848062 0.10255387 0.06670189 0.17230947 -0.15709254 0.13987282 -0.12382074
35 -0.010847423 -0.038393848 -0.012397965 -0.046675004 -0.09775543 -0.15662421 -0.0888404 -0.11470574 -0.07661248 -0.08141456 0.2077351 -0.23968828 -0.06632719 -0.13396503 0.06932733 -0.0691582 0.03263185 -0.25080144 0.1302277 0.24420777 0.30081907 0.06937929 0.06127611 -0.18875167 -0.046438918 -0.045156628 -0.14850281 0.15809959 0.21007963 0.09645076 -0.18273611 0.101179555 -0.15326181 -0.00014414899 0.05507699 -0.117032595 -0.088003814 -0.115877226 0.14635155 -0.058436263 -0.025930261 -0.126961 -0.06362279 -0.003304401 0.16616878 0.14232711 0.13921742 0.01561345 -0.034851193 0.100810654 0.04645457 -0.08831942 0.042222418 0.006717957 0.1429289 0.07883823 -0.022763342 -0.030291757 -0.09461442 0.10094504 -0.11470215 -0.07311406 0.04239829 0.038248282
15 0.04260992 -0.1315799 0.011259164 0.08788461 0.17576256 -0.20436625 0.06529151 -0.04076042 -0.20504186 -0.02589097 0.06928843 -0.0744798 -0.020729128 -0.17094752 0.00825437 0.07490878 0.05261807 -0.046617128 0.3208197 0.16396469 -0.0957224 0.13098165 0.17237972 -0.05802675 0.14074868 -0.027988845 -0.04437437 -0.11174165 0.08085843 0.031105326 0.011077514 0.11944136 -0.057841957 -0.041739494 -0.11129412 -0.18542132 0.024107898 -0.10816507 0.15949151 -0.07293935 0.03197323 -0.11144069 -0.10165397 0.2698726 0.25429285 -0.024658466 0.048018996 -0.030833188 0.020002302 0.18650351 0.09181402 -0.08398304 0.07376294 0.10271399 0.16115509 -0.08168918 -0.19314243 0.0067359884 0.033792738 0.2369181 -0.0034490582 -0.13728249 0.013427477 -0.027860504
84 0.21894789 -0.21164888 -0.16457045 -0.0002133474 0.018824846 -0.20025127 0.08387833 -0.0074805175 0.0573999 -0.15285604 0.15250097 -0.010961252 -0.24866681 0.029219031 -0.00081596227 0.2199414 0.13721845 0.011186075 -0.028901573 0.11285993 0.018325415 0.039362658 0.16274622 0.05150882 -0.028700318 0.13466558 -0.24804102 -0.1661676 0.15465894 0.04312758 -0.032167487 0.058584377 0.009564983 0.0012726502 -0.11762062 -0.11034549 0.08887011 0.01016659 0.13170652 -0.003092619 0.15489987 -0.12706816 -0.020558394 -0.17382562 -0.1594023 -0.03810336 -0.105890006 -0.110182844 0.083932355 0.069924675 -0.017133191 0.0046999087 0.10614531 0.13302387 0.030643286 -0.010829817 0.14260112 -0.06018843 -0.09053075 0.32553434 -0.03728039 -0.1694914 0.17887734 -0.09825745
19 0.04305645 -0.059031773 0.1839248 -0.12115226 0.17848428 -0.2600973 -0.109454915 -0.048328537 -0.17471537 0.011947154 0.07518677 -0.2550745 -0.07705848 -0.08856605 0.032986056 0.15749781 0.014115857 -0.08946599 -0.19332407 0.11318735 0.1143005 -0.06580639 0.060709476 -0.0822285 -0.021098861 0.08567545 -0.04259594 0.15865138 0.10401538 -0.06984417 -0.25768176 0.046264775 -0.18599042 0.15507707 -0.12791887 -0.039901428 0.046715997 -0.052521862 0.0606485 0.018752499 0.00816075 0.024009576 0.0051814285 0.09202399 -0.025918616 -0.05550796 0.1613237 0.0013053219 0.12584887 0.0057488065 0.009171594 0.051280394 0.19756769 0.016593324 0.135424 0.21202667 0.029643144 -0.09047639 -0.090585805 0.13657129 0.042087868 -0.16021541 -0.0393721 -0.14236766
87 0.0762444 0.110607095 -0.055056874 0.122930124 -0.11127197 -0.31497595 0.10122104 -0.1875083 -0.0854961 -0.12627245 0.04780521 -0.16795954 -0.0018507395 -0.09083528 0.02458401 0.022157172 -0.020171776 -0.10272467 0.03802542 0.25059325 0.18991403 -0.021344405 0.12364921 -0.05813279 0.046528008 -0.0031751867 -0.014221763 -0.060132373 0.30703607 -0.09427128 -0.09633508 0.02679215 -0.12112547 -0.02927694 -0.042910144 0.08723212 0.16413201 0.0026257618 0.19658576 0.07439707 -0.105520844 0.061208766 0.026877707 -0.004298578 -0.028019235 -0.040930312 0.13877112 -0.22894466 0.077759214 0.116488114 -0.05764425 -0.046405956 0.007963774 0.2542527 -0.092598595 0.11161949 -0.007352372 -0.03550364 -0.012645615 0.01443545 0.10651016 -0.13983622 0.13643421 0.0208783
88 0.15338232 0.05518074 -0.05203278 0.0151434485 -0.07393069 -0.16535072 0.06634204 -0.092775196 -0.04812844 -0.008229024 0.10391692 -0.18499789 -0.11299513 0.08383905 -0.1846437 0.025025215 0.06494828 -0.1976564 0.059003435 0.102223925 0.09726906 0.2732911 -0.013818952 -0.10158714 -0.2200732 -0.059939615 -0.25932145 -0.067568645 0.12084002 -0.15003918 -0.15276338 0.020374391 0.0525925 0.025083076 -0.24601303 -0.026866809 0.06503386 0.13989939 0.14206599 -0.055650376 0.045992393 -0.12514172 0.15185115 0.091591395 -0.0188412 -0.14574435 0.09896261 -0.17014496 -0.11325472 0.018033305 0.16153963 -0.1313078 0.16023575 0.15197562 0.14855945 0.18117742 0.18204148 -0.120260544 -0.13190342 -0.020209575 -0.022356717 -0.15780088 -0.18193442 0.12455264
69 0.08861257 0.09147415 0.05255127 -0.13569425 0.03363909 -0.2193026 -0.018661775 -0.007684115 0.093625784 0.050547287 0.22209999 -0.17687476 0.031267658 0.089268625 -0.028115053 0.015846608 0.08211738 -0.09433046 0.20362228 0.09036661 -0.079110794 0.14453761 0.021757063 0.13817017 0.19026734 0.19431454 -0.20268254 -0.02943034 0.16159078 -0.09036033 0.025306974 0.028190078 -0.06663468 -0.13448402 -0.1488915 -0.10730578 -0.10820803 -0.12151534 0.070554815 -0.013727097 0.110419944 -0.111540474 -0.08054072 -0.018348124 0.0056112777 0.036581278 0.118698016 -0.04282267 0.13356994 0.15622681 0.08492404 -0.018373774 -0.021524046 0.117811695 0.028068991 -0.026756521 0.08535385 0.012316214 -0.025204375 0.3417589 0.096524306 -0.28982216 -0.09304226 -0.033971783
28 0.048986103 -0.097071245 0.06784472 -0.06452321 -0.14962862 -0.23964176 0.20562635 -0.013730391 -0.2702619 -0.047254853 -0.11613502 -0.2520587 -0.112826064 -0.08726596 0.056081053 0.048045162 -0.06836409 -0.1008653 0.037887953 0.16774067 0.11305928 0.16561732 0.17115565 0.111675285 0.053389594 0.054958504 -0.04683337 -0.092423454 0.08141141 -0.08014655 0.042050168 -0.11166598 -0.0631717 0.033719044 -0.11746607 -0.05675777 -0.13785352 -0.20028903 0.14334933 0.012301389 -0.058579057 -0.065620825 0.008838639 -0.035486575 -0.07191506 -0.069683164 0.24382679 0.035093054 -0.2078728 0.1140893 -0.0138064595 -0.031983938 -0.07757054 0.05268392 -0.095541276 -0.11407617 -0.07280843 0.019877173 -0.00616778 0.16878167 -0.075393476 -0.15610236 -0.06325634 0.0007296877
63 -0.075020395 -0.101094104 0.11951821 0.039691076 0.028479682 -0.11339807 -0.057684984 0.007803788 -0.22510727 0.03347493 0.06299841 -0.10631176 -0.13565437 0.24130617 0.02946926 -0.0035489944 0.06739657 0.0031372374 0.1097539 0.28928643 0.013202131 0.06429724 0.13274609 -0.07654206 0.24734691 0.051373653 -0.24223186 0.119050205 0.043136343 -0.087958165 -0.052844357 0.10538112 0.13094275 -0.08333289 -0.085873865 -0.008816497 -0.016308542 0.10233449 0.1534473 0.17136094 -0.026293356 -0.18669778 0.0011797979 -0.04531788 0.00044165787 -0.10114989 0.01889212 -0.052063663 -0.028906923 0.016704714 -0.24300031 0.22095817 0.049121056 0.15715495 0.18900158 0.064143695 0.0030391265 -0.044890452 -0.1619877 0.183084 0.12965117 -0.070010394 0.040020797 -0.074642174
16 0.05873035 0.01332749 0.15286082 0.033381734 -0.12591419 -0.21005821 0.059171326 -0.12548201 -0.0801587 0.09035634 0.14382364 -0.18939625 -0.13604735 0.07932991 -0.07396146 0.058938187 -0.032748993 -0.011491719 0.03519415 0.23391178 0.10207511 0.19747391 0.18526365 -0.2653143 0.032775287 0.04879936 -0.053382125 0.0392756 0.114108264 0.0012767455 0.057088017 -0.07366408 -0.13053443 0.07587185 0.2092434 -0.17027915 -0.0073902286 0.1277433 0.026882013 0.08446822 -0.112324394 -0.13551219 0.12800047 -0.021278366 0.16163959 -0.10938218 0.005939459 -0.020536898 0.07269316 0.056413967 0.068652056 0.03719257 -0.05665289 0.05801741 0.10705706 0.26901236 0.045047138 -0.1748151 -0.1171952 0.1659287 -0.048816644 -0.038884178 -0.035785023 0.1195485
5 -0.030293623 0.062330432 0.02174611 0.0065305615 -0.13464195 -0.289022 0.22160284 0.0023707286 -0.26989743 -0.26446578 0.03531948 -0.28867528 -0.2337939 0.09914942 -0.0057020835 -0.025799613 -0.09296851 0.056893405 0.16841133 -0.019528119 -0.0919816 0.06896813 0.13429148 -0.08734099 -0.011868349 0.06655514 -0.3278 -0.06235518 -0.08902458 -0.07614145 0.03138087 0.08833442 -0.009686181 0.08882815 0.07222713 0.004080288 0.04687128 -0.015685668 0.010507526 0.1455266 -0.0083070155 0.1114645 0.08065132 0.14120042 -0.038744763 -0.012887898 0.08855152 0.03234099 0.23141348 0.20816247 -0.11096149 0.034445375 0.2193951 0.083605826 0.07965569 0.03969477 -0.046118017 -0.009946561 0.08786162 0.0496327 0.09024766 -0.17348263 0.15721263 0.04092336
99 -0.049060352 -0.13610289 0.1594432 0.0013048436 -0.11837247 -0.19988434 -0.051486306 -0.0787054 -0.18213104 -0.14010106 0.19859546 -0.042770483 -0.25145853 -0.019641688 0.1292983 -0.03780122 0.029957177 -0.020036018 -0.07771265 0.05220072 0.10207701 -0.015017775 0.102487 -0.2049203 -0.009011185 0.046601623 -0.101429924 0.018992921 0.33074212 0.091969974 0.105114505 0.025044702 -0.03378719 0.015085657 -0.084134184 0.072666205 0.059615552 0.052091442 0.18999396 0.13163954 -0.12985706 -0.06354536 0.06957759 -0.08905349 0.033562947 0.017827496 0.19431512 -0.09700853 0.050851732 0.066154525 0.10070189 0.10581271 0.32442465 -0.101354115 -0.13328056 0.16690978 0.022640664 0.03342721 -0.02567617 0.30863956 0.18841343 -0.020658746 0.02002177 -0.08988837
13 0.1122719 -0.17328632 0.23787819 0.034531716 0.033531815 -0.19405128 0.00879182 -0.23492374 -0.15478222 -0.13715155 -0.054288782 -0.12288396 -0.1628073 -0.10913748 0.04460383 -0.021673286 0.014062202 0.07936128 0.034404945 0.0789228 0.005060714 0.16908799 0.055003826 -0.23864183 0.04337587 0.119348735 -0.13968097 0.13640274 0.014095432 -0.13030463 -0.29855752 -0.09982758 -0.20674288 0.2766548 -0.10113142 -0.07256917 0.051656596 0.17334905 -0.049748708 0.054632943 0.073743664 -0.039408553 0.11593651 -0.28169173 -0.012346016 -0.18056196 0.03793626 0.0065672332 0.011042058 0.047344238 -0.21336655 0.1060397 -0.03837048 0.13289487 0.1231009 0.0870807 0.049900282 0.038968574 0.04060011 0.1864417 0.11896087 -0.08472219 -0.01556061 -0.006900329
33 -0.11429392 0.031780247 0.057079382 -0.066226 0.051084056 -0.13712305 -0.05933824 -0.2222674 -0.2066917 -0.14336263 0.0021829898 -0.019195443 -0.043628365 -0.07203967 0.10693555 0.10379959 -0.11821422 0.059548967 0.08686581 0.23957878 -0.05808848 0.096880585 0.096641205 -0.12544332 -0.15543377 -0.10992053 -0.094063334 0.090368204 0.03369996 -0.15268792 -0.004811478 -0.04546331 -0.11770494 0.05358191 -0.18012047 -0.037630074 -0.014245099 -0.08695553 0.022886582 0.040482536 0.12414658 0.033318695 0.06311107 -0.21138678 0.10056696 -0.19827083 0.16497555 -0.0614459 -0.04680167 0.25464818 0.02603415 0.014256863 0.08690414 0.12977023 0.18549699 0.18333253 0.0035061375 0.065791294 -0.06307971 0.11562824 -0.022408279 -0.200069 0.2163798 -0.103197195
71 -0.0029010724 -0.22754572 -0.12879829 -0.055259682 0.08020556 -0.28081214 0.17663704 -0.1234684 -0.072462305 -0.08267091 -0.051596638 -0.16434036 -0.031252895 -0.13970572 -0.016968261 0.11131073 0.06238501 0.047953643 0.02675524 0.24591285 0.07757529 0.17782602 0.060140166 -0.12695862 -0.0066588446 -0.025449853 -0.19267179 0.020735549 0.08825998 -0.19451891 -0.1518396 -0.13482651 -0.11684354 -0.08207331 0.019264208 -0.10341301 0.099085495 -0.07527941 0.17703404 0.13456589 -0.042368565 0.10400138 -0.035496656 -0.05082839 0.13312924 0.030219018 -0.034570377 0.027208935 0.17624615 0.0044900146 -0.07395559 -0.08231164 0.058172375 0.18699002 -0.052889004 0.16914307 0.0030271509 -0.14542559 0.042270597 0.08033073 0.015435858 -0.045873795 0.032191552 0.013090448
44 -0.010243927 -0.002527674 0.05226707 -0.104199745 -0.032952245 -0.16403192 0.24137191 0.038233195 -0.07175848 -0.09008726 0.063631535 -0.23376398 -0.1468219 -0.0019770698 0.016952649 0.23824143 -0.050399236 0.036298092 0.025618061 0.31965894 0.06323822 0.13609913 -0.039261643 -0.031698283 0.014741435 0.0068113883 -0.13044348 0.038581617 0.08701564 -0.20801833 -0.044235874 -0.15280874 0.03913353 -0.023337584 -0.065832116 -0.31978053 0.06690057 0.058560148 0.12997536 -0.01765247 0.0719392 -0.027656179 -0.15992373 0.004053528 -0.025361286 -0.21904162 -0.043498605 0.2578145 0.18573706 0.08809784 -0.14547087 -0.11693581 -0.0005411463 0.017093746 -0.012005739 0.049232543 -0.0770451 -0.07081068 0.07645099 -0.028117035 0.2322613 -0.15197209 0.24952969 0.053224713
77 0.1868023 0.016521025 0.13054872 0.080993675 -0.017639529 -0.21794347 0.11694202 -0.031640355 -0.116546996 0.09671775 0.05349033 -0.23588422 0.031146979 0.13089548 0.06446389 0.1409803 -0.01313401 -0.10654325 -0.036986418 0.023677222 0.031417273 0.14574347 0.22058599 -0.021401314 0.04776616 0.108696826 -0.15310957 -0.18042941 -0.06271602 -0.053036515 -0.004561466 0.038284227 0.068797156 -0.062475678 -0.16238905 -0.04938024 -0.03670483 -0.09344157 0.063242346 0.097276114 -0.092725456 0.018225174 -0.23671278 -0.0890141 0.07687128 -0.1412629 0.14523286 0.13494375 -0.0900827 0.2823685 0.022934787 -0.1359411 0.18758814 -0.07214124 0.17136186 0.22491735 -0.120229915 -0.22882782 0.0707137 0.29695055 -0.18173644 -0.0637243 -0.02275233 -0.04721048
65 0.028868364 -0.056948654 -0.06033585 0.023185553 0.022877526 -0.22203648 0.12860586 -0.23394556 -0.14954974 0.007152296 0.07100381 -0.28850302 -0.069043994 0.082598954 0.051412825 0.07065189 -0.20995826 -0.029317893 -0.016677137 0.019010259 -0.00675863 -0.022177378 -0.11188937 -0.13585481 -0.16501778 0.021278575 -0.20213574 0.11027514 0.09092059 -0.02331153 0.08655176 0.013687084 -0.08365175 -0.11033335 -0.17635782 0.012933597 0.00081917015 -0.0835361 0.08216495 0.053839006 0.094210155 0.09068375 0.013004224 0.10328509 -0.021908918 -0.1947504 -0.09683321 -0.094245 0.021137342 0.09979744 -0.22803698 -0.03625935 0.12547618 0.22064778 0.0333962 0.0957815 -0.1907078 -0.06919678 -0.16954102 0.2569245 -0.08900924 -0.08784214 -0.042570677 -0.014259082
41 -0.05854954 -0.13919514 0.0028818855 0.03796797 -0.01673313 -0.1717477 0.06991359 -0.24727693 -0.22809128 -0.1856597 0.09356331 -0.16975853 -0.10974747 -0.13246568 0.14084893 0.008438974 0.17347959 0.0682034 0.096217744 0.08709973 -0.0785526 0.27181387 -0.20653775 -0.09333852 -0.13379924 0.1520165 -0.18122776 -0.030377204 0.0781835 -0.11362977 -0.16439791 -0.050925646 0.0008543673 -0.09260712 0.013474982 0.014320245 0.10293476 -0.034044527 0.09710363 0.14088027 0.13049032 -0.11561024 -0.09698987 -0.019251637 0.007430662 0.09934794 0.19537073 -0.24344307 -0.00095706474 0.06294862 0.12169888 0.10489111 -0.022084516 -0.023736695 -0.04774285 -0.106566 0.16075724 -0.059871357 -0.12841444 0.086282484 -0.0018452195 -0.24052814 -0.086095236 -0.15004243
18 0.14224838 -0.14856292 -0.008322437 -0.21762517 0.027547093 -0.30541876 0.14706732 -0.016506175 -0.14029951 -0.09241617 0.1734245 -0.09494694 -0.0026292838 0.06437108 0.048333038 -0.03722818 -0.13192981 -0.05522695 0.09752465 0.10126209 0.101931 0.16002464 0.09274554 -0.009916327 0.26073688 0.08107376 -0.13410217 0.04840559 0.25333446 0.03312274 -0.10248186 0.10916218 0.058069266 -0.011934595 -0.064008944 -0.0982481 -0.06620984 -0.02842852 0.21243972 -0.09241355 -0.16721019 -0.0013135438 0.046988897 -0.20192252 0.15427858 -0.15374337 0.03016849 -0.013630755 0.16846594 0.12964319 0.079849705 0.09666043 -0.0034117757 0.107303895 -0.11466131 0.00020809387 0.062846586 0.074661344 0.058070097 0.06113525 0.13891242 -0.24433184 0.009290915 -0.03417422
14 0.051485512 -0.1270301 0.034879725 0.119658716 -0.05672779 -0.24457003 0.02469047 -0.04974927 -0.17694004 -0.19629441 -0.050726894 -0.19189811 -0.07646799 0.12294279 0.12526633 0.12389579 0.12575622 -0.012604361 -0.11252543 0.07197157 0.11472594 0.19145666 0.1792614 0.04344242 0.075738 0.04265844 -0.2266953 0.14209208 -0.06682065 -0.03967863 -0.06592195 -0.005882689 -0.062247343 -0.14020088 -0.22439991 -0.12942493 -0.028844854 0.1002382 0.12270129 0.16728584 -0.008582132 -0.09406432 0.12801488 0.25014997 0.05931179 -0.028031385 0.0044490504 0.17721835 -0.20093913 -0.010524034 -0.19265132 0.050143525 0.18684408 0.009068597 0.07435603 0.19678153 0.094202675 0.03999665 0.022773424 0.07323336 0.148727 -0.10796211 -0.008615032 -0.0063228505
11 -0.0055897553 -0.06977907 0.00065493805 -0.15739065 0.00578298 -0.112221226 0.07739727 0.016035046 -0.016868426 -0.04328312 0.05661009 -0.2608908 -0.10977834 -0.0856328 -0.051260307 -0.017665489 0.09346995 0.12000462 -0.106949806 0.083348304 0.23270924 0.26098716 0.30888963 0.01558415 -0.18014245 0.21395928 0.011571371 0.11004634 0.05479329 -0.04027313 -0.009080939 -0.15257733 -0.13143793 -0.029226948 -0.36611915 -0.09566315 -0.067106344 -0.062284444 0.13634817 0.011933545 0.121696904 -0.021392083 -0.12373092 0.14457428 0.10032556 -0.06180189 -0.062375486 -0.12159718 -0.072626464 0.014766597 -0.108009204 0.018187582 0.24848928 0.13206685 -0.03786985 -0.077960275 0.020732041 -0.047303513 -0.03776748 0.1858997 0.10147571 -0.10026869 0.035578612 -0.08048645
29 0.09612934 0.05261975 -0.070234366 0.22199087 -0.113688044 -0.20219694 0.039232835 0.049688496 -0.1873572 -0.11145056 0.29961434 -0.17793575 -0.040628362 -0.17757396 0.19820808 0.16912346 0.08719638 0.0021032922 -0.008741503 0.09216157 0.15866522 0.28580633 0.07161293 0.020581461 0.024177818 0.18341672 -0.047720455 0.038833555 -0.13651471 0.15258048 -0.022856057 0.02354512 0.016144754 -0.021779718 -0.13863279 -0.0013243264 0.11555964 -0.039129954 0.25250056 -0.035857446 0.2976674 0.09673458 0.14172024 0.07653573 0.07229272 -0.00793333 0.044602282 0.12005759 0.22998811 0.19966309 -0.11061837 0.011675823 -0.10866807 0.063972645 0.17327526 0.047464505 -0.029751688 0.11208118 0.035083193 0.31103617 0.10067292 -0.031804033 0.01331515 0.12668157
6 -0.05436738 -0.036869578 0.10696428 -0.057776958 -0.13878429 -0.13558371 -0.09198461 -0.11166087 -0.23172528 -0.20384327 0.051838167 -0.20426507 -0.062077843 0.03742225 -0.15725225 -0.08844744 0.02820325 -0.014224064 0.074480705 -0.0051844255 0.20627126 0.1555199 0.10392675 0.013393905 -0.12076706 0.10439371 -0.18399897 0.09011266 0.057745058 0.015055184 0.045543958 0.01120901 0.06998431 0.015064024 -0.11652726 -0.16802211 0.10997842 -0.042626653 0.39678958 0.002409768 0.016881833 -0.08220132 -0.07205704 0.15223497 0.064419135 -0.14576754 -0.08807912 -0.014852577 0.020740358 0.14288664 0.031979397 0.06087695 0.0378393 -0.032091595 -0.023682991 0.06955687 -0.2446613 0.08324722 -0.15555775 0.20911983 0.18047236 0.04952825 0.044760328 -0.11285645
82 -0.070863836 -0.19106919 0.11361775 0.1559284 0.039470553 -0.04698045 0.072073385 -0.084682524 -0.14895707 0.1601627 0.27789944 -0.07574293 -0.13315335 -0.13815585 -0.032080032 0.15505676 0.1162677 0.23284793 0.13870019 0.22310366 0.06267587 0.18351494 0.01869312 -0.050953902 -0.06774773 0.07832059 -0.03996796 -0.041347966 0.040218234 -0.04820697 -0.20252739 -0.120545104 -0.0038846503 -0.038255624 -0.0049329135 -0.02957322 0.007663699 0.05100877 0.15201585 0.117630176 0.064412706 -0.04806681 -0.026146607 0.014822145 0.26832357 -0.12446875 -0.11885801 0.054293334 0.12580967 0.061008394 0.018073019 0.03674716 0.09026503 0.019112749 0.07881743 0.010097985 -0.04716646 -0.002873457 -0.05845332 0.23021342 0.04411153 -0.2976551 -0.046672054 -0.12176308
55 0.039933715 -0.012766112 0.12900701 0.07907696 -0.24788405 -0.08516612 -0.054360796 -0.064552955 -0.051781297 0.027515728 0.17545111 -0.0071425927 -0.043112602 -0.06858585 0.1496475 -0.107888035 0.022298314 -0.0070213433 0.035505846 0.24252234 0.058389347 0.08434041 0.112642564 -0.1732972 -0.024884637 0.023503317 -0.25966543 0.056589212 0.11152219 0.017571282 0.070887 0.1308396 -0.2640356 0.04118598 -0.076058745 -0.029398542 0.11368783 -0.075145036 0.13916588 0.062388822 0.14214118 -0.18894494 -0.054275483 0.17497146 -0.08022964 -0.064942285 0.09610843 -0.07164214 -0.08324572 -0.007593382 -0.039531093 -0.0046376493 0.1648087 0.1548497 0.09000471 -0.12548622 -0.022270575 0.15644695 -0.053861573 0.27944642 0.0882454 -0.14894184 0.12151316 0.088783525
2 -0.054219756 -0.08373444 0.058197405 -0.041809507 -0.16252267 -0.26356956 -0.20825303 0.16623253 -0.14925724 -0.035422217 0.16289923 -0.29418692 -0.14237525 0.15306807 0.011729188 0.0061040516 0.10802944 -0.03096442 -0.12409646 0.28825948 -0.020281455 0.06917744 -0.042847887 -0.11260391 -0.06617506 -0.04343037 -0.12768616 -0.037308134 0.06770527 0.007301588 -0.077581614 -0.10254192 0.1371811 -0.022651676 -0.10057784 0.17478043 -0.06416876 -0.11867606 -0.00037753236 0.031677976 0.0037409568 -0.12609279 -0.043162048 0.09814509 -0.1597789 -0.105750605 0.07151391 -0.027625388 0.021234686 0.22034466 -0.08001735 0.019991618 0.25035912 0.13210906 0.17635578 -0.023682753 -0.12920144 -0.17944616 -0.049187522 0.1484455 -0.009465687 -0.20974602 0.08940232 -0.10661295
10 -0.120944045 -0.037272815 -0.039974544 -0.084541075 -0.10230579 -0.012863344 0.060891923 -0.104604654 -0.104764886 -0.21931358 0.04753266 -0.2552936 -0.1719592 -0.117091544 0.029797595 0.11404562 0.043679368 0.015102722 0.12891234 0.13134095 -0.07077971 0.22400123 -0.015268824 0.018203178 -0.018712413 0.16347411 -0.25830105 -0.1682569 0.08505048 0.057824574 -0.09101304 0.0024584448 -0.04231847 0.02676419 -0.21422365 -0.11080901 -0.13795525 -0.06462861 -0.030899502 0.13075975 -0.020239873 0.04415613 -0.07587149 0.0112975435 0.054372445 -0.27965498 0.055732034 -0.07275389 0.03326152 -0.03509041 -0.09112084 -0.044476923 0.3293137 -0.03164487 0.1525241 -0.013504146 0.01619124 -0.072910085 0.0006245594 0.15419266 0.1790361 -0.07529109 -0.016891627 -0.14626715
76 -0.0050475723 -0.10952577 0.17670524 0.0732865 -0.06415324 -0.24842818 0.04577821 -0.07399946 -0.2440994 -0.17768332 -0.051575027 -0.2092147 -0.011826625 0.06506251 0.030115582 0.068471454 0.14408436 0.14164832 0.16481137 0.06353879 0.059553467 0.13754484 0.05854529 -0.10775348 0.023234235 -0.08305486 -0.2752475 0.04567829 0.042229954 -0.0602908 -0.049148325 0.15500621 -0.20895189 0.04677658 -0.06157119 -0.11988098 -0.05299031 -0.25576153 -0.07556222 -0.1909909 0.01125347 0.03363622 0.077340804 0.02881024 -0.13172303 -0.13067107 -0.16381416 -0.027693726 -0.029868394 0.038468033 0.08452731 -0.0061055752 0.009827811 0.04242305 0.08073742 0.084724545 -0.004584 -0.06040992 -0.05767572 0.14857861 0.072887704 -0.12592751 0.07697951 0.05476298
89 -0.18459769 0.026760751 0.026949827 -0.12256437 0.2635346 -0.2388171 0.08266514 -0.0271418 -0.19887418 -0.08943866 0.16720146 -0.05855469 -0.17282462 0.112247735 0.062124453 0.16278915 -0.036328945 0.07305197 0.078780636 0.016750576 0.24070624 0.17888094 0.0036964696 -0.028158268 0.0095827235 0.0040687383 -0.14711474 0.012663268 0.043120157 -0.09687263 0.031516492 -0.06179474 -0.21780382 -0.08113412 0.121502005 0.039183922 0.033473697 -0.10569704 0.19047481 0.019174013 0.24803917 0.0003827268 -0.07016251 -0.039962053 0.03195125 -0.108300485 0.095142476 -0.058312193 0.02129336 0.06568193 0.19112429 0.051065516 0.11863256 0.0071387864 0.17817234 -0.03711173 -0.00093653804 0.04221189 -0.18472268 0.1305636 0.011212849 -0.265685 0.02381332 -0.11032666
45 0.061863903 0.11223524 0.14323384 -0.02051897 0.022583459 -0.14504047 -0.15377095 0.0052417703 -0.28848395 -0.16707043 -0.064032584 -0.19647226 -0.17317292 0.102853864 0.03561938 0.08118499 -0.05685843 0.10308194 -0.11482716 0.21451534 0.06949471 0.20838399 0.21547791 -0.1281139 -0.056859784 0.196182 -0.09075582 0.082166344 0.087812155 -0.2366179 -0.093628086 -0.040785737 -0.3124743 -0.14401437 -0.13401403 -0.11758694 -0.012720996 0.11134614 0.005264728 -0.09388734 0.09943247 -0.032380633 -0.0008285816 -0.02680485 -0.04144521 0.055609338 0.06587573 -0.07805041 0.00055155234 0.078743674 0.13585348 -0.0561482 -0.0062428745 0.33224905 -0.008200299 -0.14697829 -0.06340668 0.026403358 0.10415803 0.02030148 -0.16461195 -0.15668203 0.048968058 -0.13898277
81 0.12939896 0.13376653 0.24944398 0.015840223 -0.064674854 -0.20069557 0.009401122 -0.32431194 -0.103771076 -0.09689299 0.06274198 -0.15249863 0.053230826 -0.15950438 -0.014344417 0.19554918 0.19405992 0.057231046 0.1113609 0.19807568 0.14617021 0.094973184 0.1305646 0.023024224 0.018920189 -0.060925808 -0.091073096 0.060417354 0.066853315 -0.11338402 0.046560355 -0.131698 0.12018891 0.007867407 -0.2442202 0.02514998 0.11364462 -0.06121572 -0.19029857 0.2604624 -0.10091732 -0.09300041 0.014068119 -0.036778037 0.104609385 -0.052035004 0.1766971 0.06078889 0.14990087 0.027469333 0.10655163 -0.14751276 0.18367212 0.015915677 0.100866616 -0.23083188 -0.09735617 0.02326095 -0.12667409 0.18171188 0.05509893 -0.2492529 0.034212194 0.020855788
97 0.027584981 -0.11611845 0.024718922 -0.19044635 -0.102790326 -0.29970232 0.113130525 0.079918124 -0.20646226 -0.029298559 0.11477615 -0.19646329 -0.06518484 -0.058004066 -0.088046424 0.09270538 0.15514041 -0.09881225 -0.01217708 0.13311242 0.15349391 0.121421374 0.060124848 -0.027131116 -0.05944971 0.13247316 -0.09879842 0.028412228 0.1512731 -0.028533116 -0.24492648 0.11164909 -0.18105355 0.06863803 -0.08737684 -0.060096636 0.009040222 0.058625266 0.010884332 -0.12976755 -0.04464365 0.04773933 -0.058488227 -0.04032032 -0.00859555 -0.06947541 -0.123701505 0.19713284 -0.061457295 0.09763138 -0.054419752 -0.056773115 0.114441134 -0.03441769 0.13253185 -0.07887186 0.23074175 -0.035016727 -0.12901074 0.16540037 -0.115247846 -0.11915393 -0.17240432 -0.09752591
7 -0.015499311 0.038224295 0.055797413 0.14275578 -0.014088553 -0.1562626 0.026485095 0.038228367 -0.1790512 -0.056663822 0.03128077 -0.18270758 0.05712714 -0.15966786 0.30968943 0.15590376 0.11223282 0.115637146 0.24750687 0.10525091 0.06677477 0.12857719 0.024988363 -0.2325236 0.088807434 0.060945295 -0.122747935 -0.0544843 0.3256926 -0.13267493 -0.08101197 0.08341264 0.014287462 -0.096073225 -0.054717764 0.054570075 -0.12150521 -0.04020916 0.12548158 -0.0049121478 -0.19732589 -0.030803582 0.078478046 0.022152334 -0.0076980256 0.061379466 0.038147196 -0.027772596 0.029321773 0.17260312 0.06853076 -0.175572 0.13944092 0.24373393 0.050516218 0.0550564 -0.06085514 -0.17691012 0.17226487 0.001446139 0.14117528 -0.104375854 -0.150147 -0.1677086
92 0.3638971 0.2063084 -0.025269156 -0.076378345 -0.21276896 -0.33476216 0.0011697791 -0.30047882 -0.15741502 -0.26960328 0.115002625 0.035605054 0.095767915 0.030862657 -0.0519989 0.108736105 0.06453631 0.07906025 0.060473736 0.103021875 0.110416204 0.24492167 -0.02233339 0.05177487 -0.03797059 0.3068259 -0.21608008 -0.037964165 0.10866713 -0.05083142 -0.07901415 -0.03206424 0.06691024 0.015197025 -0.02327446 -0.051899333 -0.052254923 0.12907487 0.010204959 0.15706475 0.035379305 -0.07986222 0.11499697 0.19212826 0.096431956 -0.030336836 0.015406978 -0.1126053 0.070841886 0.16747196 -0.15891807 0.039502043 -0.03049669 0.047129337 0.12029035 0.10507208 0.089262165 -0.10174952 -0.12867138 -0.030443579 0.0679938 -0.14014013 0.014404454 0.061588492
80 0.07277257 -0.07220526 0.27762 0.0528964 -0.10438991 -0.23734502 0.27582633 -0.09452127 -0.26830083 -0.1725749 0.33266816 -0.17186365 0.024386339 0.06034666 -0.08123622 -0.06319253 -0.11113919 -0.13666604 0.029637456 0.10294437 0.17564245 0.056621432 -0.042023357 0.032277383 -0.058005612 -0.03419623 -0.12206793 -0.15789422 0.04827505 -0.24783474 0.02091279 -0.05906749 -0.06506994 -0.1402837 -0.03081668 -0.12730828 -0.033188447 -0.15930942 0.087239645 0.09491648 -0.032270048 -0.08028853 0.022272175 -0.08955171 -0.0078050126 -0.24898541 0.056212604 -0.06742648 -0.073913574 0.0645184 -0.07682598 0.020030703 -0.03270436 0.08512432 -0.14812544 -0.08632959 0.050088003 0.1464293 0.03799056 0.1637587 0.26158983 -0.043223973 -0.11896752 0.013544064
32 -0.0071434476 -0.052718997 0.17741978 -0.062033366 -0.027351968 -0.1563822 -0.10486168 -0.14494643 -0.1625101 -0.13523996 0.12413497 -0.021914858 -0.040364645 0.07658835 -0.09513361 0.06801664 0.16415706 -0.037790604 0.14100383 0.06594295 0.22928317 0.13626666 0.14005171 -0.06392131 -0.06784875 0.005358789 -0.21872188 0.28949562 0.106889896 -0.29686266 -0.09528651 0.012776093 0.18691923 -0.019505598 0.049407534 0.06741406 0.1545234 -0.15424553 0.043573022 0.24179342 0.04444984 0.07636128 0.08259463 0.16494069 -0.002992663 -0.036922786 -0.10064352 -0.01668808 0.16735266 0.036860153 0.024946189 -0.068271235 0.08064738 0.17787911 0.07184015 -0.0017428623 0.056684382 -0.093948804 -0.11883204 0.20174228 0.08146911 -0.11488845 0.1021787 -0.0238141
9 0.24046119 -0.16355827 0.32884505 -0.060173295 -0.05393176 -0.23628977 0.25345543 0.041613355 -0.24452122 -0.15344958 0.046658676 0.06765507 -0.01220398 -0.18580812 0.09924597 0.27412716 0.102017835 0.044603817 -0.19191658 0.13630062 0.033516783 0.11903348 0.0379263 -0.024059499 -0.0041557294 0.14064653 0.04259596 0.026104419 0.024767349 -0.014534933 -0.11855502 -0.056427643 -0.15518285 -0.21777552 -0.013685951 -0.15876482 -0.0013870631 -0.15406264 0.33889365 -0.092983454 -0.097017154 0.022939095 0.062130846 0.037545126 -0.06402382 0.026577234 -0.06763059 -0.13396752 0.13562259 -0.024232265 0.034855668 -0.059605006 0.14362854 0.03803758 0.15844023 -0.085803166 -0.04269015 -0.07068421 -0.056981463 0.14216019 0.06570281 -0.15599905 -0.13014166 0.018651528
70 -0.08740874 -0.108966455 -0.004462545 0.14016995 -0.02798118 -0.123950474 -0.03081172 0.0002639946 -0.09855093 -0.18628947 0.03467874 -0.2441408 0.042251885 -0.1160219 -0.047370333 0.029005399 -0.19859864 0.04924452 0.10564141 0.16705227 0.05973598 0.06951501 0.08129501 0.060067546 0.11707691 0.18536216 -0.34706953 0.01443296 0.05203711 -0.22258331 0.0679073 -0.18938088 -0.09950421 -0.027489398 -0.1859288 -0.09060517 0.009858638 0.09600519 0.13096227 0.027564613 0.051116843 -0.08316469 0.040369436 -0.06888384 0.119885206 0.10607967 0.1329949 0.014708671 0.057487823 -0.04326427 0.09552831 -0.04857495 0.17617476 0.17455013 -0.10698502 0.10539299 0.19564557 -0.0029393765 -0.25570667 0.24581406 0.03233994 0.0397278 0.19378898 0.0386078
34 -0.18965094 -0.0024073406 -0.11794052 -0.0085758595 0.029916773 -0.34730536 0.04362772 -0.0020756 -0.036477093 -0.036403224 0.12643114 -0.21463078 -0.013114574 0.006917299 -0.08201351 0.11586068 0.06831213 0.044858415 0.15398781 0.15544845 -0.09918899 0.3431577 0.1434706 -0.23982896 0.14823402 0.1015158 -0.04441021 0.12312772 0.11505823 -0.10677315 -0.08809088 0.056865297 -0.13439475 -0.1998298 -0.23931791 -0.20171678 -0.06757998 -0.02224823 -0.13799715 0.06437926 0.11572658 0.07010725 0.026441133 0.10498938 -0.07908071 0.18376109 0.02147465 -0.13789701 -0.041668095 0.10167437 -0.022803938 0.013267877 -0.018482922 0.09040368 0.13849548 -0.019145764 -0.061602708 -0.07417593 -0.25039554 0.07020661 0.080045044 -0.062484857 0.013625697 -0.09012205
73 0.1898393 -0.049141318 0.14665283 -0.21199694 -0.02214932 -0.20148359 0.11891392 -0.13232869 -0.023112984 -0.089739285 0.04561328 -0.31819803 -0.05335276 -0.16846482 -0.06586965 0.087577745 -0.2797573 -0.09483127 0.058828834 0.076463394 0.07583641 0.20555477 0.039989263 0.1577333 0.15284957 0.009785227 -0.230557 0.09770935 0.10535725 0.123079374 0.08424059 0.09745782 0.03818936 -0.0016813446 -0.07657436 -0.04072065 0.062879436 -0.02635376 0.07783358 -0.064104624 0.13339461 -0.013799305 0.0070914854 0.03860768 -0.03152942 -0.22317997 0.09787466 -0.08030616 0.13661815 -0.17929803 0.009255146 -0.04813697 0.10331391 0.21812932 0.1565492 0.06824563 0.015575172 -0.048421953 -0.055474583 0.2572849 -0.15466097 -0.03819265 0.052770823 -0.03028556
66 -0.08130019 -0.089983046 0.04032067 -0.08971768 -0.17760459 -0.27795485 0.10522097 -0.085309476 -0.2844815 0.02112515 0.0448185 -0.20028675 -0.25546205 -0.043505084 -0.07627924 0.13443863 0.02458078 0.12917453 0.007104969 0.065820806 0.1376752 0.052864306 -0.16869077 -0.090398386 0.07731508 0.23537876 -0.14495768 -0.19398099 0.22015612 -0.062030766 0.10942525 0.0010756457 -0.03433222 -0.18375681 0.24167074 0.0977144 0.139687 -0.013164738 -0.027354615 0.13340569 0.023768011 0.02454096 -0.065680355 -0.011799284 0.0012760457 -0.011087066 0.019776046 -0.026040008 -0.22028826 0.060052022 -0.15305315 0.045403376 -0.014481797 0.10187231 0.15968525 0.065402426 -0.19202265 0.13290897 -0.29353863 0.09090886 0.060289614 -0.2546165 0.033932265 -0.13715847
46 0.19811426 -0.056667026 -0.005459562 0.016530573 -0.1704795 -0.24133915 -0.052516647 -0.04962563 -0.1588935 -0.078465186 0.067777656 -0.066068985 -0.10937966 0.0415501 0.112157255 -0.004709062 0.038712546 0.058901113 -0.02431541 -0.045051876 -0.08711467 0.2731222 0.008567654 -0.3058536 0.034754943 0.17828284 -0.14221144 0.015071109 0.21355437 -0.11999891 -0.19151899 -0.043961097 0.008785347 -0.1117751 -0.11213757 -0.05146966 -0.103768274 -0.09841712 0.024025513 0.18288866 0.112027384 0.10942883 -0.07922942 -0.13068588 0.15396051 -0.175303 -0.1855399 -0.0045531895 -0.021307137 0.06507354 0.1534679 -0.18115273 0.14044683 0.014154444 -0.1549117 0.110084586 -0.048061676 0.07120122 -0.10525495 0.28154042 -0.054820973 -0.09166606 0.07804757 0.22181197
75 0.046485938 -0.11902888 0.18026595 0.116608754 -0.046630982 -0.08304744 0.26325998 0.017741317 0.03813142 -0.25359476 -0.002548784 -0.2732709 -0.08050329 -0.037055783 0.16333845 -0.034346502 -0.077195674 -0.07981253 0.0041046347 0.24831145 -0.09481405 0.22355893 0.03479812 -0.07907454 -0.06801167 0.08867797 -0.13595991 0.18319733 0.24506496 -0.09994458 -0.14456856 -0.06616903 0.09214125 -0.03688427 0.15996204 -0.13411592 0.0015352346 -0.0033885245 -0.017326048 0.059614167 -0.001891225 -0.058548175 0.021678349 0.19023214 0.15721312 0.019004213 -0.03262339 -0.112408146 0.091606885 0.16692722 0.020637708 -0.1875723 0.19577639 -0.06281845 0.11786977 -0.051380053 -0.07788489 0.050726097 -0.18145193 0.1368806 -0.10955573 -0.08981115 0.10934667 -0.21880595
90 0.0051774047 0.046329305 -0.02349533 -0.09758833 -0.007918808 -0.12844244 0.07845602 -0.07215999 -0.18550555 -0.010618376 0.013908947 -0.10982602 -0.26410225 0.07848332 -0.031138472 0.13821284 0.33947453 -0.2784256 -0.006287613 0.20052226 -0.0425602 0.10264365 0.22584794 -0.3819432 -0.061523486 0.078252584 -0.17236467 0.08633234 0.021674162 -0.1233549 -0.043005634 -0.0993943 0.08396981 0.20938821 -0.16464542 -0.13497013 0.11214669 0.10816662 0.034991264 0.015268173 0.04112037 -0.022903668 0.0037191382 -0.12007748 0.10791113 -0.22610654 -0.1221168 -0.12765692 0.075388655 0.02667074 -0.038329482 0.0057958174 -0.13615534 0.0061080707 0.099750906 -0.010904393 0.08287657 -0.071675465 -0.14808276 0.096313514 0.12068523 -0.15663287 0.04901231 -0.21535043
79 -0.019606218 -0.02440785 0.14990126 0.027377948 0.0028710328 0.03938352 0.14365706 -0.086754926 -0.22476757 0.18594414 0.1083379 -0.3329838 -0.29082903 -0.15912205 0.08109968 0.17282698 -0.21641119 0.05611821 0.13672799 -0.08384978 0.11625808 0.11135349 0.01664568 -0.12213998 0.017634194 0.10765409 -0.15399104 0.1548479 0.283244 -0.1099638 -0.021954348 0.114927165 0.0554923 -0.043946646 -0.028787004 -0.0040266505 0.046240997 0.20837939 0.14616954 0.08206622 0.07994729 -0.053372312 0.007908937 0.056532294 0.010787591 -0.031380337 -0.0066564064 -0.0063829366 -0.13763222 0.098605655 0.061477393 -0.106096625 -0.008855045 0.1401621 0.050963733 0.023062728 -0.099768035 -0.24616863 -0.16994107 0.122810215 0.063085005 -0.0808239 0.006579876 -0.017537756
12 0.073434204 0.037265185 -0.0013606207 0.052431483 -0.08321001 -0.24777743 0.082307085 -0.26431966 -0.21174128 0.10962126 0.17225571 0.0126559995 0.0043140706 -0.082479015 0.016609358 0.11440391 -0.08424225 0.054124035 0.05498157 0.38183302 0.014650672 0.14955093 0.0029539722 -0.110164545 0.16127431 0.18753065 -0.16258866 0.069874994 0.059846696 0.08754522 0.11091642 0.07102396 0.06314122 -0.08219241 -0.16989851 -0.20331562 0.119080976 -0.045304865 0.19249368 -0.08390055 -0.023386164 0.05561673 0.0046326295 -0.08303179 -0.1691166 0.1162674 -0.0065372647 -0.09572927 0.046547774 0.21056865 -0.17521752 -0.020549268 0.09491373 0.041470814 -0.1682411 0.16518945 0.09309819 -0.051604107 -0.12311175 0.1220697 -0.16431038 -0.06560453 0.049088627 -0.061925195
62 0.076109156 0.04378091 0.059877615 -0.03697029 0.1721354 -0.26263544 0.15653409 -0.24598752 -0.13922101 -0.21440911 0.17912312 -0.12091107 -0.08542521 -0.1489278 0.13134068 0.15402687 0.123202 -0.19680677 -0.035902143 0.21200892 -0.054165564 0.103973754 -0.28751105 -0.12854378 -0.11590712 0.1031152 -0.2961906 0.09212045 -0.036617715 -0.015301226 0.084609024 0.0010149047 -0.103482194 0.1815807 -0.24179481 0.013007796 0.08128702 0.0348236 0.034412142 0.026190124 -0.04477862 -0.019506836 -0.022633206 -0.092565894 0.022044742 -0.12639496 0.1299958 0.20613231 -0.122045115 0.060155366 -0.03858966 0.01389375 -0.24515982 0.07329774 -0.025916561 0.083096564 0.046683352 -0.09226506 -0.09114609 0.26343048 -0.03855213 -0.074630655 0.09857053 -0.12504762
3 0.006253394 0.13700424 -0.0248663 -0.18993393 -0.060100917 -0.2013792 0.08820701 0.023323098 -0.2967579 -0.14672832 -0.046989873 -0.27636978 -0.06362846 -0.25431892 -0.034030974 0.11076105 -0.029326156 0.11923412 -0.12915637 0.13214746 0.06507253 0.16334867 0.15043987 -0.18562214 -0.079483375 -0.1469587 -0.1703833 -0.09025543 0.16317269 -0.05181069 -0.111566536 0.102016635 -0.014770592 -0.010518921 -0.047301654 -0.07342023 -0.010836094 0.09748835 0.23060632 -0.036100473 0.025137959 0.010890723 -0.07190949 0.12584774 -0.05226284 0.033985514 -0.08752587 0.10033956 0.110271424 0.12979944 -0.0962212 0.025617678 -0.03200451 0.11367537 -0.032984614 -0.16393833 -0.096339144 -0.2998862 -0.048491295 0.14740524 0.18738398 -0.113806084 -0.25198716 0.13870716
72 0.10469117 -0.12662531 0.14852121 -0.07634712 -0.23224907 -0.11339242 0.09271275 0.00609863 -0.058644142 -0.08094731 0.010434199 -0.23537457 -0.14145 -0.07513808 0.096768685 0.10411432 -0.07326526 -0.29186797 -0.02471937 0.06937196 0.20774743 0.14644401 0.013968697 -0.27663153 -0.0977146 -0.08539759 -0.22752745 0.03862917 -0.016389634 -0.027549488 0.027513376 -0.05217296 0.037739936 -0.18436018 -0.07035723 -0.052401807 -0.06631876 -0.12927808 0.12334337 0.029241303 0.021363998 0.029419048 0.0026055125 -0.22576715 0.25114247 0.05543303 0.17853716 -0.008995842 0.0005004521 0.15999347 -0.10618612 -0.040670883 -0.043188337 0.1627476 0.04925579 -0.027778825 -0.08644808 0.15188497 -0.06752435 0.11389378 -0.060751233 -0.12889344 0.15714987 -0.21057747
23 0.077803455 0.050184652 -0.008920393 0.03595219 -0.11878329 -0.09521219 0.016268112 -0.17181414 -0.1656649 0.053901482 0.05799737 -0.2665632 -0.27636296 -0.07936536 0.110400826 0.05016038 0.07358663 0.0006949342 -0.17860435 -0.015512111 -0.0092023695 0.2546689 0.10554026 0.03270474 0.018472303 0.16635384 0.00091848645 0.15357327 0.1115128 0.02957251 -0.038990427 0.067342676 0.013741549 -0.056253895 0.012903429 -0.08558777 -0.06841993 0.19662116 0.0949827 -0.16039959 -0.14038993 -0.35325724 0.09849848 0.114249304 0.05744992 0.027762415 0.15605928 -0.076854505 -0.07954444 0.20550634 0.2288992 0.047692068 0.1571452 0.10573704 0.03386045 -0.09525708 0.17617612 0.043651182 -0.16393456 0.12343355 0.08098841 -0.3282365 0.06346101 -0.21028872
85 -0.033384033 0.040148832 0.11519657 0.10399067 -0.26939854 -0.3930945 0.042381413 -0.1908471 -0.05027355 0.054488372 0.14941266 -0.105719395 0.039179366 -0.063661516 -0.05230538 0.02539127 -0.050626088 0.042789523 0.205283 0.14971773 0.28879374 0.34080905 -0.042799804 -0.0055975546 -0.11291928 -0.06683963 -0.096502714 0.023397923 0.02740123 -0.047538538 -0.055203754 -0.2067028 -0.26119125 -0.20897925 -0.007083669 0.07414912 0.055174462 -0.0036210783 0.1806746 -0.16456956 0.034355167 -0.06255579 -0.18675537 -0.028765947 0.028724719 -0.19379483 0.04936968 -0.09902893 0.016123172 -0.0062585534 0.042577974 0.11499773 0.19177027 -0.06625333 0.06790973 0.14171839 0.056715213 -0.04718055 0.030364472 0.23002923 -0.046114627 0.16049863 0.011852707 0.019701619
17 0.10803339 -0.09060052 0.1083541 0.03119938 0.0031359212 -0.10714768 0.009396468 -0.10024531 -0.12827219 -0.18495473 0.27505127 -0.2814619 0.035694968 0.18498743 -0.025392186 0.28652793 -0.06322475 0.088981226 0.14645256 0.122179985 0.016861761 -0.04321965 0.1722797 -0.075874336 -0.34232795 -0.03266915 -0.095453195 0.18517038 0.051217146 -0.017749542 -0.07411421 0.12616077 -0.17305498 -0.17193384 -0.35836127 -0.1537553 -0.10487874 0.08268471 0.08892786 -0.06575013 -0.08985603 0.15503663 0.0342188 0.0033050145 -0.11411576 -0.02761809 -0.012329263 -0.05518206 -0.06638982 0.08424189 0.070055015 0.052691143 0.0049239662 0.15480994 0.17250375 0.09370031 0.107933536 0.041333597 -0.050059903 0.13998331 0.09298836 -0.17650156 0.10019494 0.13123661
67 0.034273747 0.14225201 -0.010832437 0.019082164 0.13884346 -0.2907006 0.10861299 -0.02741258 -0.15677495 0.060183555 -0.065856844 -0.026344925 -0.17353787 -0.055384476 -0.11185719 -0.1286287 0.10945018 0.022744449 -0.005864345 0.06989136 0.06449798 0.10847807 0.0071355463 -0.11897196 -0.017366203 0.3418128 -0.11066341 -0.11338511 0.23264024 -0.107510775 0.011529853 -0.14144124 -0.25042033 0.0716297 -0.2576027 -0.049968813 -0.106636286 0.055592205 0.0913623 0.08211458 -0.092492014 -0.025167175 0.051461156 0.015375925 0.13956955 -0.14426956 0.11080378 -0.15493974 -0.110416226 -0.050036393 -0.16014606 -0.19435953 0.1833387 0.07318964 0.014836538 0.12446084 -0.14496034 -0.23848 -0.0130151585 0.25021368 0.1479095 -0.08251172 -0.18032044 -0.14585395
42 -0.014021809 0.040169913 0.2742888 0.17807014 -0.13095276 -0.26695588 0.092782505 0.16408485 -0.020549333 -0.1188942 0.028639955 0.0037849757 -0.04215915 0.075300165 -0.05195618 0.26306418 0.0059033907 -0.20604894 0.19974574 0.20267001 0.13581531 0.024308704 0.29974994 -0.0018267693 0.08116889 0.098178774 -0.06849062 -0.04228045 0.26645866 0.057818707 -0.051113114 -0.11727633 -0.00917558 -0.15321867 -0.18478465 -0.052856762 -0.0019569455 -0.01619308 0.18881182 0.098354846 0.12305071 0.09073511 0.25277418 -0.07144537 0.037453435 -0.15422165 0.13758767 -0.08256911 0.10487767 0.08620972 -0.13310786 -0.072776146 0.06840481 -0.15781336 0.0619211 -0.07760186 0.05868064 -0.018671982 -0.09576857 0.12240142 -0.11975069 -0.12548903 -0.03611638 -0.13109799
78 0.0020185849 0.11556624 0.25181445 -0.106778815 -0.009695614 -0.25327405 0.12604731 -0.0053170454 -0.122738704 -0.062927686 0.12791604 -0.007446555 -0.1210858 -0.030367168 -0.06444679 0.0025606602 0.046030253 -0.06745873 0.30488998 0.08946095 -0.13774043 0.20473175 0.09514758 -0.10591703 -0.19271342 0.053613503 -0.29169422 0.084056064 0.21743982 0.12287097 -0.051479563 -0.042889733 0.024579594 -0.076707445 0.00033919237 -0.010433547 -0.115123026 0.19910257 0.1691948 0.17185163 -0.058893513 -0.061664436 -0.043047838 0.18443733 -0.015652493 -0.037800208 -0.012680402 -0.028098015 -0.15639272 0.09992982 -0.0049168724 0.24134757 0.0908225 0.005563848 -0.042913396 -0.17014688 -0.077815935 -0.120552756 -0.097610444 0.19787255 -0.072970055 -0.1974808 -0.07336669 -0.02906053
20 -0.042357247 -0.067351185 -0.016943125 0.0983337 -0.14032629 -0.22577168 0.12229311 -0.30170462 -0.22465068 0.05722885 0.19816527 -0.053296845 -0.04721725 0.09548272 0.009206376 0.09789395 0.028256226 -0.096560426 0.109581135 0.22642164 -0.024390714 0.25846148 0.25372672 -0.23221263 0.19200851 0.078100316 -0.105272785 0.018147625 -0.056109916 -0.098233886 0.09371903 -0.011252904 -0.080818206 0.11173359 -0.07518897 -0.10596958 -0.09717414 -0.08359733 0.1861486 0.12685372 0.016271237 -0.10602582 0.029782051 -0.031047594 -0.2381436 -0.18965212 -0.2536984 0.07737347 -0.00221103 0.079862066 0.097127475 -0.017859016 -0.03883121 0.24553278 -0.116387814 0.106412776 -0.16886558 0.08233336 0.0014445881 0.08027539 -0.13460304 -0.016965348 0.09344724 -0.17507567
56 0.008778521 -0.08908044 0.04234238 -0.1323927 -0.050336644 -0.25547495 0.02663034 -0.06739852 -0.08578405 -0.20314394 0.13055982 0.14576726 -0.2032238 -0.33228207 0.14589673 0.09100646 -0.06709582 0.24295712 0.14267296 0.31295845 0.15694834 0.13081522 0.1544545 -0.18670468 0.0727533 0.20497309 -0.20853272 0.004181421 0.2249004 -0.10338232 -0.07201045 -0.076929204 0.0638536 0.18601167 -0.12612192 -0.026759207 0.09608325 0.090694435 0.05649608 -0.01061095 -0.047663692 0.102639265 -0.015596296 -0.016263263 0.20421077 -0.22083086 0.116513 0.023439042 -0.1177556 -0.12103208 0.0029347504 -0.1001529 0.02772549 0.14232545 0.1506569 0.067818046 0.05368895 0.033087067 0.16264519 0.039728466 -0.07344098 -0.014909044 -0.059185013 -0.011363583
98 -0.15324807 -0.08763988 0.07478292 0.020008238 -0.099571064 -0.16747643 -0.016402349 -0.106834166 -0.058157496 -0.21207671 0.12597848 -0.030770613 -0.13827197 -0.033663075 -0.053910606 0.09023989 0.14303647 -0.025003918 -0.086490706 0.2601038 -0.12434776 0.004960802 0.13977885 -0.054693136 -0.12376014 0.07364261 -0.26577818 0.05610181 -0.028093243 -0.08141421 -0.008203391 -0.1237733 -0.1529636 0.043563325 0.25432315 -0.1590342 -0.18314855 0.058337834 0.11533309 0.020824224 -0.034522388 0.116966814 0.020108601 0.21779726 -0.046252336 -0.14041384 0.052515987 0.051246237 0.056303695 0.028160868 -0.06891769 0.104071654 0.0854582 0.020642258 0.23739493 0.020345777 -0.04486317 0.02696588 -0.0041273893 0.2507348 0.027487697 -0.40603006 -0.11499045 -0.12338834
59 -0.16853712 -0.017722387 0.1102323 0.07835524 -0.08198408 -0.38393593 0.101540454 0.041176222 -0.025195517 0.057530176 0.05707111 0.008106345 0.14146692 -0.083429374 -0.07601637 -0.1116923 -0.014450113 0.17704424 0.20625211 0.14828403 0.027752573 -0.07678526 0.078212924 0.039569926 -0.0014465558 0.024541784 -0.30210036 0.08580632 0.15973721 -0.075144544 -0.093242966 0.006598912 -0.09348114 0.03909303 -0.18611395 -0.34898627 0.04087624 -0.15302566 0.15804161 -0.02324201 0.10159888 -0.02880747 -0.12523004 0.106249645 0.0739174 -0.08447045 0.1273196 -0.08920582 -0.003843585 0.12928188 0.2409706 -0.117882326 -0.055604585 -0.19190353 -0.015272863 0.15007529 -0.016462427 -0.008594883 -0.19980362 0.115298875 0.098110236 -0.30020985 0.02041358 0.012150385
24 0.16517201 -0.049148194 0.11157214 -0.083489865 -0.027470075 -0.13272697 0.11509533 0.041809306 -0.30987224 0.19667856 -0.13260862 -0.11155572 -0.19869801 0.11177281 0.055180747 0.20235148 -0.0064799767 0.23465326 0.21510579 0.15176283 0.14641547 0.17087203 -0.03299237 -0.13547519 -0.042386703 0.091871 -0.18817018 0.14215904 -0.0010190189 -0.042973258 0.08900083 -0.020692602 0.15622851 -0.044312257 -0.03901331 -0.18102606 0.15730958 -0.101594746 -0.10157792 0.12240301 -0.14366907 0.041339613 0.046382662 0.07143311 0.12873295 -0.08892334 -0.0014391427 -0.069063894 0.20097618 0.09363957 -0.09787354 0.005970956 0.002449557 0.06875405 -0.070348576 0.08498747 0.1247816 0.16153769 -0.11645969 0.29005817 0.13656928 -0.14059216 -0.1261871 -0.10410294
68 0.15319571 0.074188955 -0.01562218 -0.10342965 -0.2380784 -0.4153559 0.12251473 0.060943373 -0.22013985 0.00014858341 0.27347955 -0.07005951 -0.17164919 0.07391647 0.0013726428 -0.18352933 -0.056635275 0.10819936 -0.054204825 0.15648651 0.012970947 0.15684703 0.20134456 -0.21425903 -0.023628578 -0.0648627 -0.16539314 0.18620113 0.12028808 -0.15126796 0.15309772 -0.0037523475 0.05051699 -0.17837171 0.05427782 -0.09130913 -0.0032826771 0.0944105 0.004235098 -0.0151437335 0.1528175 -0.087378174 -0.037857536 -0.10828057 0.0034762484 0.12271153 -0.0572511 0.032846086 -0.013194057 0.04232647 0.011411763 -0.094260685 -0.01259925 0.11609266 0.2611283 0.09640713 0.08847958 -0.18373555 0.27304518 0.18021616 0.020976938 -0.12235542 -0.036227856 -0.05007079
50 0.24688019 0.014986555 0.06699485 0.05419453 0.09813528 -0.32528627 0.101557925 0.18865673 -0.008269419 0.027926462 0.19658726 -0.22576708 -0.09783137 -0.09238854 0.024933001 0.055174112 0.19814035 0.13070369 0.08090388 0.18026593 0.16337827 0.18525489 0.107707106 -0.19543712 0.04120731 0.18505308 -0.33762324 0.012740365 -0.024467666 -0.08073833 -0.11040504 -0.026301581 0.16797075 0.1430618 0.08260732 -0.25790983 -0.0053041466 -0.14626655 -0.044737775 0.22712097 -0.025407864 -0.051771134 -0.0065399758 -0.22504812 -0.07849413 -0.14874412 0.07819731 -0.14933263 -0.13307226 0.17847326 0.08277978 0.026976928 0.02587458 -0.005943454 0.028994627 -0.0071543898 0.002950055 0.109754525 -0.21850663 0.051096827 -0.07587188 0.053094346 0.06704602 0.17465222
30 -0.089908995 0.08860476 0.12064929 0.14727208 0.014690235 -0.22804646 0.10846082 -0.008847861 -0.15877993 0.0054565477 0.08275137 -0.14465666 -0.21688668 -0.12675688 0.23427874 0.2558509 0.14029568 -0.12690008 -0.09139318 0.06529974 0.068904586 0.003254184 0.039411385 0.042049766 -0.0974628 0.09299132 -0.093003236 0.08491914 0.22862014 -0.07752083 0.024848368 -0.03147854 -0.052040808 -0.31776777 -0.05520101 0.00017917094 -0.054554775 0.03013874 -0.03757018 -0.07060659 0.18233694 0.14107037 0.11567173 -0.029677728 0.1377262 -0.21121934 0.021490747 -0.17263876 0.03690285 0.13653766 -0.053384908 -0.27693355 -0.01848118 0.10077794 -0.1367913 0.09139174 0.018918924 0.13026431 -0.2303661 0.239409 -0.038948517 -0.052937888 0.03446975 -0.010018546
51 0.053758394 -0.1828008 0.05759949 0.0019881525 0.24935715 -0.14487857 -0.016497994 -0.11595565 0.0421367 -0.10756405 -0.06801966 -0.07987639 -0.037806373 0.10643006 0.10235809 0.0860722 -0.16566971 0.12014404 0.2289575 0.1683442 0.090763256 0.29027212 0.08501615 -0.18353345 0.010992925 -0.044203572 -0.2966748 -0.0038414432 0.20488273 -0.1869782 -0.015352657 -0.10709823 0.019095082 0.03055068 -0.079693146 -0.11977776 -0.18490058 -0.07209446 0.2919309 -0.036831282 0.25947794 -0.24721104 0.05445586 -0.0076922234 -0.15488695 -0.013649502 0.057796884 0.041365236 0.0016114227 -0.06922749 -0.04315425 0.07247154 0.056128606 0.018655438 -0.10902329 0.14379138 -0.06963053 -0.019650236 0.11225277 0.24601947 -0.06458779 -0.17985187 -0.17198558 0.028625654
37 0.18559572 -0.051293533 -0.03145382 0.21684194 -0.07151585 -0.14540067 -0.07892687 0.035486475 -0.19107385 0.097172566 -0.04647953 -0.32669896 -0.05783464 -0.038007647 -0.035041228 0.13129479 0.18805666 0.13474527 0.10998498 -0.013742664 0.15954967 0.015308439 0.075585365 -0.11225465 -0.077779144 0.14182779 -0.18052763 0.110311076 0.008624589 -0.081036046 0.13437529 -0.0065351916 -0.009451169 -0.10964902 0.011112906 -0.30431265 -0.13976818 -0.16864629 0.13971148 0.092924066 -0.023408795 0.05406446 0.16425192 0.0045859036 -0.090861365 -0.08841563 0.025236292 0.051832814 0.028467616 -0.03952263 0.082524545 -0.08710198 0.075225696 0.26854354 0.06929754 0.07904786 0.0057180836 -0.19622532 0.044528045 0.18580748 -0.019360749 -0.23446116 0.035031334 -0.020725956
94 -0.0637329 0.0020725764 0.014094866 -0.15832102 -0.1529063 -0.23941617 0.13619617 -0.046884213 -0.090315945 -0.042559814 0.12919417 -0.19473486 -0.03921399 -0.11865706 0.13486356 0.0737297 0.092887275 -0.007998238 0.1332649 0.01621429 0.16752476 -0.013741927 -0.064192966 0.0027280024 -0.045555957 6.999749e-05 -0.16066839 0.004290156 0.30364242 -0.07362898 -0.021257943 0.032293998 -0.01519329 0.07634534 -0.040804982 -0.2612751 -0.1452711 0.025655704 0.042278145 -0.026708715 0.15320206 -0.13402766 0.085856736 -0.13688444 0.04791298 -0.10030975 -0.24675488 0.18951195 0.065738395 0.14934367 -0.014080023 -0.12861925 0.1843935 -0.08764468 0.18677865 0.25994915 -0.03818217 0.050814573 -0.22299016 0.08358438 0.07047015 -0.039851062 0.050456133 -0.3625525
26 -0.0065560956 -0.09863085 0.17809378 -0.075440675 -0.05161565 -0.17597865 0.08814633 0.07464387 -0.30174288 0.03458639 0.006009791 0.01113043 0.058033496 -0.16852213 0.11249907 0.04138347 -0.020424195 0.02881697 -0.07545683 0.20718922 0.086429365 0.22714207 0.0276263 0.05234871 -0.007047562 0.17173587 -0.30296332 -0.038084988 -0.095469184 -0.06971469 -0.060211156 0.15310888 -0.005374668 -0.027665578 0.03645838 0.09761074 -0.09008523 0.043405883 0.22902821 -0.03383966 0.17725034 0.073268525 -0.1789823 -0.06850096 -0.001499377 -0.16434902 0.25979698 -0.16428669 0.03718484 -0.060975272 0.06561679 -0.05181408 -0.08636322 0.19986324 0.0607603 0.17600746 0.12018504 -0.0068258974 -0.18904325 0.10006308 0.116923556 -0.10429449 0.24362391 -0.10810502
21 -0.04921469 -0.0102274055 0.013874153 0.23754485 -0.14212357 -0.19676387 0.043816853 -0.14069058 -0.10258777 -0.21197528 0.09924747 0.021430345 0.08739308 -0.118574485 0.11952853 -0.008369096 0.06544388 0.011849468 -0.06977016 0.047047548 0.13802588 0.20006047 0.070068635 -0.053712815 0.036001787 -0.17447111 -0.024033891 0.034280263 0.04946885 -0.28659844 -0.08482282 0.09537952 0.24566427 0.024760375 -0.13477026 -0.14789125 0.0471244 0.05420031 0.21504413 0.019103734 0.2210772 -0.017229171 0.08755768 0.19834119 -0.10859218 -0.30424407 0.15993267 0.0597142 0.07076512 0.3434539 -0.018736003 -0.19561486 0.11492096 0.06534819 0.086080186 0.03932309 0.13044393 -0.12352596 -0.051289868 0.24267803 -0.025006501 0.0594785 -0.11208778 -0.19778155
22 0.116860524 -0.11699484 0.25022694 0.28177541 0.0353625 -0.30568516 0.07590955 -0.05808526 -0.21510968 -0.07160708 0.19409776 -0.17040335 -0.17677474 -0.108544946 -0.14361532 -0.0762884 0.05739981 -0.12042922 0.21038677 0.028047966 0.16786443 -0.20707843 0.1764476 -0.04775534 0.052441828 0.061036788 -0.12205453 0.0024609887 0.046791296 -0.08335531 -0.1685062 0.010198317 0.09520351 -0.018973613 -0.109160565 -0.3459345 -0.18327573 0.07068874 -0.0997157 -0.19735178 0.31085846 -0.1525065 -0.03493173 0.035363138 0.052316338 0.031528104 0.090074696 -0.024365187 0.25493494 -0.009580064 -0.029414507 0.18416376 0.02315104 0.16514635 0.066124834 -0.08055439 -0.1165895 -0.054231584 -0.1996441 0.24609181 0.028366553 0.036544405 0.10928241 -0.024829516
86 -0.07379467 -0.21030457 0.34416622 -0.12013581 0.0097413445 -0.28358808 -0.05806632 -0.030964693 -0.08730588 -0.15273751 0.23788102 -0.12536128 0.05647145 -0.12337355 -0.011348805 0.13953415 -0.13003439 -0.011481342 0.065220214 0.263922 -0.08350977 0.07556923 0.2749679 0.05737586 0.16345844 0.21458812 -0.103209026 0.15527852 0.107862644 0.020490164 0.14053562 0.07691659 -0.09136779 0.12864354 0.005656371 -0.057155393 -0.10804819 0.02452669 0.1200266 0.077467486 0.0048606116 -0.0004253184 0.0086012455 0.19113712 -0.08351516 -0.28386626 0.11081432 -0.058824677 -0.10033673 0.03513857 -0.03430973 -0.119182624 -0.17473453 0.10961697 -0.024142278 0.22158019 0.052294176 -0.08775524 0.030372161 0.03701927 0.25050715 -0.050010826 0.20880592 0.041854717
96 0.17621447 -0.06399252 0.23267107 0.061730262 0.12061455 -0.18039358 0.16117135 0.15072414 -0.27839714 -0.025189264 -0.19028191 -0.20338301 -0.057864003 0.07950608 0.009785528 -0.037399676 0.18957652 -0.051319405 0.006484211 0.110061705 0.10633704 0.22113718 -0.12496753 -0.11716098 0.13977244 -0.0033151072 -0.0015832663 0.079192795 0.18203071 -0.12873963 -0.009043898 0.10611695 -0.13448384 -0.051523145 0.13447344 -0.12563513 0.14678803 0.15511099 -0.06235605 -0.080056995 -0.08560216 -0.1622556 -0.15002643 0.20787875 -0.024232907 -0.07931186 0.14850976 0.039344832 -0.13462955 0.19781177 0.2289131 -0.08321696 0.14614737 0.084807426 0.12951128 0.015227446 0.03318904 -0.08817211 -0.3063452 0.30231997 0.15390784 0.029576715 0.048855167 -0.06595291
48 -0.033841744 0.04969225 0.02387315 0.05854607 -0.14181268 0.18220082 0.14146546 -0.18426125 0.0838987 -0.07280469 0.06341424 -0.23913087 -0.11315979 -0.00432728 0.04752146 0.14646448 -0.012527446 -0.050420735 0.0060416018 0.25059834 0.16898188 0.079682365 -0.07464856 -0.18217437 -0.073312365 0.16173802 -0.17809212 0.29181927 0.36844453 -0.10306436 -0.038917165 -0.033662174 -0.26196682 0.036300313 0.023668433 -0.08284792 -0.24830659 -0.17983605 -0.0026304738 0.072337516 0.13626617 -0.036692984 -0.039230272 -0.04301794 -0.08287412 -0.083835885 -0.02513496 0.020945994 0.16209047 0.18591623 -0.05802266 0.1021755 0.087004386 0.07560517 0.037443247 -0.032251265 -0.023966752 -0.24176459 -0.13346878 0.12512591 0.12383796 -0.23381336 0.28877264 0.07844886
60 0.0075584976 -0.0008956396 0.16764928 -0.020047547 -0.09463148 -0.2600176 -0.05085904 0.16183949 -0.12234953 -0.074502096 -0.06882164 0.0155398315 -0.17139 -0.055719767 -0.08758241 0.166936 0.18855943 -0.057006996 0.22538438 0.067891374 0.09536068 0.15987675 -0.06882839 -0.086004354 0.059927505 0.0088350335 -0.13213621 0.003182471 0.068383716 -0.18964785 -0.105372205 -0.11481259 0.010418115 0.102099806 -0.13490708 0.06643175 0.08068164 -0.22724093 0.24986632 -0.35096127 -0.25327718 -0.10416936 0.23968062 -0.028869655 0.037007183 0.01512075 -0.019318614 0.0064760074 0.008409455 0.11513144 0.09322584 -0.12582658 0.08477741 0.08000992 0.18413152 -0.036678772 0.082188085 -0.14542343 -0.15812439 0.23303041 0.11229682 -0.22241601 0.1678833 0.039435636
58 0.08168906 -0.10665378 -0.091603644 0.06481792 -0.0813887 -0.09222477 -0.02323686 -0.020695908 -0.38889343 0.030256715 -0.14319465 -0.29340178 -0.031135978 0.085211694 0.22846155 0.05233926 0.020481354 -0.0021203666 0.09278259 0.0328555 0.116167344 0.004905528 0.03178146 -0.119519845 0.16305563 0.18564394 -0.24412812 -0.055777565 0.046531525 0.04723613 -0.09881061 -0.14432819 -0.10692109 0.14023638 -0.12731083 0.043059666 0.015240899 0.13593353 0.28575635 0.058836043 -0.064280316 -0.00882978 -0.07816266 -0.0015835462 0.07165121 -0.01656554 0.0151481535 0.002239521 0.13249576 0.06930235 -0.054915514 -0.17825902 0.28420588 -0.060628865 -0.015912196 -0.1483865 0.047119822 -0.20863202 -0.18030365 0.1264516 0.1403344 -0.29390353 -0.14251183 0.1501634
49 0.020246694 0.021540413 0.025015213 -0.09977943 -0.078619696 -0.31113154 0.06870044 -0.038053565 -0.0006792086 -0.06458565 0.117010675 -0.24761845 0.2727545 0.0076058386 0.12923838 -0.09980923 -0.030316798 0.020172711 0.014750581 0.113765724 0.23468108 0.041481487 0.10067962 -0.26389322 0.056821313 -0.2031184 -0.23334984 0.04854834 0.1420769 -0.064107016 0.21495268 0.06213948 -0.12224972 0.09840828 -0.04771202 -0.13510391 -0.05515932 0.17151386 0.28411052 0.06489149 0.050522134 0.040618 0.040410023 0.117305964 0.034632284 -0.20582081 0.2148027 0.12759817 0.065371655 -0.1795927 0.08867276 -0.09125792 -0.08538691 0.18381257 0.097244605 -0.21227637 -0.14366153 0.0452259 -0.17668442 0.13062477 0.047079068 -0.21306933 0.02963001 -0.10892908
38 -0.02155125 0.056883696 -0.07121684 0.008826862 -0.040646862 -0.25437266 -0.21461438 -0.25218514 -0.14015193 0.07939731 -0.010960815 -0.2229956 -0.19921108 -0.03986158 0.049069263 0.2522157 -0.023177594 0.3059231 0.057871327 -0.009106192 -0.07310146 0.21769722 -0.023744984 -0.043359466 0.14712451 -0.15216488 -0.25007054 -0.2022142 0.0954012 -0.025429197 -0.07458303 0.03239252 -0.18587346 -0.12207766 -0.015847353 -0.242158 -0.09340022 -0.12616496 -0.12447096 -0.012870222 -0.101713486 -0.46928653 0.09157782 -0.009283976 0.093536295 -0.10060072 0.044423677 0.0023018178 0.03300195 0.037379276 -0.044680413 -0.065694585 0.052760296 -0.036973026 0.029333465 -0.07424007 0.007528638 -0.057855334 -0.012836551 0.32714814 0.14018142 -0.21928102 -0.06884943 0.0579408
