digraph Tree {
node [shape=box, fontname="helvetica"] ;
edge [fontname="helvetica"] ;
0 [label="X[0] <= 5.45\ngini = 0.667\nsamples = 150\nvalue = [50, 50, 50]\nclass = 1"] ;
1 [label="X[1] <= 2.8\ngini = 0.237\nsamples = 52\nvalue = [45, 6, 1]\nclass = 1"] ;
0 -> 1 [labeldistance=2.5, labelangle=45, headlabel="True"] ;
2 [label="X[0] <= 4.7\ngini = 0.449\nsamples = 7\nvalue = [1, 5, 1]\nclass = 2"] ;
1 -> 2 ;
3 [label="gini = 0.0\nsamples = 1\nvalue = [1, 0, 0]\nclass = 1"] ;
2 -> 3 ;
4 [label="X[0] <= 4.95\ngini = 0.278\nsamples = 6\nvalue = [0, 5, 1]\nclass = 2"] ;
2 -> 4 ;
5 [label="X[1] <= 2.45\ngini = 0.5\nsamples = 2\nvalue = [0, 1, 1]\nclass = 2"] ;
4 -> 5 ;
6 [label="gini = 0.0\nsamples = 1\nvalue = [0, 1, 0]\nclass = 2"] ;
5 -> 6 ;
7 [label="gini = 0.0\nsamples = 1\nvalue = [0, 0, 1]\nclass = 3"] ;
5 -> 7 ;
8 [label="gini = 0.0\nsamples = 4\nvalue = [0, 4, 0]\nclass = 2"] ;
4 -> 8 ;
9 [label="X[0] <= 5.35\ngini = 0.043\nsamples = 45\nvalue = [44, 1, 0]\nclass = 1"] ;
1 -> 9 ;
10 [label="gini = 0.0\nsamples = 39\nvalue = [39, 0, 0]\nclass = 1"] ;
9 -> 10 ;
11 [label="X[1] <= 3.2\ngini = 0.278\nsamples = 6\nvalue = [5, 1, 0]\nclass = 1"] ;
9 -> 11 ;
12 [label="gini = 0.0\nsamples = 1\nvalue = [0, 1, 0]\nclass = 2"] ;
11 -> 12 ;
13 [label="gini = 0.0\nsamples = 5\nvalue = [5, 0, 0]\nclass = 1"] ;
11 -> 13 ;
14 [label="X[0] <= 6.15\ngini = 0.546\nsamples = 98\nvalue = [5, 44, 49]\nclass = 3"] ;
0 -> 14 [labeldistance=2.5, labelangle=-45, headlabel="False"] ;
15 [label="X[1] <= 3.45\ngini = 0.508\nsamples = 43\nvalue = [5, 28, 10]\nclass = 2"] ;
14 -> 15 ;
16 [label="X[0] <= 5.75\ngini = 0.388\nsamples = 38\nvalue = [0, 28, 10]\nclass = 2"] ;
15 -> 16 ;
17 [label="X[1] <= 2.85\ngini = 0.208\nsamples = 17\nvalue = [0, 15, 2]\nclass = 2"] ;
16 -> 17 ;
18 [label="X[0] <= 5.55\ngini = 0.278\nsamples = 12\nvalue = [0, 10, 2]\nclass = 2"] ;
17 -> 18 ;
19 [label="gini = 0.0\nsamples = 5\nvalue = [0, 5, 0]\nclass = 2"] ;
18 -> 19 ;
20 [label="X[1] <= 2.55\ngini = 0.408\nsamples = 7\nvalue = [0, 5, 2]\nclass = 2"] ;
18 -> 20 ;
21 [label="X[0] <= 5.65\ngini = 0.5\nsamples = 2\nvalue = [0, 1, 1]\nclass = 2"] ;
20 -> 21 ;
22 [label="gini = 0.0\nsamples = 1\nvalue = [0, 1, 0]\nclass = 2"] ;
21 -> 22 ;
23 [label="gini = 0.0\nsamples = 1\nvalue = [0, 0, 1]\nclass = 3"] ;
21 -> 23 ;
24 [label="X[0] <= 5.65\ngini = 0.32\nsamples = 5\nvalue = [0, 4, 1]\nclass = 2"] ;
20 -> 24 ;
25 [label="X[1] <= 2.75\ngini = 0.5\nsamples = 2\nvalue = [0, 1, 1]\nclass = 2"] ;
24 -> 25 ;
26 [label="gini = 0.0\nsamples = 1\nvalue = [0, 1, 0]\nclass = 2"] ;
25 -> 26 ;
27 [label="gini = 0.0\nsamples = 1\nvalue = [0, 0, 1]\nclass = 3"] ;
25 -> 27 ;
28 [label="gini = 0.0\nsamples = 3\nvalue = [0, 3, 0]\nclass = 2"] ;
24 -> 28 ;
29 [label="gini = 0.0\nsamples = 5\nvalue = [0, 5, 0]\nclass = 2"] ;
17 -> 29 ;
30 [label="X[1] <= 3.1\ngini = 0.472\nsamples = 21\nvalue = [0, 13, 8]\nclass = 2"] ;
16 -> 30 ;
31 [label="X[1] <= 2.95\ngini = 0.488\nsamples = 19\nvalue = [0, 11, 8]\nclass = 2"] ;
30 -> 31 ;
32 [label="X[1] <= 2.85\ngini = 0.459\nsamples = 14\nvalue = [0, 9, 5]\nclass = 2"] ;
31 -> 32 ;
33 [label="X[0] <= 5.9\ngini = 0.486\nsamples = 12\nvalue = [0, 7, 5]\nclass = 2"] ;
32 -> 33 ;
34 [label="X[1] <= 2.65\ngini = 0.5\nsamples = 6\nvalue = [0, 3, 3]\nclass = 2"] ;
33 -> 34 ;
35 [label="gini = 0.0\nsamples = 1\nvalue = [0, 1, 0]\nclass = 2"] ;
34 -> 35 ;
36 [label="X[1] <= 2.75\ngini = 0.48\nsamples = 5\nvalue = [0, 2, 3]\nclass = 3"] ;
34 -> 36 ;
37 [label="gini = 0.5\nsamples = 4\nvalue = [0, 2, 2]\nclass = 2"] ;
36 -> 37 ;
38 [label="gini = 0.0\nsamples = 1\nvalue = [0, 0, 1]\nclass = 3"] ;
36 -> 38 ;
39 [label="X[1] <= 2.65\ngini = 0.444\nsamples = 6\nvalue = [0, 4, 2]\nclass = 2"] ;
33 -> 39 ;
40 [label="X[1] <= 2.4\ngini = 0.444\nsamples = 3\nvalue = [0, 1, 2]\nclass = 3"] ;
39 -> 40 ;
41 [label="gini = 0.5\nsamples = 2\nvalue = [0, 1, 1]\nclass = 2"] ;
40 -> 41 ;
42 [label="gini = 0.0\nsamples = 1\nvalue = [0, 0, 1]\nclass = 3"] ;
40 -> 42 ;
43 [label="gini = 0.0\nsamples = 3\nvalue = [0, 3, 0]\nclass = 2"] ;
39 -> 43 ;
44 [label="gini = 0.0\nsamples = 2\nvalue = [0, 2, 0]\nclass = 2"] ;
32 -> 44 ;
45 [label="X[0] <= 5.95\ngini = 0.48\nsamples = 5\nvalue = [0, 2, 3]\nclass = 3"] ;
31 -> 45 ;
46 [label="gini = 0.5\nsamples = 2\nvalue = [0, 1, 1]\nclass = 2"] ;
45 -> 46 ;
47 [label="X[0] <= 6.05\ngini = 0.444\nsamples = 3\nvalue = [0, 1, 2]\nclass = 3"] ;
45 -> 47 ;
48 [label="gini = 0.0\nsamples = 1\nvalue = [0, 0, 1]\nclass = 3"] ;
47 -> 48 ;
49 [label="gini = 0.5\nsamples = 2\nvalue = [0, 1, 1]\nclass = 2"] ;
47 -> 49 ;
50 [label="gini = 0.0\nsamples = 2\nvalue = [0, 2, 0]\nclass = 2"] ;
30 -> 50 ;
51 [label="gini = 0.0\nsamples = 5\nvalue = [5, 0, 0]\nclass = 1"] ;
15 -> 51 ;
52 [label="X[0] <= 7.05\ngini = 0.413\nsamples = 55\nvalue = [0, 16, 39]\nclass = 3"] ;
14 -> 52 ;
53 [label="X[1] <= 2.4\ngini = 0.467\nsamples = 43\nvalue = [0, 16, 27]\nclass = 3"] ;
52 -> 53 ;
54 [label="gini = 0.0\nsamples = 2\nvalue = [0, 2, 0]\nclass = 2"] ;
53 -> 54 ;
55 [label="X[0] <= 6.95\ngini = 0.45\nsamples = 41\nvalue = [0, 14, 27]\nclass = 3"] ;
53 -> 55 ;
56 [label="X[1] <= 3.15\ngini = 0.439\nsamples = 40\nvalue = [0, 13, 27]\nclass = 3"] ;
55 -> 56 ;
57 [label="X[0] <= 6.55\ngini = 0.471\nsamples = 29\nvalue = [0, 11, 18]\nclass = 3"] ;
56 -> 57 ;
58 [label="X[1] <= 2.95\ngini = 0.375\nsamples = 16\nvalue = [0, 4, 12]\nclass = 3"] ;
57 -> 58 ;
59 [label="X[0] <= 6.45\ngini = 0.444\nsamples = 12\nvalue = [0, 4, 8]\nclass = 3"] ;
58 -> 59 ;
60 [label="X[1] <= 2.85\ngini = 0.397\nsamples = 11\nvalue = [0, 3, 8]\nclass = 3"] ;
59 -> 60 ;
61 [label="X[1] <= 2.6\ngini = 0.219\nsamples = 8\nvalue = [0, 1, 7]\nclass = 3"] ;
60 -> 61 ;
62 [label="gini = 0.5\nsamples = 2\nvalue = [0, 1, 1]\nclass = 2"] ;
61 -> 62 ;
63 [label="gini = 0.0\nsamples = 6\nvalue = [0, 0, 6]\nclass = 3"] ;
61 -> 63 ;
64 [label="X[0] <= 6.25\ngini = 0.444\nsamples = 3\nvalue = [0, 2, 1]\nclass = 2"] ;
60 -> 64 ;
65 [label="gini = 0.0\nsamples = 1\nvalue = [0, 1, 0]\nclass = 2"] ;
64 -> 65 ;
66 [label="X[0] <= 6.35\ngini = 0.5\nsamples = 2\nvalue = [0, 1, 1]\nclass = 2"] ;
64 -> 66 ;
67 [label="gini = 0.0\nsamples = 1\nvalue = [0, 0, 1]\nclass = 3"] ;
66 -> 67 ;
68 [label="gini = 0.0\nsamples = 1\nvalue = [0, 1, 0]\nclass = 2"] ;
66 -> 68 ;
69 [label="gini = 0.0\nsamples = 1\nvalue = [0, 1, 0]\nclass = 2"] ;
59 -> 69 ;
70 [label="gini = 0.0\nsamples = 4\nvalue = [0, 0, 4]\nclass = 3"] ;
58 -> 70 ;
71 [label="X[0] <= 6.65\ngini = 0.497\nsamples = 13\nvalue = [0, 7, 6]\nclass = 2"] ;
57 -> 71 ;
72 [label="gini = 0.0\nsamples = 2\nvalue = [0, 2, 0]\nclass = 2"] ;
71 -> 72 ;
73 [label="X[1] <= 2.65\ngini = 0.496\nsamples = 11\nvalue = [0, 5, 6]\nclass = 3"] ;
71 -> 73 ;
74 [label="gini = 0.0\nsamples = 1\nvalue = [0, 0, 1]\nclass = 3"] ;
73 -> 74 ;
75 [label="X[1] <= 2.9\ngini = 0.5\nsamples = 10\nvalue = [0, 5, 5]\nclass = 2"] ;
73 -> 75 ;
76 [label="gini = 0.0\nsamples = 1\nvalue = [0, 1, 0]\nclass = 2"] ;
75 -> 76 ;
77 [label="X[0] <= 6.75\ngini = 0.494\nsamples = 9\nvalue = [0, 4, 5]\nclass = 3"] ;
75 -> 77 ;
78 [label="X[1] <= 3.05\ngini = 0.48\nsamples = 5\nvalue = [0, 3, 2]\nclass = 2"] ;
77 -> 78 ;
79 [label="gini = 0.5\nsamples = 2\nvalue = [0, 1, 1]\nclass = 2"] ;
78 -> 79 ;
80 [label="gini = 0.444\nsamples = 3\nvalue = [0, 2, 1]\nclass = 2"] ;
78 -> 80 ;
81 [label="X[0] <= 6.85\ngini = 0.375\nsamples = 4\nvalue = [0, 1, 3]\nclass = 3"] ;
77 -> 81 ;
82 [label="gini = 0.0\nsamples = 1\nvalue = [0, 0, 1]\nclass = 3"] ;
81 -> 82 ;
83 [label="gini = 0.444\nsamples = 3\nvalue = [0, 1, 2]\nclass = 3"] ;
81 -> 83 ;
84 [label="X[0] <= 6.45\ngini = 0.298\nsamples = 11\nvalue = [0, 2, 9]\nclass = 3"] ;
56 -> 84 ;
85 [label="X[1] <= 3.35\ngini = 0.444\nsamples = 6\nvalue = [0, 2, 4]\nclass = 3"] ;
84 -> 85 ;
86 [label="X[0] <= 6.35\ngini = 0.5\nsamples = 4\nvalue = [0, 2, 2]\nclass = 2"] ;
85 -> 86 ;
87 [label="gini = 0.5\nsamples = 2\nvalue = [0, 1, 1]\nclass = 2"] ;
86 -> 87 ;
88 [label="gini = 0.5\nsamples = 2\nvalue = [0, 1, 1]\nclass = 2"] ;
86 -> 88 ;
89 [label="gini = 0.0\nsamples = 2\nvalue = [0, 0, 2]\nclass = 3"] ;
85 -> 89 ;
90 [label="gini = 0.0\nsamples = 5\nvalue = [0, 0, 5]\nclass = 3"] ;
84 -> 90 ;
91 [label="gini = 0.0\nsamples = 1\nvalue = [0, 1, 0]\nclass = 2"] ;
55 -> 91 ;
92 [label="gini = 0.0\nsamples = 12\nvalue = [0, 0, 12]\nclass = 3"] ;
52 -> 92 ;
}