tree
version=v3
num_class=7
num_tree_per_iteration=7
label_index=0
max_feature_idx=53
objective=multiclass num_class:7
feature_names=Column_0 Column_1 Column_2 Column_3 Column_4 Column_5 Column_6 Column_7 Column_8 Column_9 Column_10 Column_11 Column_12 Column_13 Column_14 Column_15 Column_16 Column_17 Column_18 Column_19 Column_20 Column_21 Column_22 Column_23 Column_24 Column_25 Column_26 Column_27 Column_28 Column_29 Column_30 Column_31 Column_32 Column_33 Column_34 Column_35 Column_36 Column_37 Column_38 Column_39 Column_40 Column_41 Column_42 Column_43 Column_44 Column_45 Column_46 Column_47 Column_48 Column_49 Column_50 Column_51 Column_52 Column_53
feature_infos=-1:2753:2785:2955:2714:2763:2809:2929:2942:2952:2962:2729:2743:2751:2786:2795:2828:2847:2959:3008:2699:2702:2718:2719:2723:2724:2728:2740:2742:2769:2792:2802:2811:2917:2919:2931:2939:2975:2978:2982:2995:3001:3057:3241:2044:2651:2676:2686:2693:2695:2703:2704:2709:2715:2717:2722:2725:2736:2738:2746:2764:2770:2780:2781:2788:2800:2808:2850:2859:2861:2878:2896:2914:2945:2953:2976:3021:3034:3050:3064:3112:3121:3146:3168:3188:3221:1983:2006:2013:2022:2032:2052:2062:2063:2078:2084:2092:2595:2617:2662:2685:2706:2707:2713:2716:2720:2721:2741:2747:2748:2760:2761:2765:2767:2768:2778:2782:2787:2793:2794:2799:2801:2803:2807:2813:2814:2822:2827:2871:2888:2898:2902:2916:2922:2938:2954:2958:2988:2998:3018:3024:3080:3083:3109:3172:3178:3182:3185:3218:3294:1962:2005:2027:2035:2036:2045:2046:2047:2057:2059:2067:2072:2096:2125:2489:2515:2567:2574:2622:2645:2653:2655:2668:2673:2678:2683:2684:2689:2690:2694:2700:2708:2712:2727:2731:2733:2734:2737:2739:2744:2750:2754:2755:2756:2759:2771:2775:2779:2784:2790:2796:2804:2812:2817:2818:2820:2821:2823:2824:2826:2829:2830:2834:2836:2837:2839:2840:2842:2849:2851:2853:2854:2863:2864:2868:2869:2883:2890:2895:2897:2903:2913:2924:2926:2932:2936:2941:2944:2957:2963:2965:2968:2971:2977:2985:2987:2991:3011:3014:3027:3041:3047:3048:3052:3060:3073:3077:3105:3106:3113:3137:3149:3154:3157:3161:3165:3195:3198:3201:3206:3207:3208:3213:3217:3230:3242:3244:3246:3251:3260:3267:3273:3276:3285:3293 -1:45:72:53:71:75:76:63:83:59:61:66:80:95:100:31:49:54:58:62:135:352:9:50:67:84:87:90:288:323:27:39:41:51:60:73:77:81:85:315:15:34:48:55:57:68:69:74:78:79:349:33:35:42:52:56:82:86:88:101:102:104:325:5:13:29:32:44:64:70:99:103:270:311:331:338:339:346:0:3:23:25:37:92:94:96:98:105:107:108:115:276:308:326:347:14:16:17:18:24:30:65:89:111:117:122:124:129:144:166:273:283:307:322:328:330:340:341:343:344:356:6:7:28:36:40:47:93:97:109:112:116:119:120:121:128:131:141:143:167:176:260:274:290:293:301:312:313:318:320:329:334:345:357:2:10:19:20:22:38:43:46:113:127:130:139:148:160:163:170:209:253:261:291:297:300:302:310:316:324:350:354:355:8:11:21:26:91:106:114:118:123:125:126:136:138:153:159:162:164:172:198:234:238:243:247:252:255:256:259:268:269:280:281:285:286:292:294:299:304:309:319:332:333:342:348:353:1:132:137:146:151:155:158:168:169:174:179:183:184:188:200:202:203:207:211:216:218:230:235:239:242:251:254:257:258:263:264:266:271:278:279:282:287:305:306:314:317:321:335:336:351:358 [1:49] [0:931] [-134:554] [30:6890] [59:254] [99:254] [0:246] [30:6853] [0:1] none [0:1] [0:1] [0:1] [0:1] none none [0:1] none none none none [0:1] none [0:1] [0:1] none none none [0:1] [0:1] none [0:1] none [0:1] [0:1] [0:1] none none none none [0:1] [0:1] [0:1] [0:1] [0:1] none none none none [0:1] [0:1] none
tree_sizes=3300 3285 1758 1269 3288 2590 3261 3318 3337 3427 3486 3331 3406 3425 3303 3352 3432 3498 3319 3414 3445 3322 3352 3418 3501 3334 3409 3446 3329 3337 3433 3500 3334 3367 3445 3312 3437 3416 3486 3339 3405 3433 3327 3356 3433 3509 3347 3417 3435 3338 3426 3442 3515 3353 3442 3471 3345 3352 3434 3505 3347 3400 3473 3332 3429 3442 3515 3350 3429 3465 3335 3423 3447 3503 3358 3436 3467 3339 3360 3440 3509 3363 3391 3487 3331 3416 3451 3520 3369 3439 3488 3336 3415 3468 3501 3359 3448 3497 3330 3423 3454 3481 3356 3439 3502 3661 3459 3467 3525 3374 3427 3509 3342 3428 3470 3526 3379 3428 3514 3370 3425 3474 3529 3372 3445 3519 3438 3643 3473 3521 3363 3407 3493 3370 3428 3471 3524 3360 3436 3481 3663 3661 3477 3482 3402 3433 3550 3676 3435 3492 3504 3389 3419 3480 3665 3654 3473 3487 3481 3439 3488 3679 3458 3482 3526 3392 3458 3493 3664 3440 3499 3513 3502 3399 3480 3673 3657 3498 3533 3485 3448 3535 3661 3470 3497 3538 3416 3458 3508 3663 3458 3509 3541 3501 3441 3511 3672 3674 3507 3552 3408 3444 3484 3665 3670 3497 3567 3478 3431 3498 3636 3460 3516 3535 3410 3431 3520 3640 3674 3500 3550 3498 3455 3508 3699 3475 3493 3568 3484 3435 3523 3686 3456 3518 3529 3657 3448 3474 3687 3465 3508 3556 3418 3431 3485 3692 3473 3516 3530 3663 3448 3478 3686 3737 3511 3577 3671 3432 3528 3908 3511 3523 3568 3655 3450 3491 3393 3478 3514 3562 3661 3462 3504 3386 3484 3530 3555 3525 3479 3472 3460 3687 3519 3589 3496 3482 3503 3465 3500 3533 3570 3516 3476 3502 3716 3478 3518 3579 3431 3465 3493 3713 3481 3545 3563 3529 3485 3495 3717 3687 3537 3579 3508 3520 3502 3773 3474 3532 3576 3513 3469 3522 3736 3678 3548 3561 3538 3473 3530 3992 3479 3550 3566 3515 3458 3496 3720 3470 3533 3584 3527 3508 3523 3719 3514 3531 3567 3676 3491 3523 3936 3479 3481 3569 3484 3486 3528 3722 3498 3546 3600 3543 3494 3530 4008 3486 3552 3587 3701 3498 3525 3938 3717 3522 3605 3465 3492 3523 4002 3460 3538 3613 3544 3489 3519 3963 3493 3554 3614 3467 3480 3529 3738 3442 3559 3582 3469 3502 3530 3731 3490 3558 3592 3720 3519 3548 3433 3418 3544 3589 3715 3513 3524 3737 3734 3565 3586 3509 3504 3512 3721 3443 3542 3607 3501 3486 3523 3431 3491 3495 3608 3571 3503 3544 3430 3438 3532 3611 3560 3530 3519 3961 3692 3600 3614 3510 3495 3512 3726 3452 3577 3610 3495 3493 3543 3428 3491 3527 3594 3501 3519 3545 3432 3522 3572 3597 3488 3536 3545 3738 3440 3570 3597 3486 3493 3534 3742 3503 3513 3599 3511 3535 3553 3509 3505 3529 3624 3506 3573 3537 3446 3508 3580 3604 3595 3514 3556 3739 3749 3547 3591 3488 3499 3538 3748 3480 3587 3270 3601 3549 3574 3454 3444 3536 2502 3504 3522 3542 3743 3502 3599 2824 3506 3547 3546 3761 3504 3604 2600 3496 3515 3548 3790 3482 3535 2378 3520 3542 3557 3464 3520 3597 2623 3596 3552 3583 3781 3544 3538 2477 3514 3524 3574 3775 3540 3558 2368 3494 3526 3564 3777 3465 3594 2604 3495 3560 3582 3792 3447 3270 3485 3504 3554 3575 3460 3697 3562 2374 3526 3564 3575 3463 3464 3559 2373 3523 3564 3568 3788 3541 3556 3053 3516 3529 3591 3481 3528 2925 1929 3509 3566 3608 3768 3570 3562 2166 3511 3572 3587 3775 3472 2576 2261 3503 3540 3591 3490 3541 2468 2270 3528 3553 3606 3479 3550 2689 1580 3500 3559 3598 3731 3555 2702 2257 3514 3584 3584 3471 3470 3482 2150 3523 3594 3603 3574 3458 2585 1697 3518 3622 3585 3733 3470 2464 1586 3551 3565 3485 3709 3548 2242 1798 3514 3587 3249 3559 3554 3581 2364 3521 3550 3273 3491 3481 2242 1581 3527 3360 3266 3729 3558 2018 1359 3525 3601 2918 3479 3563 2464 1463 3541 3574 3476 3742 3482 2020 1019 3535 3582 2930

Tree=0
num_leaves=31
num_cat=0
split_feature=5 25 7 35 5 4 6 3 5 6 2 5 9 5 9 3 9 9 5 2 25 7 4 9 4 9 8 42 4 7
split_gain=200.309 23.9101 19.2812 10.7736 10.0917 8.8963 8.2637 5.92751 8.1181 5.09243 4.98252 4.28578 3.89404 3.4861 3.99564 3.3111 4.23307 3.18526 2.98572 3.22462 2.75736 2.69372 3.02792 2.44112 2.31494 2.0927 1.83269 1.7616 1.7029 1.51579
threshold=1903.5000000000002 1.0000000180025095e-35 240.50000000000003 1.0000000180025095e-35 1026.5000000000002 -19.499999999999996 177.50000000000003 428.00000000000006 3020.0000000000005 237.50000000000003 13.500000000000002 4424.5000000000009 1965.5000000000002 2871.0000000000005 1223.0000000000002 87.500000000000014 1223.0000000000002 2638.0000000000005 1593.5000000000002 16.500000000000004 1.0000000180025095e-35 228.50000000000003 16.500000000000004 2573.0000000000005 46.500000000000007 847.00000000000011 154.50000000000003 1.0000000180025095e-35 16.500000000000004 243.50000000000003
decision_type=2 2 2 2 2 2 2 2 2 2 2 2 2 2 2 2 2 2 2 2 2 2 2 2 2 2 2 2 2 2
left_child=4 2 3 6 20 -6 -2 8 -4 13 11 -10 -13 14 -8 16 -7 25 19 -18 -1 22 -16 -9 -3 -11 -23 29 -5 -17
right_child=1 24 7 28 5 15 9 23 10 17 -12 12 -14 -15 21 27 18 -19 -20 -21 -22 26 -24 -25 -26 -27 -28 -29 -30 -31
leaf_value=-1.0465471771587636 -0.93486402722454232 -1.0047207418367634 -1.0157848436385069 -0.69102248509375375 -0.75027660025632226 -1.0240693258877496 -0.7426799195854612 -0.92211353535578189 -0.72780090140155507 -0.80953071541889066 -0.94220030690406853 -0.78582906980991873 -0.92310110295333458 -0.78924613645311892 -0.78287360924783411 -1.0391609293019197 -1.0138301807407319 -0.82071479657989987 -0.81384010702413445 -0.86453794896356506 -0.94958589671223437 -0.99831708340200231 -0.90433729967900034 -1.0465471760691645 -0.91322541695338555 -0.95547040394060745 -0.86782740509765055 -0.96348065957001172 -0.76643681348247727 -0.94545010902386317
leaf_weight=56.320512555539608 5.3723411969840518 7.172497406601904 3.2507285960018697 8.4382322430610639 1.687646448612212 4.4488235823810092 3.2909105792641666 3.2145646959543219 4.0784789174795177 1.2657348364591579 3.8333683721721163 4.2191161252558214 4.0503514781594276 69.956963583827019 4.9303385876119119 13.538674857467415 3.0565152429044229 6.6420942768454552 2.5783487483859062 2.7471133880317211 3.0940184891223899 2.0733942463994017 3.515930101275444 3.0940184891223907 4.5003905296325684 4.3918990194797516 2.2381406687200069 6.0192723348736754 4.6410277336835852 1.9782966785132874
leaf_count=769 34 48 49 30 7 63 17 26 16 6 26 22 25 349 31 139 30 42 21 25 19 24 20 22 26 43 18 39 20 19
internal_value=-0.902339 -0.83185 -0.820579 -0.803307 -1.01617 -0.974435 -0.814096 -0.898921 -0.871578 -0.807496 -0.842608 -0.81169 -0.853064 -0.798889 -0.840923 -0.985442 -0.945228 -0.867681 -0.903383 -0.943164 -1.0415 -0.866265 -0.833435 -0.983141 -0.969445 -0.922821 -0.930579 -1.0094 -0.717782 -1.02721
internal_weight=0 154.171 142.498 116.757 95.4692 36.0547 103.678 25.7406 19.432 98.3054 16.1813 12.3479 8.26947 86.0057 16.0487 34.367 12.8308 12.2997 8.38198 5.80363 59.4145 12.7578 8.44627 6.30858 11.6729 5.65763 4.31153 21.5362 13.0793 15.517
internal_count=2025 894 820 634 1131 343 584 186 138 550 89 63 47 459 110 336 139 91 76 55 788 93 51 48 74 49 42 197 50 158
is_linear=0
shrinkage=1


Tree=1
num_leaves=31
num_cat=0
split_feature=25 13 4 5 5 5 7 9 2 9 9 2 9 6 8 6 9 4 8 9 9 5 9 5 3 5 9 4 4 9
split_gain=58.0567 35.0074 13.9795 17.7849 23.2235 13.5692 12.0739 12.8022 9.40444 7.69292 6.72362 6.68965 6.37136 5.5706 5.101 4.82563 4.36754 4.33227 3.54287 3.49329 6.46088 3.47202 3.33245 3.20815 3.02813 2.59872 2.54244 2.22576 1.99362 1.96262
threshold=1.0000000180025095e-35 1.0000000180025095e-35 14.500000000000002 510.50000000000006 2375.5000000000005 1593.5000000000002 240.50000000000003 2456.5000000000005 14.500000000000002 2398.0000000000005 2038.0000000000002 15.500000000000002 1223.0000000000002 221.50000000000003 172.50000000000003 229.50000000000003 4964.5000000000009 18.500000000000004 132.50000000000003 2117.5000000000005 4215.5000000000009 1361.0000000000002 1455.5000000000002 5512.5000000000009 284.00000000000006 3633.0000000000005 742.50000000000011 8.5000000000000018 1.0000000180025095e-35 3523.0000000000005
decision_type=2 2 2 2 2 2 2 2 2 2 2 2 2 2 2 2 2 2 2 2 2 2 2 2 2 2 2 2 2 2
left_child=1 2 5 13 9 8 11 22 12 14 18 17 28 -4 15 26 -14 -6 -7 -13 -21 -17 -8 29 -9 27 -5 -2 -1 -12
right_child=25 -3 3 4 6 10 7 24 -10 -11 23 19 16 -15 -16 21 -18 -19 -20 20 -22 -23 -24 -25 -26 -27 -28 -29 -30 -31
leaf_value=-1.1457972674586228 -0.94493350604936444 -1.2054456230972257 -1.0037229014579672 -1.0303618459411954 -1.0081479071947643 -1.0907471483924245 -0.98657599260222706 -0.96631146805594859 -1.1223549176991552 -0.85840286933350018 -1.1286237021219314 -0.97717285089067563 -0.8953004833301329 -1.1994823483980768 -1.0833825287985537 -0.96965457017514167 -1.0710324970937186 -1.1251891576170565 -1.1827667452911661 -1.1311802305758707 -0.95128911638748437 -1.1226378087658839 -1.1145080763805977 -1.0010506537034896 -0.82735472048834025 -0.96631146706045967 -0.88172709214209211 -0.84983301772794773 -1.0037229014579672 -1.0766104673644403
leaf_weight=2.3552128709852722 3.4019741415977505 24.751543179154396 1.7009870707988728 1.3956817127764276 3.4767428040504447 5.0531154386699226 3.1402838230133039 2.6729796826839438 8.033892806619404 5.9814929962158194 21.641789346933365 6.0263541936874381 6.524811949580906 9.9965701699256879 4.3615053556859484 4.1695990785956383 1.8056631982326505 34.995472460985184 24.327230479568243 6.3852437734603864 2.9047625362873077 2.3028748035430908 5.790832906961441 2.8785935044288626 3.794509619474411 4.3178902566432944 6.5597040019929409 8.8974708318710309 1.7009870707988737 10.912486284971235
leaf_count=29 22 356 22 21 22 31 19 21 112 53 161 42 56 188 61 42 27 181 159 37 21 22 43 17 29 27 59 66 22 57
internal_value=-1.07967 -1.09355 -1.07904 -1.05474 -1.04026 -1.10917 -1.07001 -0.991934 -1.03809 -0.957173 -1.13157 -1.09236 -0.983436 -1.17102 -0.988616 -0.959969 -0.933391 -1.11461 -1.16694 -1.03647 -1.07493 -1.02409 -1.06953 -1.10224 -0.884785 -0.899568 -0.907803 -0.876137 -1.08622 -1.11119
internal_weight=0 215.641 190.889 105.656 93.958 85.2338 69.1872 15.3986 20.4206 24.7709 64.8132 53.7886 12.3867 11.6976 18.7894 14.4279 8.33048 38.4722 29.3803 15.3164 9.29001 6.47247 8.93112 35.4329 6.46749 16.6173 7.95539 12.2994 4.0562 32.5543
internal_count=2025 1910 1554 883 673 671 415 112 246 258 425 303 134 210 205 144 83 203 190 100 58 64 62 235 50 115 80 88 51 218
is_linear=0
shrinkage=1


Tree=2
num_leaves=16
num_cat=0
split_feature=13 4 7 9 4 5 8 4 5 5 7 9 2 2 2
split_gain=426.785 72.6991 20.752 17.7364 11.0767 10.2743 9.9415 5.22546 5.09241 3.52655 4.76174 1.61286 7.10543e-15 2.22045e-16 1.11022e-16
threshold=1.0000000180025095e-35 7.5000000000000009 191.50000000000003 712.00000000000011 46.500000000000007 567.50000000000011 147.50000000000003 22.500000000000004 296.00000000000006 296.00000000000006 209.50000000000003 555.50000000000011 29.500000000000004 34.500000000000007 32.500000000000007
decision_type=2 2 2 2 2 2 2 2 2 2 2 2 2 2 2
left_child=12 5 3 4 -3 6 -2 -4 -6 -9 -11 -12 -1 14 -14
right_child=1 2 7 -5 8 -7 -8 9 -10 10 11 -13 13 -15 -16
leaf_value=-2.860511958799457 -2.6522190627618354 -2.31159890944779 -1.9298415602008485 -2.6837785908794416 -1.5239658492595765 -2.8605119588530874 -1.9632502406962662 -1.4219023279970284 -1.9685282480973281 -1.9083158457271054 -1.4527392539614101 -1.711745055045651 -2.8605119593100272 -2.8605119592052386 -2.8605119593857267
leaf_weight=53.078056631609797 0.48009317740797885 0.48580856714397658 0.53724712040275369 0.3772160606458782 0.5486779063940046 0.74300134927034378 0.37150066811591387 0.85730922874063287 0.48580856435000896 0.56010869704186905 0.66298580355942227 0.37721606064587831 0.61497648060321697 0.3657852690666914 0.32528761122375727
leaf_count=1589 29 30 27 31 26 46 20 38 28 31 30 20 38 21 21
internal_value=-2.76906 -2.00238 -1.81126 -2.07 -1.91771 -2.58876 -2.35166 -1.64733 -1.73274 -1.58557 -1.67324 -1.54666 -2.86051 -2.86051 -2.86051
internal_weight=0 6.48697 4.89238 1.89751 1.5203 1.5946 0.851594 2.99487 1.03449 2.45762 1.60031 1.0402 54.3841 1.30605 0.940264
internal_count=2025 356 261 115 84 95 49 146 54 119 81 50 1669 80 59
is_linear=0
shrinkage=1


Tree=3
num_leaves=11
num_cat=0
split_feature=30 13 3 5 8 8 3 2 3 5
split_gain=325.779 38.6043 127.099 59.9163 14.4309 13.5514 2.1565 1.77636e-15 2.22045e-16 1.11022e-16
threshold=1.0000000180025095e-35 1.0000000180025095e-35 51.000000000000007 330.50000000000006 32.500000000000007 157.50000000000003 76.000000000000014 27.500000000000004 231.00000000000003 832.00000000000011
decision_type=2 2 2 2 2 2 2 2 2 2
left_child=1 7 3 -3 -4 -2 -6 -1 -8 -9
right_child=5 2 4 -5 6 -7 8 9 -10 -11
leaf_value=-3.868004222573366 -0.023543789165462847 -3.208953900626399 -2.5865174717796338 -0.59009588744287145 -3.4066689985338017 -1.2899543452767559 -3.8680042213474235 -3.8680042243391539 -3.8680042213211578 -3.8680042222238047
leaf_weight=19.892815486993651 0.15606871247291465 0.15173347946256344 0.097542949952185043 0.20592399779707193 0.10838105715811241 0.18424778990447521 0.90173040144145467 0.45866862125694652 0.65462159086018801 0.274235027609393
leaf_count=1552 24 22 13 32 15 26 125 87 99 30
internal_value=-3.78029 -3.82624 -3.41988 -1.70113 -3.7687 -0.70918 -3.83797 -3.868 -3.868 -3.868
internal_weight=0 22.7457 2.11993 0.357657 1.76228 0.340317 1.66473 20.6257 1.55635 0.732904
internal_count=2025 1975 306 54 252 50 239 1669 224 117
is_linear=0
shrinkage=1


Tree=4
num_leaves=31
num_cat=0
split_feature=5 10 5 43 7 12 9 9 3 4 8 3 9 9 8 5 5 3 12 7 5 4 42 5 4 5 6 9 5 6
split_gain=107.23 179.143 25.7786 29.1529 28.5469 36.6575 27.2684 16.6578 11.1818 10.3114 9.62999 3.4907 4.34272 8.45597 9.69166 5.79351 2.34573 2.18035 3.47301 8.04787 2.17521 2.43665 1.73104 0.962509 0.535735 0.51384 0.358822 0.334272 0.275012 1.09931
threshold=457.50000000000006 1.0000000180025095e-35 2221.0000000000005 1.0000000180025095e-35 237.50000000000003 1.0000000180025095e-35 1423.5000000000002 5130.0000000000009 303.50000000000006 13.500000000000002 121.50000000000001 114.00000000000001 2363.5000000000005 1531.5000000000002 127.50000000000001 4584.0000000000009 1093.5000000000002 76.000000000000014 1.0000000180025095e-35 223.50000000000003 223.00000000000003 54.500000000000007 1.0000000180025095e-35 333.00000000000006 8.5000000000000018 1361.0000000000002 186.50000000000003 2133.5000000000005 875.50000000000011 229.50000000000003
decision_type=2 2 2 2 2 2 2 2 2 2 2 2 2 2 2 2 2 2 2 2 2 2 2 2 2 2 2 2 2 2
left_child=1 -1 3 4 7 24 8 17 16 26 20 12 13 -4 -15 -16 -5 18 22 25 -3 -22 27 -23 -6 -20 -7 -2 29 -19
right_child=2 10 11 6 5 9 -8 -9 -10 -11 -12 -13 -14 14 15 -17 -18 28 19 -21 21 23 -24 -25 -26 -27 -28 -29 -30 -31
leaf_value=-2.2661405370451284 -2.266140536883281 -1.4191328086773245 -2.2613279926589414 -1.4191328086773247 -2.1571422175198833 -1.5277235430872751 -2.2209380887308385 -1.7943893839280174 -2.024138317907151 -1.9715291410262923 -1.8487743965748227 -2.2610470463756069 -2.2589927919028518 -1.6619057153035677 -2.216000541723401 -1.9715291410262918 -1.6682527176369977 -2.2473875977477524 -2.1451394290982142 -1.7579358935813514 -1.6682527176369977 -1.4191328086773245 -2.1045308771674525 -1.5703841808713783 -2.2661405369279475 -2.2661405369763106 -1.4191328086773249 -2.1959742121996855 -2.2550650927842288 -2.1216273641791918
leaf_weight=6.6607029400765878 3.2959163561463489 2.8335043787956238 4.1558061614632624 1.0153390690684316 0.73395630344748419 0.46044446155428864 1.3273617941886184 0.93269516527652641 0.57850711792707432 0.54308831691741954 0.81463248282670964 43.192386405542493 8.3942562136799079 0.52959545329213131 2.393299100920558 1.6292649507522581 0.60211966931819905 4.2659981250762931 0.82643875107169174 0.59031340479850758 1.0035327821969988 1.1570142880082128 0.99003987386822689 0.66115101426839817 1.1693827062845228 0.60999050736427307 0.8972763866186142 0.85511109419167031 10.834780447185038 0.83037416636943806
leaf_count=204 74 120 43 43 20 20 21 28 14 14 24 560 113 19 38 34 21 110 25 23 35 49 18 25 25 20 38 14 213 20
internal_value=-2.16937 -1.9021 -2.20766 -2.13412 -2.16842 -1.91389 -1.86311 -2.20872 -1.64682 -1.60326 -1.52733 -2.24591 -2.20767 -2.15819 -2.06404 -2.11698 -1.51187 -2.22545 -2.17964 -2.06878 -1.48102 -1.54317 -2.22335 -1.47413 -2.22411 -2.19652 -1.45596 -2.25169 -2.24605 -2.2269
internal_weight=0 13.1305 91.6537 31.3591 27.8358 3.80415 3.52333 24.0317 2.19597 1.90081 6.46983 60.2946 17.1022 8.70797 4.55216 4.02256 1.61746 23.099 7.16781 2.02674 5.6552 2.8217 5.14107 1.81817 1.90334 1.43643 1.35772 4.15103 15.9312 5.09637
internal_count=2025 457 1568 761 662 117 99 545 78 72 253 807 247 134 91 72 64 517 174 68 229 109 106 74 45 45 58 88 343 130
is_linear=0
shrinkage=1


Tree=5
num_leaves=24
num_cat=0
split_feature=10 7 6 9 7 5 2 4 5 3 14 9 6 7 6 5 6 7 9 6 5 2 5
split_gain=131.897 31.2526 32.2805 35.9818 25.9324 17.4466 10.1727 9.34305 8.02841 9.55983 5.89015 4.7224 8.48543 7.31341 6.88687 3.15752 4.87018 0.622302 0.541933 1.45849 7.10543e-15 8.88178e-16 2.22045e-16
threshold=1.0000000180025095e-35 228.50000000000003 209.50000000000003 539.00000000000011 193.50000000000003 1208.0000000000002 18.500000000000004 61.500000000000007 337.00000000000006 211.00000000000003 1.0000000180025095e-35 1319.5000000000002 241.50000000000003 209.50000000000003 227.50000000000003 935.50000000000011 172.50000000000003 193.50000000000003 1007.0000000000001 189.50000000000003 1122.0000000000002 21.500000000000004 1408.0000000000002
decision_type=2 2 2 2 2 2 2 2 2 2 2 2 2 2 2 2 2 2 2 2 2 2 2
left_child=1 2 3 8 7 15 -7 -5 -1 -10 18 12 13 14 -4 16 -6 -14 22 -20 21 -2 -3
right_child=20 10 11 4 5 6 -8 -9 9 -11 -12 -13 17 -15 -16 -17 -18 -19 19 -21 -22 -23 -24
leaf_value=-3.2870294090712773 -3.3512115198786798 -3.3512115214277625 -2.295845856205359 -1.2831212376295371 -3.2348814422685872 -2.6149451961005048 -1.7516729316795283 -2.0867541378658485 -2.2722078879774581 -3.0774936887811246 -2.7928271434236671 -3.3182568241042003 -3.1428591398753913 -3.192218245805635 -2.923876537101469 -2.5369009615384748 -2.6514817226317646 -3.3512115213954679 -3.0589248953046093 -3.3512115189866769 -3.3512115212753306 -3.351211518169416 -3.3512115180465871
leaf_weight=0.51935550011694365 3.2622689176350859 0.65689516067504861 0.34743092022836231 0.25788686983287368 0.28654096461832501 0.22636736184358597 0.34384915744885802 0.3295221091248095 0.24714158196002245 0.36533973086625338 0.26863215537741769 0.50574479671195138 0.2399780568666755 0.31447870703414083 0.35101268207654357 0.28654096275568008 0.28582461271435022 0.35602714866399765 0.28510826686397195 0.42551334388554096 26.081572295632213 1.6762647125869987 0.22780007682740688
leaf_count=37 238 52 35 34 20 19 36 33 27 27 24 25 21 25 30 22 25 27 28 39 996 180 25
internal_value=-3.26208 -2.87415 -2.74953 -2.54656 -2.29329 -2.5232 -2.09438 -1.73394 -2.9978 -2.75255 -3.22603 -3.05172 -2.96793 -2.79177 -2.61147 -2.80789 -2.94355 -3.26732 -3.29898 -3.23394 -3.35121 -3.35121 -3.35121
internal_weight=0 7.12699 5.26304 3.14837 2.01653 1.42912 0.570217 0.587409 1.13184 0.612481 1.86395 2.11467 1.60893 1.01292 0.698444 0.858907 0.572366 0.596005 1.59532 0.710622 31.0201 4.93853 0.884695
internal_count=2025 611 443 280 189 122 55 67 91 54 168 163 138 90 65 67 45 48 144 67 1414 418 77
is_linear=0
shrinkage=1


Tree=6
num_leaves=30
num_cat=0
split_feature=52 8 51 7 9 5 9 5 5 9 9 7 4 6 6 9 5 43 12 8 5 3 5 5 8 4 4 5 8
split_gain=52.5577 65.2437 15.5464 4.76102 7.94342 27.3437 4.09522 0.742325 3.48965 4.25056 8.20135 12.6134 0.492496 0.979665 0.0291569 0.0578276 8.88178e-16 1.33227e-15 5.55112e-16 4.44089e-16 2.22045e-16 1.11022e-16 1.11022e-16 1.11022e-16 1.11022e-16 5.55112e-17 5.55112e-17 5.55112e-17 5.55112e-17
threshold=1.0000000180025095e-35 143.50000000000003 1.0000000180025095e-35 240.50000000000003 2019.0000000000002 2957.5000000000005 2726.5000000000005 1918.5000000000002 3020.0000000000005 2288.5000000000005 2935.5000000000005 223.50000000000003 81.500000000000014 223.50000000000003 237.50000000000003 2011.5000000000002 660.50000000000011 1.0000000180025095e-35 1.0000000180025095e-35 98.500000000000014 323.50000000000006 172.50000000000003 2981.0000000000005 381.50000000000006 161.50000000000003 6.5000000000000009 8.5000000000000018 891.50000000000011 73.500000000000014
decision_type=2 2 2 2 2 2 2 2 2 2 2 2 2 2 2 2 2 2 2 2 2 2 2 2 2 2 2 2 2
left_child=2 -2 3 7 18 -6 -7 16 9 21 11 -11 14 -14 19 -16 17 20 22 -10 24 25 27 28 -1 -9 -20 -5 -19
right_child=1 -3 -4 4 5 6 -8 8 12 10 -12 -13 13 -15 15 -17 -18 23 26 -21 -22 -23 -24 -25 -26 -27 -28 -29 -30
leaf_value=-4.1867838097335426 -0.81675683549061295 -3.7823805508202981 -3.4006541130978349 -4.186783810773127 -2.7503788183276816 -3.7265194008732152 -4.1867838132870796 -4.1867838114192919 -4.1867838132870796 -3.9699008748335518 -4.1867838132870796 -2.9331939964431841 -4.1867838132870796 -3.9154422686818253 -4.1233671371098248 -4.186783813138133 -4.186783812186067 -4.1867838059971918 -4.1867838056179973 -4.1867838130897432 -4.1867838116676053 -4.1867838132870796 -4.1867838129924762 -4.1867838059057885 -4.186783811562341 -4.1867838124532453 -4.1867838084735789 -4.1867838131983284 -4.1867838055046311
leaf_weight=0.7367614393588251 0.10597626096568902 0.24727792688645422 0.29075536690652271 0.17880096915177934 0.19890928245149531 0.27934253797866404 0.62770550139248371 0.23776723886840023 0.22825654596090306 0.32934158993884921 0.4470024025067687 0.18233350850641727 0.3614061977714299 0.21059383824467659 0.2252674726769327 0.3975468180142343 3.1797405378893018 0.45080670411698509 0.16675409791059792 4.8009960241615772 1.0639291531406341 0.34238481894135475 0.60297771031036973 0.18450738536193967 0.27422489086166024 0.21303944429382682 0.081157886190339923 0.12997942231595516 0.1065197279676795
leaf_count=158 27 19 30 34 37 31 55 26 16 30 37 31 26 20 19 30 454 114 44 346 193 27 48 47 47 18 17 16 28
internal_value=-4.09962 -2.89269 -4.12542 -4.1384 -4.00393 -3.81219 -4.04504 -4.1602 -4.14022 -4.01554 -3.87385 -3.60047 -4.17531 -4.08688 -4.18426 -4.16385 -4.18678 -4.18678 -4.18678 -4.18678 -4.18678 -4.18678 -4.18678 -4.18678 -4.18678 -4.18678 -4.18678 -4.18678 -4.18678
internal_weight=0 0.353254 16.5288 16.2381 2.26563 1.10596 0.907048 13.9724 7.97594 1.75187 0.958678 0.511675 6.22407 0.572 5.65207 0.622814 5.99649 2.81675 1.15967 5.02925 2.07492 0.793192 0.911758 0.741834 1.01099 0.450807 0.247912 0.30878 0.557326
internal_count=2025 46 1979 1949 282 123 86 1667 626 169 98 61 457 46 411 49 1041 587 159 362 398 71 98 189 205 44 61 50 142
is_linear=0
shrinkage=1


Tree=7
num_leaves=31
num_cat=0
split_feature=5 25 7 5 35 4 6 3 5 2 6 5 5 9 3 9 7 9 25 9 7 3 9 5 3 9 9 9 8 9
split_gain=148.926 17.0697 13.8986 8.46039 8.00836 7.5658 6.07518 4.67798 6.34828 3.90599 3.59195 3.25253 2.89837 3.6459 2.89636 3.79617 3.18611 2.87105 2.44973 2.32774 2.17367 1.86931 2.17159 4.31548 5.42046 3.46286 3.29569 4.07269 2.16715 1.8476
threshold=1903.5000000000002 1.0000000180025095e-35 240.50000000000003 1026.5000000000002 1.0000000180025095e-35 -19.499999999999996 177.50000000000003 428.00000000000006 3020.0000000000005 13.500000000000002 240.50000000000003 4424.5000000000009 2871.0000000000005 2173.5000000000005 87.500000000000014 1022.0000000000001 231.50000000000003 1965.5000000000002 1.0000000180025095e-35 2638.0000000000005 228.50000000000003 466.50000000000006 3640.0000000000005 3733.0000000000005 290.00000000000006 2738.0000000000005 1729.5000000000002 2102.5000000000005 134.50000000000003 2573.0000000000005
decision_type=2 2 2 2 2 2 2 2 2 2 2 2 2 2 2 2 2 2 2 2 2 2 2 2 2 2 2 2 2 2
left_child=3 2 4 18 6 -5 -2 8 -4 11 12 -10 13 -8 15 -7 -17 -13 -1 -12 -3 22 25 -24 -25 26 28 -28 -14 -9
right_child=1 20 7 5 -6 14 10 29 9 -11 19 17 21 -15 -16 16 -18 -19 -20 -21 -22 -23 23 24 -26 -27 27 -29 -30 -31
leaf_value=-0.12986836885333347 -0.028335423971843122 -0.0028515030709199462 -0.10287114212491029 0.14441015104751828 0.15769496223553064 -0.13139837480034908 0.097594372301627028 -0.020342644298998888 0.151541288762329 -0.036078381705385215 -0.038839272632006844 0.10016729557912391 0.063502604205053978 0.0037878938036050268 -0.09528893417019535 0.032740987899367822 -0.098902728602951559 -0.017314592312000374 -0.036936577827787795 0.072937864815653605 -0.092491568689665751 0.13221872352387751 0.11198484495844555 -0.06584424340043378 0.092982126404991552 0.14569044860937319 -0.028182943971184544 0.083096498690078902 0.13158044104900266 -0.13049171307142879
leaf_weight=51.826704114675522 5.3122095912694922 4.4900319725275022 3.1188955754041734 1.6947915107011784 13.493452459573744 3.0279153212904921 7.9831917174160507 3.2179715856909743 4.1967179179191616 3.792816422879695 3.8915302008390418 4.3193043321371061 6.9599279612302807 8.6136992797255498 20.530101176351309 6.8502286747097951 2.5129121541976929 4.012657392770052 3.0007840842008582 3.574218887835741 6.804994598031044 11.477932166308163 7.5349936224520233 4.5958907157182676 4.0355808287858963 11.968535989522932 4.7807521484792224 10.5396232008934 14.249611299484966 2.8907908499240875
leaf_count=769 34 27 49 7 50 46 40 26 16 26 36 22 35 77 197 58 35 25 19 24 47 48 33 28 18 47 42 60 62 22
internal_value=0 0.0615374 0.0707881 -0.100344 0.0851547 -0.0616381 0.0758784 0.00386636 0.0278528 0.052833 0.0814031 0.0797491 0.0867749 0.0489093 -0.0722455 -0.034066 -0.00259001 0.0435882 -0.124782 0.0146739 -0.0568576 0.0950285 0.0884273 0.056687 0.00841385 0.0990076 0.0837126 0.0483715 0.109241 -0.0724674
internal_weight=0 155.855 144.56 89.4434 119.011 34.6159 105.518 25.5492 19.4404 16.3215 100.205 12.5287 92.7397 16.5969 32.9212 12.3911 9.36314 8.33196 54.8275 7.46575 11.295 76.1428 64.6649 16.1665 8.63147 48.4985 36.5299 15.3204 21.2095 6.10876
internal_count=2025 894 820 1131 634 343 584 186 138 89 550 63 490 117 336 139 93 47 788 60 74 373 325 79 46 246 199 102 97 48
is_linear=0
shrinkage=0.1


Tree=8
num_leaves=31
num_cat=0
split_feature=25 13 3 5 5 4 42 43 7 9 5 2 9 8 4 8 9 9 7 5 6 6 5 3 4 6 5 5 4 8
split_gain=40.8324 26.2073 10.685 12.0301 24.2253 9.61556 7.93988 7.48517 9.7018 5.38845 4.7348 4.41102 4.32451 5.03828 4.98256 4.12572 4.08228 3.97285 3.8509 3.14378 3.13312 2.93588 2.6667 3.50848 2.46626 2.76202 2.45835 2.35176 2.3443 3.44297
threshold=1.0000000180025095e-35 1.0000000180025095e-35 92.500000000000014 457.50000000000006 2186.5000000000005 109.50000000000001 1.0000000180025095e-35 1.0000000180025095e-35 230.50000000000003 4097.5000000000009 1571.0000000000002 19.500000000000004 1238.0000000000002 170.50000000000003 -25.499999999999996 192.50000000000003 4630.0000000000009 5297.5000000000009 222.50000000000003 5797.5000000000009 238.50000000000003 221.50000000000003 3202.0000000000005 321.00000000000006 1.0000000180025095e-35 220.50000000000003 3719.0000000000005 5405.0000000000009 23.500000000000004 145.50000000000003
decision_type=2 2 2 2 2 2 2 2 2 2 2 2 2 2 2 2 2 2 2 2 2 2 2 2 2 2 2 2 2 2
left_child=1 2 9 21 12 6 7 16 -9 10 11 24 13 18 -14 19 27 -11 -5 20 22 -4 23 -8 -1 -26 -24 -6 29 -28
right_child=-2 -3 3 4 5 -7 15 8 -10 17 -12 -13 14 -15 -16 -17 -18 -19 -20 -21 -22 -23 26 -25 25 -27 28 -29 -30 -31
leaf_value=-0.024955862019149431 0.14813969552165104 -0.11408466757656065 0.037852899654295766 0.119370515040177 -0.097366778661169009 0.14177392632896496 0.0032104982838465413 -0.05059127919281891 0.16075312074965831 0.12618747393701252 -0.067090577901070397 -0.08537310205666776 -0.12544062096667918 -0.12864362498437429 0.13190517031187596 0.12881705495713192 0.038766315629951455 -0.027622056679000057 -0.017523336351189758 0.10049584919543014 0.10152703893784043 -0.1025959809506682 -0.085518948022063987 0.14109822479771475 0.0082760376790530638 0.15153314334079948 0.095971232659496128 -0.027985412900554337 -0.031873008621934144 -0.023374027203515127
leaf_weight=3.2162989452481252 17.723509237170219 21.662008535116911 1.757994346320628 6.0812451466917974 19.487277666106827 4.4921535626053801 6.4006594792008382 5.1898156777024251 3.7354098409414291 3.2976689189672461 34.244438089430332 3.759053796529769 0.77885277941823261 1.4305066242814053 22.10739978402853 3.1839796118438235 3.2581822872161856 3.421949565410614 3.1036839485168457 3.6078088283538809 2.99977097287774 9.7030128240585309 4.7054703719913986 2.5928037464618683 2.4937470816075802 2.9237527810037136 4.4721726365387457 6.5200568512082091 14.625195708125828 5.260756079107523
leaf_count=48 115 356 24 60 118 30 46 25 25 21 268 62 4 27 197 21 18 23 41 22 20 191 22 17 30 28 29 32 75 30
internal_value=0 -0.0099052 0.00204462 0.0169713 0.0260289 -0.000855346 -0.00830208 -0.0423048 0.0378612 -0.03586 -0.0479227 0.00504292 0.0986783 0.0459245 0.123147 0.0188375 -0.0667534 0.0478603 0.0731126 0.0109974 0.00313288 -0.0810526 -0.00462284 0.0429634 0.044409 0.08559 -0.019348 -0.0799728 -0.00656512 0.0314638
internal_weight=0 210.513 188.851 135.494 124.033 90.5315 86.0394 38.1907 8.92523 53.3569 46.6373 12.3929 33.5017 10.6154 22.8863 47.8486 29.2655 6.71962 9.18493 44.6646 41.0568 11.461 38.0571 8.99346 8.6338 5.4175 29.0636 26.0073 24.3581 9.73293
internal_count=2025 1910 1554 1074 859 530 500 218 50 480 436 168 329 128 201 282 168 44 101 261 239 215 219 63 106 58 156 150 134 59
is_linear=0
shrinkage=0.1


Tree=9
num_leaves=31
num_cat=0
split_feature=13 4 5 9 6 23 9 9 4 6 14 5 4 6 6 52 8 35 2 9 25 51 4 10 5 3 5 8 6 5
split_gain=180.732 5.47637 4.48617 2.93523 2.67159 5.95678 4.30933 2.69341 2.25025 2.14015 1.07978 1.17629 0.426055 0.29677 2.22516e-05 1.26795e-05 1.73897e-05 4.89172e-06 2.71931e-06 3.0592e-06 3.83695e-06 2.49148e-06 2.48116e-06 2.46709e-06 6.8104e-06 2.27272e-06 1.98286e-06 2.30441e-06 2.17742e-06 2.00824e-06
threshold=1.0000000180025095e-35 5.5000000000000009 545.00000000000011 817.50000000000011 180.50000000000003 1.0000000180025095e-35 527.50000000000011 634.50000000000011 22.500000000000004 194.50000000000003 1.0000000180025095e-35 469.50000000000006 112.50000000000001 129.50000000000003 203.50000000000003 1.0000000180025095e-35 162.50000000000003 1.0000000180025095e-35 22.500000000000004 3367.5000000000005 1.0000000180025095e-35 1.0000000180025095e-35 12.500000000000002 1.0000000180025095e-35 1350.5000000000002 412.50000000000006 2037.5000000000002 186.50000000000003 237.50000000000003 1593.5000000000002
decision_type=2 2 2 2 2 2 2 2 2 2 2 2 2 2 2 2 2 2 2 2 2 2 2 2 2 2 2 2 2 2
left_child=15 2 9 4 8 7 -7 10 -3 -2 11 -6 13 -10 -4 17 -17 18 19 20 21 23 -22 24 -1 -20 29 28 -28 -25
right_child=1 3 14 -5 5 6 -8 -9 12 -11 -12 -13 -14 -15 -16 16 -18 -19 25 -21 22 -23 -24 26 -26 -27 27 -29 -30 -31
leaf_value=-0.090977374637959185 0.41545761339291087 0.60359410279825854 -0.090304977696405955 0.16398471106178375 0.2838234336302618 -0.048184466285270455 0.33423648581842835 0.22039015639501078 0.41485406423274451 0.12051990580487525 0.46471448832216694 0.43443941456971702 0.44241053281183257 0.34472910505417209 -0.088982772603581783 -0.090041238341722243 -0.090856760749959187 -0.090735613529486142 -0.090758258410159401 -0.090816175519755002 -0.090900953489739977 -0.090731080640220896 -0.090690025548270728 -0.090920636076044489 -0.090691708141919694 -0.090961817486787319 -0.090864973506010888 -0.091022333927797919 -0.0909811294228344 -0.091039671821602636
leaf_weight=1.4925992526114087 0.51822596509009489 0.61773598007857433 0.26962016616016626 0.75564660038799125 1.0255906991660597 0.65406836848705985 0.53624807856976986 0.9286529105156659 1.0211828621104366 0.46840040478855371 1.8728574234992268 1.0487731033936141 1.3949236376211045 1.4754633698612449 0.24109655059874058 0.46584476204588898 0.5959781389683485 3.5650419555604449 4.0863939728587857 9.4520871657878143 0.84717509709298555 0.93094992078840633 1.632012143731117 5.27527813240886 1.8929548198357222 0.63351740967482317 13.308073393069209 1.2124631060287345 1.8365479726344336 1.9379720417782662
leaf_count=69 14 16 22 32 22 24 16 30 18 28 36 20 24 30 24 33 13 66 247 250 22 30 52 261 123 22 344 31 53 53
internal_value=0 0.330637 0.150901 0.354388 0.367993 0.324659 0.1241 0.37362 0.426289 0.275436 0.40967 0.359973 0.398144 0.373412 -0.0896808 -0.0908408 -0.090499 -0.0908483 -0.0908573 -0.0908659 -0.0908813 -0.0908919 -0.0907621 -0.0908975 -0.0908177 -0.0907856 -0.0909089 -0.0908897 -0.0908791 -0.0909526
internal_weight=0 12.8285 1.49734 11.3311 10.5755 6.06619 1.19032 4.87587 4.50931 0.986626 3.94722 2.07436 3.89157 2.49665 0.510717 49.1649 1.06182 48.1031 44.538 39.8181 30.366 27.8868 2.47919 26.9559 3.38555 4.71991 23.5703 16.3571 15.1446 7.21325
internal_count=2025 356 88 268 236 148 40 108 88 42 78 42 72 48 46 1669 46 1623 1557 1288 1038 964 74 934 192 269 742 428 397 314
is_linear=0
shrinkage=0.1


Tree=10
num_leaves=31
num_cat=0
split_feature=13 3 6 8 4 6 5 8 8 52 8 35 2 9 25 51 4 10 5 3 5 8 6 5 6 6 3 5 7 4
split_gain=28.1127 7.20373 5.50132 1.17687 1.57185 1.58721 0.728015 0.137579 0.000209396 5.53264e-07 7.63122e-07 2.13061e-07 1.18404e-07 1.33114e-07 1.67011e-07 1.08456e-07 1.08139e-07 1.07322e-07 2.96532e-07 9.89492e-08 8.61661e-08 1.00117e-07 9.46456e-08 8.71781e-08 1.47653e-07 8.67122e-08 8.03793e-08 7.92362e-08 7.5878e-08 9.8639e-08
threshold=1.0000000180025095e-35 142.00000000000003 157.50000000000003 56.500000000000007 5.5000000000000009 202.50000000000003 477.00000000000006 117.50000000000001 40.500000000000007 1.0000000180025095e-35 162.50000000000003 1.0000000180025095e-35 22.500000000000004 3367.5000000000005 1.0000000180025095e-35 1.0000000180025095e-35 12.500000000000002 1.0000000180025095e-35 1350.5000000000002 412.50000000000006 2037.5000000000002 186.50000000000003 237.50000000000003 1593.5000000000002 216.50000000000003 203.50000000000003 76.000000000000014 5585.0000000000009 206.50000000000003 41.500000000000007
decision_type=2 2 2 2 2 2 2 2 2 2 2 2 2 2 2 2 2 2 2 2 2 2 2 2 2 2 2 2 2 2
left_child=9 2 -2 -4 5 -5 -6 -7 -3 11 -11 12 13 14 15 17 -16 18 26 -14 23 22 -22 25 -25 -19 -1 -13 -10 -30
right_child=1 8 3 4 6 7 -8 -9 28 10 -12 27 19 -15 16 -17 -18 20 -20 -21 21 -23 -24 24 -26 -27 -28 -29 29 -31
leaf_value=-0.087508326415091278 -0.10642067038278767 -0.091248774797722781 0.33426535415734859 0.33319479986415407 -0.02899125808696458 0.2151038013264909 0.14890988079014469 0.17130043046012511 -0.087514692718104414 -0.087245138970434302 -0.087523082355627724 -0.087464962464227081 -0.087489679385797645 -0.087509326294352305 -0.08753804948930137 -0.087480458468713829 -0.08746651809168679 -0.087615144190891114 -0.087467089600501716 -0.087558649362292101 -0.087525863510006768 -0.08757911476884106 -0.087565182893106872 -0.087529251481671011 -0.087620999969505592 -0.087538558329607705 -0.087589449323883892 -0.087516449237884847 -0.087533582311441732 -0.087426600042432856
leaf_weight=0.17825504578650775 0.59155286196619172 0.17482456983998396 0.71132567431777705 1.0091457879170773 0.36149397119879711 1.1728146038949492 0.63251942116767168 1.8450444419868288 0.56268788827583194 0.17554687918163736 0.22590021952055395 0.90343413967639097 1.547822740394621 3.5816921838559201 0.32121544796973545 0.35255187260918397 0.61786379106342793 0.16075507365167219 0.7166627342812717 0.24030914483591903 5.0446026164572686 0.46011629467830051 0.69674491486512113 0.28880720678716887 0.44672255124896765 1.8397035328671334 0.38798832520842552 0.44669531565159559 0.12242812872864306 0.29111495963297784
leaf_count=29 33 11 21 26 37 20 17 28 102 33 13 43 247 250 22 30 52 16 123 22 344 31 53 17 36 245 40 23 19 42
internal_value=0 0.142039 0.183922 0.213884 0.196829 0.224627 0.0842124 0.188324 -0.0880616 -0.0875177 -0.0874015 -0.0875202 -0.0875233 -0.0875262 -0.0875314 -0.087535 -0.087491 -0.0875369 -0.0875098 -0.0874989 -0.0875408 -0.0875342 -0.0875306 -0.0875555 -0.087585 -0.0875447 -0.0875639 -0.087482 -0.0874908 -0.0874583
internal_weight=0 7.47495 6.3239 5.73234 5.02102 4.027 0.994013 3.01786 1.15106 18.6334 0.401447 18.2319 16.8818 15.0937 11.512 10.5729 0.939079 10.2204 1.28291 1.78813 8.93745 6.20146 5.74135 2.73599 0.73553 2.00046 0.566243 1.35013 0.976231 0.413543
internal_count=2025 356 182 149 128 74 54 48 174 1669 46 1623 1557 1288 1038 964 74 934 192 269 742 428 397 314 53 261 69 66 163 61
is_linear=0
shrinkage=0.1


Tree=11
num_leaves=31
num_cat=0
split_feature=5 10 12 7 43 5 9 9 5 43 9 5 3 9 9 5 5 7 3 7 8 2 3 2 7 8 5 3 4 9
split_gain=71.0014 83.3196 20.5054 26.6222 10.0429 10.0415 7.61154 7.2042 5.47075 5.49786 4.91161 4.11644 2.63094 2.63036 7.5488 2.54538 3.75627 2.53456 1.61596 2.50728 1.56854 1.43782 2.03826 0.743863 0.627965 1.56278 0.352871 0.296882 0.216243 0.189826
threshold=766.00000000000011 1.0000000180025095e-35 1.0000000180025095e-35 229.50000000000003 1.0000000180025095e-35 395.50000000000006 1599.5000000000002 2102.5000000000005 1625.0000000000002 1.0000000180025095e-35 4848.0000000000009 1093.5000000000002 114.00000000000001 2363.5000000000005 2149.5000000000005 4686.5000000000009 5068.5000000000009 232.50000000000003 122.00000000000001 214.50000000000003 93.500000000000014 17.500000000000004 76.000000000000014 16.500000000000004 178.50000000000003 36.500000000000007 2088.5000000000005 271.00000000000006 21.500000000000004 1197.0000000000002
decision_type=2 2 2 2 2 2 2 2 2 2 2 2 2 2 2 2 2 2 2 2 2 2 2 2 2 2 2 2 2 2
left_child=1 -1 8 21 5 20 23 -7 9 10 18 -11 13 14 15 -10 -17 -16 19 -2 -3 22 -4 29 25 -6 28 -26 -14 -5
right_child=2 4 3 6 24 7 -8 -9 12 11 -12 -13 26 -15 17 16 -18 -19 -20 -21 -22 -23 -24 -25 27 -27 -28 -29 -30 -31
leaf_value=-0.092927390553149178 0.14665488570481419 0.37142410020878597 0.14376911938896425 0.42743421789524449 0.38098790414761269 -0.05449489447444418 0.02657851084877759 0.2782269505898598 -0.092679273312464672 -0.0019248447717981837 0.18638244140839769 0.27329692907781072 -0.013087786571620637 -0.084216371024434411 0.28233367821144179 0.12671838312250558 -0.096448990629074277 0.060474573264962875 -0.095613724344844719 -0.062741614342831001 0.23942960256240289 -0.0956129124118274 -0.075556432082280592 0.28732490365429952 0.37551846599789834 0.21726133014166812 -0.090067973161221726 0.43114632893576244 -0.077925867923460748 0.36713577536210518
leaf_weight=8.746933369897306 0.82616746053099488 2.0290806517004962 0.74135914072394171 1.3811392541974794 1.8297444246709349 1.8514477889984848 0.79105125553905953 1.0034730862826107 5.435873210430147 1.0160365216433995 0.90780716948211182 1.1683723479509351 0.96351599413901512 8.6533686304464918 0.94119148887693826 1.6032386999577286 1.4242111258208749 1.1369698205962775 4.6802257299423218 1.8574471063911913 1.6183436494320629 3.0640176516026258 0.988965118303895 0.71435581147670735 4.4432633444666862 0.85559633746743191 40.231742965988815 1.2236006222665308 1.1034692497923968 0.83938369713723648
leaf_count=312 29 49 22 37 45 32 15 26 59 17 21 28 20 133 30 30 15 19 83 50 35 102 22 19 109 17 574 33 20 22
internal_value=0 0.151926 -0.0453222 0.101369 0.296105 0.202916 0.301882 0.0624532 -0.0626934 0.00417793 -0.0330856 0.145283 -0.0740639 -0.0433587 -0.00981919 -0.0517523 0.0217332 0.160954 -0.0601414 0.0017224 0.312859 -0.0544596 0.0184138 0.376086 0.368654 0.328822 -0.0879977 0.38753 -0.0477019 0.404641
internal_weight=0 23.6015 80.4699 8.52027 14.8545 6.50235 3.72593 2.85492 71.9496 10.4561 8.27165 2.18441 61.4936 19.1949 10.5415 8.46332 3.02745 2.07816 7.36384 2.68361 3.64742 4.79434 1.73032 2.93488 8.3522 2.68534 42.2987 5.66686 2.06699 2.22052
internal_count=2025 658 1367 239 346 142 93 58 1128 228 183 45 900 286 153 104 45 49 162 79 84 146 44 78 204 62 614 142 40 59
is_linear=0
shrinkage=0.1


Tree=12
num_leaves=31
num_cat=0
split_feature=10 26 9 9 5 46 7 6 4 14 3 6 9 4 5 8 3 7 9 4 7 5 14 7 30 52 8 35 9 25
split_gain=71.9709 9.15334 8.19771 9.26943 9.14549 8.83306 8.32192 5.18266 4.90103 3.44038 3.23623 3.04273 4.30118 2.84612 3.38468 2.02876 1.02591 0.900945 1.65688 0.8307 0.181703 0.302662 4.00998e-05 5.33467e-05 4.01435e-06 2.80586e-06 3.74331e-06 1.16948e-06 6.99287e-07 8.16147e-07
threshold=1.0000000180025095e-35 1.0000000180025095e-35 1045.5000000000002 701.50000000000011 958.50000000000011 1.0000000180025095e-35 209.50000000000003 174.50000000000003 29.500000000000004 1.0000000180025095e-35 92.500000000000014 175.50000000000003 496.00000000000006 9.5000000000000018 1506.5000000000002 159.50000000000003 142.00000000000003 212.50000000000003 1860.5000000000002 65.500000000000014 222.50000000000003 510.50000000000006 1.0000000180025095e-35 229.50000000000003 1.0000000180025095e-35 1.0000000180025095e-35 162.50000000000003 1.0000000180025095e-35 3367.5000000000005 1.0000000180025095e-35
decision_type=2 2 2 2 2 2 2 2 2 2 2 2 2 2 2 2 2 2 2 2 2 2 2 2 2 2 2 2 2 2
left_child=1 2 3 5 8 6 9 -6 -5 10 -1 -12 -13 14 -4 -10 -9 -15 -19 -11 21 -8 23 -22 -25 27 -27 28 29 -2
right_child=25 -3 13 4 7 -7 20 16 15 19 11 12 -14 17 -16 -17 -18 18 -20 -21 22 -23 -24 24 -26 26 -28 -29 -30 -31
leaf_value=0.078278929663886124 -0.088811209280512116 0.52096821675681504 0.55090689686335181 0.82477026648999141 0.48368809727626094 0.6049513583840308 0.036713416019714513 0.13521304761393743 0.53543372248822585 0.12791363113939622 0.14407482670469191 0.63567145948782122 0.24718430673511907 -0.093834570744739942 0.02354313657215373 0.24867001891184726 -0.093441555160064554 0.16682963468844458 -0.090395900843226573 -0.090729128776063372 -0.09029804106784331 -0.090865083233925059 -0.09054505401604479 -0.088703997219607311 -0.088090863304990358 -0.088312374809318209 -0.088790914925938283 -0.088720045780947165 -0.088766212931647964 -0.088735550372585237
leaf_weight=0.58405767474323234 17.476369940675809 0.88488056976348239 0.20677098864689503 0.45089534949511323 0.37162493076175429 0.40336511470377434 0.39491817727684952 0.43029695143923163 0.68136017490178324 0.37139490572735656 0.4894127845764159 0.57217823062092044 0.56781201530247927 0.98411679826676834 0.29581127921119332 0.38673786353319883 0.36071586143225431 0.5113846114836631 0.49070747941732407 0.32656348962336779 0.23746845358982682 0.35142686171457171 0.26580072520300746 0.24152553081512451 0.19140977738425136 0.29077227809466322 0.3733455091714859 2.2320943847298613 6.1351349381729952 1.5524160284548987
leaf_count=37 967 39 18 27 17 20 29 32 32 24 28 37 20 26 33 18 10 28 19 18 16 23 15 20 25 33 13 66 261 74
internal_value=0 0.212488 0.185642 0.23676 0.386744 0.156277 0.116882 0.175658 0.548309 0.219199 0.280241 0.352634 0.442172 0.0279203 0.24051 0.431602 0.0309425 -0.0258724 0.0408707 0.0256142 -0.0601642 -0.0233587 -0.0895057 -0.0890936 -0.0884329 -0.0887845 -0.0885814 -0.0887894 -0.0887956 -0.088805
internal_weight=0 11.0526 10.1678 7.67896 2.68163 4.99733 4.59397 1.16264 1.51899 2.91142 2.21346 1.6294 1.13999 2.48879 0.502582 1.0681 0.791013 1.98621 1.00209 0.697958 1.68255 0.746345 0.936204 0.670404 0.432935 28.0601 0.664118 27.396 25.1639 19.0288
internal_count=2025 611 572 448 136 312 292 59 77 164 122 85 57 124 51 50 42 73 47 42 128 52 76 61 45 1414 46 1368 1302 1041
is_linear=0
shrinkage=0.1


Tree=13
num_leaves=31
num_cat=0
split_feature=5 5 9 9 7 9 7 52 6 5 9 6 4 3 9 5 52 7 9 51 9 7 9 9 13 3 5 4 9 5
split_gain=6.63013 14.4643 7.37099 8.89444 8.6891 5.66359 4.66338 2.38881 2.01395 1.67345 3.67531 10.285 0.692397 0.132955 0.194757 0.0872042 0.0617634 0.000117335 0.000225731 9.20648e-05 5.25897e-06 2.75178e-06 2.18525e-06 5.07119e-06 7.86534e-07 1.22757e-06 7.70093e-07 5.4676e-07 3.92342e-07 6.01495e-07
threshold=2000.5000000000002 3119.0000000000005 2149.5000000000005 2935.5000000000005 228.50000000000003 2588.5000000000005 249.50000000000003 1.0000000180025095e-35 223.50000000000003 3843.5000000000005 2133.5000000000005 222.50000000000003 27.500000000000004 531.50000000000011 2443.5000000000005 1918.5000000000002 1.0000000180025095e-35 240.50000000000003 2314.0000000000005 1.0000000180025095e-35 4630.0000000000009 239.50000000000003 2028.5000000000002 3132.5000000000005 1.0000000180025095e-35 36.000000000000007 244.50000000000003 72.500000000000014 1439.0000000000002 4334.5000000000009
decision_type=2 2 2 2 2 2 2 2 2 2 2 2 2 2 2 2 2 2 2 2 2 2 2 2 2 2 2 2 2 2
left_child=15 2 -2 4 7 8 9 12 -6 10 11 -3 -4 19 -15 16 17 24 -19 21 -5 27 -23 -24 -1 26 -26 28 29 -11
right_child=1 6 3 20 5 -7 -8 -9 -10 13 -12 -13 -14 14 -16 -17 -18 18 -20 -21 -22 22 23 -25 25 -27 -28 -29 -30 -31
leaf_value=-0.087028267252913516 -0.08703806822460694 -0.087204467794818996 0.13652800785734806 -0.087639694189287562 0.60387667267490652 0.93390373976383967 0.3163821527467745 0.30950496822862272 0.25003640320356108 -0.0872120237719681 -0.087027292863820077 0.69157004777261377 -0.088022854634217065 0.032595845852516223 -0.087057823925612149 -0.028573259524465783 -0.12285119488022909 -0.086966756405976897 -0.091042703177717621 -0.088552299217457928 -0.08701588979498881 -0.087069554627077633 -0.08767466679936789 -0.087015058176003024 -0.086983728786678621 -0.086987467943968 -0.086626754975423548 -0.087166205298556607 -0.087011681461768547 -0.087039849285202531
leaf_weight=3.9814646469894823 0.69609486334957038 0.45551494788378466 0.31789534399285979 0.24589855410158623 0.30894495267420996 0.32072337158024311 0.35376169346272934 0.79098602756857872 0.33557632961310446 0.2757150977849967 1.1034307968802748 0.27015818865038455 0.2417384535074234 0.23839204479008902 0.31681190151721239 0.2390712669584899 0.52794268168508995 0.35985540226101864 0.21829708572477102 0.47030853666365136 0.30005930084735155 0.3923318707384168 0.26869314583018422 0.2058545183390379 0.091775024309754261 1.081989837111905 0.1769544470589608 0.3461399134248494 2.357400611974299 0.76836715266108513
leaf_count=718 70 29 25 20 25 28 33 24 23 18 85 24 17 17 27 22 3 87 8 14 25 35 20 20 21 242 60 25 204 56
internal_value=0 0.0376412 0.204807 0.275794 0.361391 0.590519 -0.0383873 0.197641 0.419646 -0.0551903 0.0279272 0.202723 0.0395314 -0.082146 -0.0356812 -0.0878778 -0.0900799 -0.0871526 -0.0885057 -0.0872195 -0.0872969 -0.0870836 -0.0872442 -0.0873885 -0.0870059 -0.08694 -0.0867487 -0.0870465 -0.0870343 -0.0870853
internal_weight=0 11.3808 3.55792 2.86182 2.31586 0.965245 7.82288 1.35062 0.644521 7.46912 1.8291 0.725673 0.559634 5.64001 0.555204 6.67735 6.43828 5.91034 0.578152 5.08481 0.545958 4.6145 0.86688 0.474548 5.33218 1.35072 0.268729 3.74762 3.40148 1.04408
internal_count=2025 864 257 187 142 76 607 66 48 574 138 53 42 436 44 1161 1139 1136 95 392 45 378 75 40 1041 323 81 303 278 74
is_linear=0
shrinkage=0.1


Tree=14
num_leaves=31
num_cat=0
split_feature=5 25 7 5 4 35 6 3 5 2 2 3 6 9 5 3 9 7 9 4 9 9 8 5 8 3 9 9 5 3
split_gain=116.76 12.156 10.4678 7.70269 8.3708 6.1513 4.57803 3.79392 4.88606 3.03063 2.96037 2.76102 3.23837 2.89332 2.61702 2.47426 3.19321 2.52555 2.29752 2.13771 1.80015 2.05751 1.72937 2.48849 4.60803 3.34819 2.74873 3.43299 3.3406 4.19325
threshold=1903.5000000000002 1.0000000180025095e-35 240.50000000000003 1026.5000000000002 -25.499999999999996 1.0000000180025095e-35 177.50000000000003 428.00000000000006 3020.0000000000005 13.500000000000002 2.5000000000000004 466.50000000000006 237.50000000000003 1319.5000000000002 4424.5000000000009 87.500000000000014 1022.0000000000001 231.50000000000003 1965.5000000000002 46.500000000000007 2638.0000000000005 847.00000000000011 177.50000000000003 2871.0000000000005 143.50000000000003 101.50000000000001 2322.5000000000005 3640.0000000000005 3733.0000000000005 290.00000000000006
decision_type=2 2 2 2 2 2 2 2 2 2 2 2 2 2 2 2 2 2 2 2 2 2 2 2 2 2 2 2 2 2
left_child=3 2 5 10 -5 6 -2 8 -4 14 -1 12 13 -8 -10 16 -6 -18 -16 -3 21 -14 23 24 25 -15 -25 -28 -29 -30
right_child=1 19 7 4 15 -7 11 -9 9 -11 -12 -13 20 22 18 -17 17 -19 -20 -21 -22 -23 -24 26 -26 -27 27 28 29 -31
leaf_value=0.038070473058155994 -0.025043529478877988 -0.083506375438749017 -0.093746647055957075 0.18096153297098161 -0.12313461536400555 0.13756677385787305 0.10637664322286494 -0.066934064983207836 0.13373865911052102 -0.032866970026329038 -0.12034778083296992 0.11567824973720296 0.081903028260682242 0.14283696345496175 0.087360421682848133 -0.087163386574011376 0.029406324118503298 -0.089835135061358082 -0.017508277230897169 0.0072449853492184829 0.051455857784674444 -0.063722843680854846 0.1300967084739067 0.02881172884740418 -0.07209777841338981 0.0028492821188990346 0.1154786321473048 0.10184539958116774 -0.059766288960950056 0.0808407723488931
leaf_weight=1.208274733275174 5.2572130598127833 6.6135175600647909 2.9543250575661721 1.4415312111377705 2.8086443841457394 13.514158949255942 18.546212583780289 5.9158641807734957 4.2182910144329098 3.7536328472197047 49.708084985613823 12.009298153221605 1.2842007428407649 2.9956087544560415 4.3630169592797738 19.79634403437376 6.871355224400757 2.395458247512579 4.0085404291749001 4.2724537402391434 6.1980390176177025 3.9680379442870617 3.4196582101285449 13.0828370898962 3.9585115276277065 3.9766738340258598 16.161460489034656 6.7510580420494071 4.425813287496565 4.0727768987417221
leaf_count=11 34 48 49 5 46 50 80 48 16 26 777 50 6 18 22 199 58 35 25 26 40 42 17 91 36 29 67 29 27 18
internal_value=0 0.054023 0.0616828 -0.0921277 -0.0547418 0.0740254 0.0659325 0.00312606 0.0246034 0.045997 -0.116588 0.070675 0.0645916 0.0719354 0.06951 -0.0654024 -0.0297278 -0.00141743 0.0371463 -0.0478889 0.014956 -0.0281165 0.0610804 0.0568222 0.0140717 0.0629943 0.0673246 0.0833654 0.049332 0.00761679
internal_weight=0 155.721 144.835 84.2297 33.3133 119.622 106.107 25.2137 19.2978 16.3435 50.9164 100.85 88.8409 77.3906 12.5898 31.8718 12.0755 9.26681 8.37156 10.886 11.4503 5.25224 58.8444 55.4247 10.9308 6.97228 44.4939 31.4111 15.2496 8.49859
internal_count=2025 894 820 1131 343 634 584 186 138 89 788 550 500 412 63 338 139 93 47 74 88 48 332 315 83 47 232 141 74 45
is_linear=0
shrinkage=0.1


Tree=15
num_leaves=31
num_cat=0
split_feature=25 13 45 3 5 5 42 43 7 4 8 4 9 9 33 43 9 5 2 7 5 6 3 5 5 5 2 4 9 4
split_gain=29.9065 22.368 8.6647 8.16974 9.12283 14.9006 7.80052 7.34716 8.6862 5.49479 4.98737 4.79475 4.64325 4.64095 4.12054 3.34637 3.1484 2.77446 2.6643 3.33554 2.84735 2.51525 2.48734 2.21049 1.9155 1.74985 2.16461 1.87944 1.63063 1.61549
threshold=1.0000000180025095e-35 1.0000000180025095e-35 1.0000000180025095e-35 92.500000000000014 457.50000000000006 1918.5000000000002 1.0000000180025095e-35 1.0000000180025095e-35 225.50000000000003 -25.499999999999996 171.50000000000003 109.50000000000001 4630.0000000000009 4097.5000000000009 1.0000000180025095e-35 1.0000000180025095e-35 5297.5000000000009 1179.5000000000002 15.500000000000002 200.50000000000003 5766.5000000000009 221.50000000000003 280.00000000000006 5405.0000000000009 3633.0000000000005 1442.5000000000002 19.500000000000004 8.5000000000000018 2038.0000000000002 8.5000000000000018
decision_type=2 2 2 2 2 2 2 2 2 2 2 2 2 2 2 2 2 2 2 2 2 2 2 2 2 2 2 2 2 2
left_child=1 2 3 13 21 9 7 12 -9 -6 15 18 23 14 25 -11 -15 -12 20 -20 -8 -5 -17 -7 29 26 27 28 -1 -2
right_child=24 -3 -4 4 5 6 11 8 -10 10 17 -13 -14 16 -16 22 -18 -19 19 -21 -22 -23 -24 -25 -26 -27 -28 -29 -30 -31
leaf_value=-0.098526213854346262 0.088454908180004052 -0.1087170488800222 0.17905285766787815 0.034369193212825701 -0.092732463797762496 -0.0911538509672081 -0.0025301713611363638 -0.063913415764566259 0.13028484260460471 0.12613337894703819 0.080763030336190395 0.14382657565333309 0.04239242964048711 0.11090920990001954 0.040162780140653075 -0.05465623136106789 -0.025232368331476931 -0.086752334335097603 -0.01097854131735944 0.1069575126661587 0.087926377522821453 -0.095889082879932391 0.09981325523303973 -0.022895182437427202 0.07057267273252707 -0.067159390621221379 -0.085778643896833026 0.08960713035315887 0.052711515996871183 0.16571906341632381
leaf_weight=1.5947003476321682 3.7318744361400631 19.913207901641726 2.747796054929494 1.7718812786042679 1.6979945451021219 18.794426232576377 35.458116203546524 4.1472325995564443 5.1800967007875443 20.299606829881675 1.8012253753840917 3.2367631644010535 3.9745670557022086 3.4121592938899985 4.9705724194645873 1.9486630521714676 3.3826294019818306 2.1918215379118919 3.7986914180219156 6.5043588876724243 3.8585317283868781 9.0741528905928117 2.2415625043213367 6.3463395982980719 4.727563187479972 31.284609742462635 2.8008305951952934 2.3466958552598953 1.2892875447869299 9.8453423827886564
leaf_count=30 22 356 22 24 14 124 211 20 33 166 23 21 22 21 47 33 23 35 20 44 23 191 24 32 27 272 49 18 12 66
internal_value=0 -0.00798339 0.00279218 0.000151456 0.0132645 0.0211101 0.000973734 -0.0333007 0.043938 0.082024 0.0924421 0.0259017 -0.0580448 -0.0338178 -0.0456244 0.109339 0.0431343 -0.0111878 0.0182093 0.063475 0.00634722 -0.0746092 0.0279773 -0.0739232 0.125393 -0.0564701 -0.0148329 0.0231559 -0.0309153 0.144482
internal_weight=0 206.069 186.155 183.408 132.326 121.48 91.2991 38.4427 9.32733 30.1809 28.4829 52.8565 29.1153 51.0815 44.2867 24.4898 6.79479 3.99305 49.6197 10.3031 39.3166 10.846 4.19023 25.1408 18.3048 39.3161 8.03151 5.23068 2.88399 13.5772
internal_count=2025 1910 1554 1532 1060 845 550 231 53 295 281 319 178 472 428 223 44 58 298 64 234 215 57 156 115 381 109 60 42 88
is_linear=0
shrinkage=0.1


Tree=16
num_leaves=31
num_cat=0
split_feature=13 4 5 6 23 9 6 9 2 9 7 4 5 6 35 52 8 9 25 2 5 12 43 8 3 5 5 9 7 8
split_gain=121.615 2.35812 2.6827 1.12281 1.76752 1.9003 1.93292 1.82232 0.754675 0.60376 0.344067 0.455497 0.306096 1.78681e-05 1.07153e-05 9.41527e-06 1.58129e-05 5.1489e-06 5.861e-06 6.41508e-06 7.89845e-06 7.44185e-06 6.68886e-06 6.45755e-06 6.11355e-06 4.62295e-06 5.65101e-06 4.54946e-06 4.44728e-06 4.41362e-06
threshold=1.0000000180025095e-35 5.5000000000000009 545.00000000000011 161.50000000000003 1.0000000180025095e-35 634.50000000000011 226.50000000000003 496.00000000000006 17.500000000000004 316.00000000000006 214.50000000000003 36.500000000000007 337.00000000000006 203.50000000000003 1.0000000180025095e-35 1.0000000180025095e-35 162.50000000000003 2877.0000000000005 1.0000000180025095e-35 20.500000000000004 1026.5000000000002 1.0000000180025095e-35 1.0000000180025095e-35 162.50000000000003 419.00000000000006 1980.5000000000002 1593.5000000000002 884.50000000000011 241.50000000000003 163.50000000000003
decision_type=2 2 2 2 2 2 2 2 2 2 2 2 2 2 2 2 2 2 2 2 2 2 2 2 2 2 2 2 2 2
left_child=14 2 8 10 5 9 -7 -6 -2 -5 11 -3 -11 -4 15 17 -17 18 19 20 22 25 27 -23 -21 26 -22 -1 -27 -16
right_child=1 3 13 4 7 6 -8 -9 -10 12 -12 -13 -14 -15 29 16 -18 -19 -20 24 21 23 -24 -25 -26 28 -28 -29 -30 -31
leaf_value=-0.090893578634985511 0.11634660553228733 0.35387902598435761 -0.089838517363710763 0.22200517704606906 0.021742028293208052 0.072951819330023954 0.27904866228700048 0.2196504701953865 0.27261429287615174 0.26390622288889198 0.24420042435294784 0.27440409266597166 0.31857087548713409 -0.088583566264349267 -0.090047713731968224 -0.089544401278472213 -0.090364856926741857 -0.090271815180944029 -0.090180537635174668 -0.090209130587501754 -0.090369705445880522 -0.090387263863731637 -0.090299537884092562 -0.090039900561677488 -0.090520895394779227 -0.090333806003853392 -0.090645474094487477 -0.090546887571435933 -0.090494315617476409 -0.090299171044347995
leaf_weight=0.46847783681006294 0.61767181940377003 1.0710142785683268 0.24368010880425561 1.6713491762056927 0.7998371711000799 1.1148745203390715 0.76891491934657086 1.1122465617954729 0.61850862484425306 1.9073233325034378 1.6344232223927972 2.2076029758900404 2.2126641571521759 0.21229947824031115 2.1360690500587221 0.41336104972287913 0.54413825925439596 11.633420717436818 1.891307447105645 4.0377414422109714 1.6305302800610726 0.92785303527489249 0.94034082163125265 1.2645873092114923 0.74504413921385992 11.435188116040079 1.3652816219255326 1.9708994897082446 2.0331151010468593 1.0368291456252334
leaf_count=22 25 18 22 28 27 38 15 25 17 28 22 37 30 24 44 33 13 327 64 290 63 41 75 102 28 331 39 95 80 22
internal_value=0 0.229773 0.118062 0.242809 0.222889 0.24432 0.157075 0.136864 0.194533 0.272699 0.281681 0.300366 0.293264 -0.0892542 -0.090307 -0.0903206 -0.0900107 -0.0903279 -0.0903507 -0.0903627 -0.0903855 -0.09036 -0.0905261 -0.0901869 -0.0902577 -0.090383 -0.0904954 -0.0906135 -0.090358 -0.0901299
internal_weight=0 16.1924 1.69216 14.5003 9.58721 7.67513 1.88379 1.91208 1.23618 5.79134 4.91304 3.27862 4.11999 0.45598 44.4742 41.3013 0.957499 40.3438 28.7104 26.8191 22.0363 18.6566 3.37972 2.19244 4.78279 16.4641 2.99581 2.43938 13.4683 3.1729
internal_count=2025 356 88 268 191 139 53 52 42 86 77 55 58 46 1669 1603 46 1557 1230 1166 848 656 192 143 318 513 102 117 411 66
is_linear=0
shrinkage=0.1


Tree=17
num_leaves=31
num_cat=0
split_feature=13 3 6 7 6 5 5 3 8 35 52 8 9 25 2 5 10 43 8 3 5 5 9 7 8 9 6 8 9 2
split_gain=22.9318 5.28018 3.40132 0.666291 1.46728 0.686936 0.464004 0.20028 0.000169889 4.79057e-07 4.21748e-07 7.1199e-07 2.29837e-07 2.61751e-07 2.86343e-07 3.51056e-07 3.32248e-07 2.96501e-07 2.88612e-07 2.72804e-07 2.06167e-07 2.51108e-07 2.00745e-07 1.97581e-07 1.96776e-07 1.89322e-07 1.68759e-07 1.34021e-07 1.04584e-07 1.01366e-07
threshold=1.0000000180025095e-35 142.00000000000003 163.50000000000003 194.50000000000003 234.50000000000003 477.00000000000006 300.50000000000006 1.0000000180025095e-35 38.500000000000007 1.0000000180025095e-35 1.0000000180025095e-35 162.50000000000003 2877.0000000000005 1.0000000180025095e-35 20.500000000000004 1026.5000000000002 1.0000000180025095e-35 1.0000000180025095e-35 162.50000000000003 419.00000000000006 1980.5000000000002 1593.5000000000002 884.50000000000011 241.50000000000003 163.50000000000003 1860.5000000000002 237.50000000000003 201.50000000000003 363.00000000000006 4.5000000000000009
decision_type=2 2 2 2 2 2 2 2 2 2 2 2 2 2 2 2 2 2 2 2 2 2 2 2 2 2 2 2 2 2
left_child=9 2 -2 4 -4 6 -5 -7 -3 10 12 -12 13 14 15 17 18 22 -17 -16 21 -18 -1 26 -11 -25 -22 -20 -19 -14
right_child=1 8 3 5 -6 7 -8 -9 -10 24 11 -13 29 -15 19 16 20 28 27 -21 23 -23 -24 25 -26 -27 -28 -29 -30 -31
leaf_value=-0.087541845172831298 -0.044671929914314963 -0.090937075543464058 0.12564836266903567 0.1546891860661036 0.3445432522250706 0.2116121125542143 0.029575446766985709 0.16323412516378583 -0.0873282552861257 -0.087252452546663986 -0.087078079232634942 -0.087361406929001129 -0.087372182749689414 -0.087298121017971145 -0.087307950055137667 -0.08736908763955735 -0.087363140624085442 -0.087257569218167561 -0.087224078929063309 -0.087414889763158921 -0.087343888442847226 -0.087457517128913739 -0.087423739640120249 -0.08734791604818043 -0.087338752619211479 -0.087448195359115938 -0.087407157188298237 -0.087358993659331252 -0.087375117602105631 -0.087324108078776122
leaf_weight=0.17820727941579917 0.76471646083518763 0.15273053245618917 0.56253565615043022 0.63952577416785039 0.67209164425730705 1.5382396467030051 0.55251628579571843 1.9287001085467634 0.89407407585531473 0.80756481830030746 0.15564141073264259 0.20620000711642206 0.49398068292066355 0.71572031360119659 1.5283191052731133 0.35166510683484364 0.61793361930176594 0.10911459405906498 0.38713380647823215 0.28266583243384946 3.8591499880421907 0.51847148453816772 0.74787538079544902 0.32651142356917251 0.39268439169973135 0.44466438726522028 0.47329172468744207 0.090922284172847867 0.24707521684467793 3.9114657749887556
leaf_count=22 39 10 29 30 17 23 13 31 164 44 33 13 37 64 290 41 63 27 85 28 290 39 95 25 22 55 41 17 48 290
internal_value=0 0.120923 0.153746 0.179492 0.244808 0.162183 0.0966985 0.184699 -0.0878548 -0.0873416 -0.0873462 -0.0872395 -0.0873488 -0.0873566 -0.0873607 -0.0873685 -0.0873598 -0.0874166 -0.0873003 -0.0873246 -0.0873677 -0.0874062 -0.0874465 -0.0873591 -0.0872807 -0.0874057 -0.0873508 -0.0872497 -0.0873391 -0.0873295
internal_weight=0 7.70513 6.65833 5.89361 1.23463 4.65898 1.19204 3.46694 1.0468 16.8463 15.646 0.361841 15.2842 10.8787 10.163 8.35202 7.06974 1.28227 0.829721 1.81098 6.24002 1.13641 0.926083 5.10362 1.20025 0.771176 4.33244 0.478056 0.35619 4.40545
internal_count=2025 356 182 143 46 97 43 54 174 1669 1603 46 1557 1230 1166 848 656 192 143 318 513 102 117 411 66 80 331 102 75 327
is_linear=0
shrinkage=0.1


Tree=18
num_leaves=31
num_cat=0
split_feature=5 10 12 7 8 6 4 5 5 6 5 9 3 9 9 5 9 43 4 2 3 5 5 5 9 8 5 8 2 3
split_gain=51.7875 52.331 16.7633 17.017 5.96966 5.04166 4.42615 4.01045 3.44847 4.88986 2.73389 4.30155 2.64978 2.20795 4.58014 1.98511 4.05068 1.98157 3.55738 1.33953 1.6671 0.951445 0.924169 0.813379 0.55525 0.421947 0.339696 0.327575 0.576374 0.204089
threshold=766.00000000000011 1.0000000180025095e-35 1.0000000180025095e-35 229.50000000000003 138.50000000000003 241.50000000000003 16.500000000000004 3388.0000000000005 935.50000000000011 222.50000000000003 1059.0000000000002 2260.5000000000005 114.00000000000001 2363.5000000000005 2149.5000000000005 4686.5000000000009 1372.5000000000002 1.0000000180025095e-35 34.500000000000007 17.500000000000004 76.000000000000014 381.50000000000006 1571.0000000000002 2871.0000000000005 1563.0000000000002 75.500000000000014 1614.5000000000002 48.500000000000007 25.500000000000004 280.00000000000006
decision_type=2 2 2 2 2 2 2 2 2 2 2 2 2 2 2 2 2 2 2 2 2 2 2 2 2 2 2 2 2 2
left_child=1 -1 5 19 17 8 26 10 9 -2 -7 -12 13 14 15 22 -17 18 -3 20 -4 24 -10 -16 -20 27 -5 -19 -29 -14
right_child=2 4 3 6 -6 7 -8 -9 12 -11 11 -13 29 -15 23 16 -18 25 21 -21 -22 -23 -24 -25 -26 -27 -28 28 -30 -31
leaf_value=-0.09173923868866142 -0.079888434382902274 0.064151054589400736 0.12297810190403889 0.23281949700679916 0.028323903681462322 -0.069505161461534432 0.039019514858624121 -0.094697016030380068 0.0015838935324053332 0.20357167105555224 0.25621258048888285 -0.013099201280069962 -0.079342422597416085 -0.082467701889557724 0.19363757913766153 -0.095519117595136482 0.13677396347996537 0.26721455285050993 0.20387910649871574 -0.094500823241856033 -0.073587860004717301 0.14628292704132947 -0.09524720556301107 0.068580526194517072 0.2868265862188647 0.28845131044737377 0.29953870791071568 0.25718064780011457 0.16728443511819271 -0.093553728125704338
leaf_weight=7.976967545226219 1.3407872207462781 1.6545359976589722 0.80431196466088095 1.1357279419898989 1.5420462992042292 0.71575889550149385 1.0023430511355398 1.5105947842821477 1.220919312909247 1.114381900988519 1.5346925631165507 0.96663670614361752 19.422833755612373 7.9513327041640869 0.819955844432115 1.4823236800730231 1.5208975952118633 3.4024468921124935 1.2189906165003779 2.7726949313655496 0.9307655543088913 0.94947718083858479 5.1149292476475239 1.4221194339916108 2.387876458466053 3.6933216638863087 2.3259644154459238 1.814419858157635 1.1751474998891351 21.065288127399981
leaf_count=312 40 30 22 24 28 17 20 23 35 28 34 26 318 131 21 18 26 67 22 102 22 19 60 26 49 76 49 35 20 325
internal_value=0 0.121172 -0.042716 0.0856733 0.216382 -0.0598562 0.224068 0.0397124 -0.0673908 0.0487719 0.102825 0.152137 -0.0721425 -0.0418915 -0.0140328 -0.044846 0.0221192 0.234178 0.189742 -0.0513784 0.0175322 0.235348 -0.0765878 0.114316 0.258793 0.261543 0.277649 0.245995 0.221844 -0.0867363
internal_weight=0 25.8152 76.1753 8.97181 17.8383 67.2035 4.46404 4.72768 62.4758 2.45517 3.21709 2.50133 60.0206 19.5325 11.5811 9.33907 3.00322 16.2962 6.21088 4.50777 1.73508 4.55634 6.33585 2.24208 3.60687 10.0853 3.46169 6.39201 2.98957 40.4881
internal_count=2025 658 1367 239 346 1128 93 100 1028 68 77 60 960 317 186 139 44 318 120 146 44 90 95 47 71 198 73 122 55 643
is_linear=0
shrinkage=0.1


Tree=19
num_leaves=31
num_cat=0
split_feature=10 26 9 7 14 6 9 9 13 9 7 6 18 9 5 2 5 4 5 5 8 9 5 35 52 8 3 9 25 7
split_gain=52.1949 4.21157 4.49968 3.53993 2.73484 2.2304 1.67997 2.73048 2.70063 2.58808 2.3816 1.92226 1.09748 1.06415 1.50351 0.930702 0.828288 0.605832 0.89923 0.491496 0.474243 8.47886e-05 4.42368e-05 2.51368e-06 2.16514e-06 3.45895e-06 1.80763e-06 1.5763e-06 1.55691e-06 1.15725e-06
threshold=1.0000000180025095e-35 1.0000000180025095e-35 1860.5000000000002 227.50000000000003 1.0000000180025095e-35 241.50000000000003 1045.5000000000002 690.50000000000011 1.0000000180025095e-35 273.50000000000006 194.50000000000003 197.50000000000003 1.0000000180025095e-35 1149.0000000000002 1670.0000000000002 22.500000000000004 337.00000000000006 31.500000000000004 477.00000000000006 330.50000000000006 107.50000000000001 621.00000000000011 1442.5000000000002 1.0000000180025095e-35 1.0000000180025095e-35 162.50000000000003 51.000000000000007 2877.0000000000005 1.0000000180025095e-35 249.50000000000003
decision_type=2 2 2 2 2 2 2 2 2 2 2 2 2 2 2 2 2 2 2 2 2 2 2 2 2 2 2 2 2 2
left_child=1 2 3 5 13 6 7 8 -1 -10 11 -11 15 21 -15 -9 -13 18 -12 -7 -17 26 -23 24 27 -26 -5 28 29 -2
right_child=23 -3 -4 4 -6 19 -8 12 9 10 17 16 -14 14 -16 20 -18 -19 -20 -21 -22 22 -24 -25 25 -27 -28 -29 -30 -31
leaf_value=0.33061527865858165 -0.088514233461600283 0.33174303291991747 -0.089881258858434177 -0.087948754577862137 0.25152413058247147 0.092393314975969615 0.079606341767687064 0.34023402191979807 0.32262557455483898 0.27937043078683915 0.15954818487039413 0.15833684179477539 0.39430536013514222 0.27680762484723642 -0.089151915085393274 0.27082571216970769 -0.012987302590163237 -0.091047208583965922 -0.090627645617996688 -0.089619485038965718 0.16126954112131037 -0.090881202461817578 -0.089239894620857269 -0.08837007446814471 -0.088023230738016933 -0.088508641545414823 -0.088388946230854235 -0.088453828433071646 -0.088399988441170099 -0.088677981481195392
leaf_weight=0.76852047257124656 13.88924926007167 1.2437096554785974 0.80536055192351419 0.17145088454708346 0.43550720531493414 0.27357285656035024 1.127773913554847 0.7845348138362177 0.55842108558863435 0.77646722085773978 0.33163309004157759 0.58001802302896954 0.68514638766646374 0.22597360145300616 0.22309992462396622 0.68392775021493413 0.54956923052668571 0.61380267702043056 0.25349895330145955 0.32414539717137814 0.93567854259163141 0.33271278673782945 0.3242427078075707 1.985120940953492 0.25787747371941705 0.34080992033705115 0.20462822820991278 7.2832773276604703 1.1835762243717916 0.44543629512190897
leaf_count=25 885 39 33 23 24 18 33 28 30 31 24 23 21 15 27 18 17 33 20 29 26 20 36 66 33 13 18 327 64 26
internal_value=0 0.156598 0.1384 0.154868 0.0312177 0.180511 0.193422 0.210488 0.160183 0.124429 0.0887846 0.158245 0.282655 -0.0335178 0.0949988 0.250837 0.0749838 -0.0216422 0.0511636 -0.00631308 0.207533 -0.0893857 -0.0900711 -0.0884781 -0.0884873 -0.0882996 -0.0881883 -0.0884922 -0.0885102 -0.0885193
internal_weight=0 13.2134 11.9697 11.1643 1.91762 9.24671 8.64899 7.52122 4.43193 3.66341 3.10499 1.90605 3.08929 1.48211 0.449074 2.40414 1.12959 1.19893 0.585132 0.597718 1.61961 1.03303 0.656955 25.3853 23.4002 0.598687 0.376079 22.8015 15.5183 14.3347
internal_count=2025 611 572 539 163 376 329 296 203 178 148 71 93 139 42 72 40 77 44 47 44 97 56 1414 1348 46 41 1302 975 911
is_linear=0
shrinkage=0.1


Tree=20
num_leaves=31
num_cat=0
split_feature=51 52 3 7 5 42 36 5 5 5 9 4 7 4 6 4 9 8 3 9 9 5 7 9 9 9 9 13 3 5
split_gain=5.98968 4.35103 5.16497 2.7128 3.22755 5.50332 5.75826 3.02945 0.67994 2.06207 1.99479 2.65828 1.31331 0.517851 0.896093 0.0751564 0.0667263 0.0319838 0.0542879 0.000493269 0.000366843 1.00835e-05 8.97185e-06 2.29619e-06 2.02495e-06 1.97442e-06 4.60634e-06 5.74289e-07 9.32859e-07 7.32944e-07
threshold=1.0000000180025095e-35 1.0000000180025095e-35 337.00000000000006 240.50000000000003 4364.5000000000009 1.0000000180025095e-35 1.0000000180025095e-35 2255.5000000000005 1918.5000000000002 3020.0000000000005 2336.0000000000005 9.5000000000000018 231.50000000000003 81.500000000000014 226.50000000000003 32.500000000000007 2797.0000000000005 104.50000000000001 191.00000000000003 2288.5000000000005 2249.5000000000005 3119.0000000000005 249.50000000000003 1653.5000000000002 574.50000000000011 2028.5000000000002 3243.5000000000005 1.0000000180025095e-35 36.000000000000007 244.50000000000003
decision_type=2 2 2 2 2 2 2 2 2 2 2 2 2 2 2 2 2 2 2 2 2 2 2 2 2 2 2 2 2 2
left_child=1 3 -3 8 5 6 19 -8 27 10 15 -12 16 17 -15 20 -13 18 -11 23 -10 -19 25 -5 -23 -6 -27 -1 29 -29
right_child=-2 2 -4 4 22 -7 7 -9 9 13 11 12 -14 14 -16 -17 -18 21 -20 -21 -22 24 -24 -25 -26 26 -28 28 -30 -31
leaf_value=-0.086908111571506283 0.30803029649972635 0.26707889918180544 -0.078869137550419022 -0.086838856410758225 -0.086916542531522617 0.39110706725069089 0.10521366705492935 0.76546118893886816 -0.086958303364431777 -0.087229502370204826 0.33094571293014302 -0.08939495831702865 0.17439857798528136 -0.086921527921340724 0.17710129853858578 -0.021600597451136121 -0.019739731729368187 -0.087604539170688889 -0.0235799747056997 -0.091451585585091991 -0.091597333338913123 -0.087181281323142928 -0.08774934141002802 -0.087395481453806365 -0.086892807065211602 -0.087531874954988223 -0.086918005421786154 -0.08688990794377012 -0.086872059646815075 -0.086524079544194277
leaf_weight=3.6176683512749168 0.57571041211485763 1.0700769266113646 0.72325659729540337 0.29518379759974889 0.29635863890871383 0.5590016827918588 0.14502688054926682 0.13343387329950929 0.43558646528981659 0.33043422969058145 0.40653643151745178 0.38911349046975374 0.37117732455953956 0.31754378136247385 0.21598586300387979 0.21708714589476585 0.21270601404830813 0.22186515387147654 0.22541685868054628 0.65835539251565933 0.28005893505178392 0.26045156316831741 0.31855471525341272 0.098955541616305709 3.7021729866974056 0.26014798041433096 0.23058235552161932 0.084334582090377586 0.98246701236348599 0.15620693261735141
leaf_count=718 30 35 11 71 32 35 35 10 48 27 29 22 18 28 18 19 22 15 20 24 11 18 20 9 331 21 25 21 242 60
internal_value=0 -0.0198705 0.127557 -0.0370135 0.0484087 0.1278 0.0172116 0.421594 -0.0576053 -0.0389201 0.0398185 0.116192 0.0264639 -0.0734421 0.0199614 -0.0731396 -0.0647761 -0.0839547 -0.0614174 -0.0897765 -0.0887737 -0.0869485 -0.0873016 -0.0869786 -0.0869118 -0.0871204 -0.0872434 -0.0868881 -0.0868288 -0.0866523
internal_weight=0 17.2157 1.79333 15.4224 2.9956 1.88996 1.33096 0.278461 12.4268 7.58614 2.31227 1.37953 0.972997 5.27387 0.53353 0.932733 0.60182 4.74034 0.555851 1.05249 0.715645 4.18449 1.10564 0.394139 3.96262 0.787089 0.49073 4.84068 1.22301 0.240542
internal_count=2025 1995 46 1949 282 184 149 45 1667 626 169 91 62 457 46 78 44 411 47 104 59 364 98 80 349 78 46 1041 323 81
is_linear=0
shrinkage=0.1


Tree=21
num_leaves=31
num_cat=0
split_feature=5 25 7 5 4 35 6 4 9 3 3 3 2 4 3 6 2 7 7 9 3 9 5 4 7 8 2 3 3 8
split_gain=92.2158 8.73658 7.92073 7.12927 6.48494 4.93851 3.45688 3.13629 4.52509 3.54584 3.13145 2.97196 2.74641 2.36291 2.29027 2.50365 3.10608 2.27062 3.51916 2.08519 2.06827 2.83024 2.19844 2.72008 2.03554 1.91529 1.57382 1.77504 3.44721 3.13889
threshold=1903.5000000000002 1.0000000180025095e-35 240.50000000000003 1026.5000000000002 -25.499999999999996 1.0000000180025095e-35 177.50000000000003 4.5000000000000009 2398.0000000000005 217.00000000000003 114.00000000000001 393.00000000000006 2.5000000000000004 20.500000000000004 466.50000000000006 233.50000000000003 17.500000000000004 229.50000000000003 218.50000000000003 1729.5000000000002 87.500000000000014 1022.0000000000001 1593.5000000000002 10.500000000000002 228.50000000000003 148.50000000000003 17.500000000000004 365.50000000000006 290.00000000000006 176.50000000000003
decision_type=2 2 2 2 2 2 2 2 2 2 2 2 2 2 2 2 2 2 2 2 2 2 2 2 2 2 2 2 2 2
left_child=3 2 5 12 -5 6 -2 10 9 -9 -4 -11 -1 -10 15 19 17 18 -17 -8 21 -6 23 -23 -3 -26 27 28 29 -21
right_child=1 24 7 4 20 -7 14 8 13 11 -12 -13 -14 -15 -16 16 -18 -19 -20 26 -22 22 -24 -25 25 -27 -28 -29 -30 -31
leaf_value=0.038993389682970503 -0.021918199174866784 0.012946029758490591 -0.0024611363263041443 0.15912802472249776 -0.11775646396705426 0.12243389391292053 0.088945262177817619 -0.076015106927420181 0.0062998195841785388 0.11295802949323197 0.1420587210053397 -0.0091012561695428106 -0.1140648357541721 -0.11036351904073727 0.10279908617416095 -0.010466975410742948 -0.053049900286131019 -0.012744992968937705 0.1161128675846011 0.027982247304033203 -0.079254329670299578 -0.09921240026383446 0.067630855080260011 0.036302368363021399 -0.12428591708298475 -0.012093995724251336 0.10828540446406612 -0.022145756868164494 0.11736351378579338 0.13090998654718117
leaf_weight=1.2032212018966664 5.1959481574594966 4.2451765984296781 3.18923266604543 1.4321317374706293 2.5986722223460701 13.225936412811278 23.691381774842739 2.6110753454268005 2.5246684215962869 4.4360240772366506 2.8294871747493744 3.6248356774449348 45.668673548847437 5.5584234595298767 11.962476365268229 3.3430827446281928 4.1259360946714869 4.5683014020323744 6.4033831041306257 28.340981423854831 18.708060385659337 3.1440680213272554 3.1810125596821308 2.8005056977272034 3.5974360331892967 2.637064628303051 4.5588554479181758 3.4639341980218878 6.7697577215731135 3.3087713569402686
leaf_count=11 34 27 32 5 46 50 108 27 17 20 11 29 777 50 50 28 34 31 36 181 199 42 29 22 29 18 20 19 28 15
internal_value=0 0.0476849 0.0541119 -0.0853255 -0.0488301 0.0648247 0.0576185 0.00267117 -0.0174849 0.0252637 0.0654797 0.05807 -0.110136 -0.073925 0.0617291 0.0561824 0.023395 0.0454286 0.0726954 0.0648034 -0.0586165 -0.0256853 0.000533561 -0.035371 -0.0404636 -0.0768311 0.052488 0.0464147 0.0525961 0.0387427
internal_weight=0 154.212 143.732 78.7363 31.8645 118.959 105.733 24.7737 18.755 10.6719 6.01872 8.06086 46.8719 8.08309 100.537 88.5744 18.4407 14.3148 9.74647 70.1337 30.4323 11.7243 9.12559 5.94457 10.4797 6.2345 46.4423 41.8834 38.4195 31.6498
internal_count=2025 894 820 1131 343 634 584 186 143 76 43 49 788 67 550 500 129 95 64 371 338 139 93 64 74 47 263 243 224 196
is_linear=0
shrinkage=0.1


Tree=22
num_leaves=31
num_cat=0
split_feature=13 25 4 5 5 7 9 5 9 9 42 9 8 4 9 6 8 9 5 4 4 8 43 5 9 9 5 8 5 9
split_gain=22.9885 18.3576 6.91866 8.31699 9.5032 6.05299 6.91794 5.07031 4.57911 4.41553 4.28482 6.6078 3.95403 4.31739 3.73282 3.45881 3.23342 2.96277 3.39977 4.35338 4.11774 2.72456 2.4859 2.3489 2.13732 1.89876 1.86702 1.84659 1.72062 1.70451
threshold=1.0000000180025095e-35 1.0000000180025095e-35 12.500000000000002 510.50000000000006 2346.0000000000005 239.50000000000003 2456.5000000000005 1593.5000000000002 2038.0000000000002 2398.0000000000005 1.0000000180025095e-35 4558.5000000000009 171.50000000000003 -25.499999999999996 1171.0000000000002 218.50000000000003 172.50000000000003 1171.0000000000002 3179.0000000000005 41.500000000000007 25.500000000000004 132.50000000000003 1.0000000180025095e-35 5512.5000000000009 1991.5000000000002 4486.0000000000009 3795.0000000000005 173.50000000000003 698.00000000000011 3367.5000000000005
decision_type=2 2 2 2 2 2 2 2 2 2 2 2 2 2 2 2 2 2 2 2 2 2 2 2 2 2 2 2 2 2
left_child=1 2 7 15 9 10 -7 12 21 16 11 26 13 -1 28 -4 22 -12 19 -19 -20 -9 24 29 -5 -16 -6 -8 -15 -10
right_child=-2 -3 3 4 5 6 27 8 23 -11 17 -13 -14 14 25 -17 -18 18 20 -21 -22 -23 -24 -25 -26 -27 -28 -29 -30 -31
leaf_value=-0.093154114327598153 -0.10430010086933775 0.10808958573697619 0.11127265507607526 0.1145077469877557 -0.11892284867201051 0.0051468463372102225 0.080918005736349094 0.0067197794768949024 -0.039295404491492464 0.14545558157838359 0.077632899854459703 0.077845145951764338 -0.11842207587426873 -0.095038121483847271 0.11070576512511682 -0.087348304086159984 -0.019007253514571176 -0.0084601875205789056 0.049973338406585702 0.1546774145945797 -0.046961523757031193 -0.085275439623533095 -0.00029897011279178103 0.075324873980150253 0.016692189151003369 0.0019665791853151638 -0.047671253598644117 0.18007970048399852 0.03556241018789711 0.012942780842469498
leaf_weight=2.1496161185205027 18.214521545916796 18.448054328560829 0.97115344554185767 10.645618349313745 5.3412748724222245 10.059021640568973 3.6491024345159522 3.8625276908278492 16.780848950147636 6.9831692725419989 5.9919658601284018 3.6781850419938555 1.7599771544337262 1.8148009814322001 8.5201191604137403 9.0194402709603292 4.7373826056718817 3.7537211980670717 6.141177840530875 2.8990855515003204 15.300569232553242 19.332952428609133 3.5291807241737834 2.8716192990541449 2.8270673379302016 1.9787680059671391 11.806652814149855 3.8690919876098633 2.2713068351149559 9.949945252388714
leaf_count=27 356 115 10 94 44 68 26 25 143 56 36 24 33 37 80 201 66 26 39 20 77 148 43 17 19 26 61 27 27 54
internal_value=0 0.0130243 0.00341435 0.0190045 0.0275967 0.00830852 0.0593834 -0.0209033 -0.036687 0.0762762 -0.00804026 -0.0437772 0.0241557 0.0391506 0.0586504 -0.068041 0.0540541 0.0137942 0.000178789 0.0626301 -0.0191982 -0.0699563 0.0744119 -0.0106183 0.0939824 0.0902112 -0.0698649 0.13195 -0.0224424 -0.0198509
internal_weight=0 200.943 182.495 111.203 101.212 72.4898 17.5772 71.2925 52.7979 28.7224 54.9126 20.8261 18.4946 16.7346 14.585 9.99059 21.7392 34.0865 28.0946 6.65281 21.4417 23.1955 17.0019 29.6024 13.4727 10.4989 17.1479 7.51819 4.08611 26.7308
internal_count=2025 1669 1554 937 726 448 121 617 387 278 327 129 230 197 170 211 222 198 162 46 116 173 156 214 113 106 105 53 64 197
is_linear=0
shrinkage=0.1


Tree=23
num_leaves=31
num_cat=0
split_feature=13 4 5 5 3 8 7 2 9 4 9 5 4 5 35 6 7 52 5 8 8 25 10 5 5 2 5 4 6 3
split_gain=90.5469 1.40497 1.7734 0.799489 1.40817 1.4954 1.20578 0.737647 0.595176 0.514664 0.509371 0.794831 0.804852 0.409627 1.65862e-05 1.55918e-05 8.182e-06 7.70355e-06 1.23076e-05 7.57614e-06 6.9046e-06 6.1737e-06 7.12279e-06 1.61134e-05 1.37953e-05 1.35726e-05 6.20141e-06 6.6252e-06 5.25306e-06 4.59379e-06
threshold=1.0000000180025095e-35 5.5000000000000009 545.00000000000011 166.00000000000003 114.00000000000001 194.50000000000003 168.50000000000003 26.500000000000004 486.50000000000006 29.500000000000004 333.00000000000006 632.00000000000011 48.500000000000007 311.00000000000006 1.0000000180025095e-35 203.50000000000003 249.50000000000003 1.0000000180025095e-35 3473.5000000000005 163.50000000000003 175.50000000000003 1.0000000180025095e-35 1.0000000180025095e-35 1179.5000000000002 2871.0000000000005 21.500000000000004 3633.0000000000005 10.500000000000002 175.50000000000003 76.000000000000014
decision_type=2 2 2 2 2 2 2 2 2 2 2 2 2 2 2 2 2 2 2 2 2 2 2 2 2 2 2 2 2 2
left_child=14 2 8 9 5 -5 -6 10 -2 -3 -8 12 -12 -9 16 -4 17 21 -19 -16 -18 22 23 -1 25 29 27 -23 -26 -24
right_child=1 3 15 4 6 -7 7 13 -10 -11 11 -13 -14 -15 19 -17 20 18 -20 -21 -22 26 24 -25 28 -27 -28 -29 -30 -31
leaf_value=-0.090002032444941274 0.22297096322476714 0.28485839824404074 -0.089448368026591951 0.02886412556830048 0.10700786267362086 0.19203793965172264 0.13198778635218586 0.20554560438588193 0.092659956986993183 0.20360415942903651 0.086713181082428703 0.26460021899757474 0.2020246966512326 0.27838380603634644 -0.089483379021147696 -0.088203643724131531 -0.090384150277309394 -0.089123877154821118 -0.089906122044425107 -0.089831521298482764 -0.089892910781146459 -0.089878023085805975 -0.090121656629565769 -0.089552334172627576 -0.090070449532126118 -0.089747217973942583 -0.089943215360319434 -0.089510575341409146 -0.089809070853333867 -0.089969555772857188
leaf_weight=1.2921769167296582 0.60761350952089077 1.1415561996400385 0.22202742425724853 1.2137256776913994 1.4626828590407956 1.0453704353421924 1.4167741816490869 1.4462009901180866 0.82828261144459248 2.4580200891941786 0.8019249597564343 1.3649155516177414 2.4686845252290368 1.6564178634434936 1.8808275237679475 0.18406369583681226 0.51726537290960439 0.3809827642980953 0.42608027951791883 0.93622553534805764 0.64030189858749509 0.72079502418637265 2.8609411823563295 2.0783896567299962 0.80676958616823213 2.349103025160729 0.86164375953376282 1.5370764005929229 16.382323414552957 6.4904569550417364
leaf_count=70 17 16 22 32 36 15 26 19 25 33 17 18 34 22 44 24 18 35 10 22 31 24 126 174 27 199 27 63 480 319
internal_value=0 0.17845 0.0956216 0.18771 0.176063 0.104371 0.191317 0.204787 0.147802 0.229373 0.184463 0.200501 0.173751 0.244432 -0.0898331 -0.0888842 -0.0898507 -0.0898423 -0.0895369 -0.0895991 -0.0901124 -0.0898493 -0.0898623 -0.0897247 -0.0898784 -0.0899621 -0.089715 -0.0896279 -0.0898213 -0.0900161
internal_weight=0 18.3183 1.84199 16.4763 12.8767 2.2591 10.6176 9.15492 1.4359 3.59958 6.0523 4.63553 3.27061 3.10262 40.1614 0.406091 37.3443 36.1867 0.807063 2.81705 1.15757 35.3797 32.2602 3.37057 28.8896 11.7005 3.11952 2.25787 17.1891 9.3514
internal_count=2025 356 88 268 219 47 172 136 42 49 95 69 51 41 1669 46 1603 1554 45 66 49 1509 1395 244 1151 644 114 87 507 445
is_linear=0
shrinkage=0.1


Tree=24
num_leaves=31
num_cat=0
split_feature=13 3 6 14 2 7 6 8 35 7 52 5 8 8 25 12 5 5 2 5 4 6 3 7 3 9 9 9 8 4
split_gain=19.0862 4.05039 2.45508 0.593311 1.40655 0.434058 0.336197 0.000128607 7.58288e-07 3.70567e-07 3.53278e-07 5.61367e-07 3.46012e-07 3.11654e-07 2.82233e-07 3.24114e-07 7.36119e-07 6.28139e-07 6.18382e-07 2.81948e-07 3.02107e-07 2.38225e-07 2.07527e-07 2.00915e-07 3.0766e-07 1.80633e-07 1.93302e-07 1.78269e-07 1.66051e-07 1.61496e-07
threshold=1.0000000180025095e-35 142.00000000000003 163.50000000000003 1.0000000180025095e-35 20.500000000000004 230.50000000000003 210.50000000000003 38.500000000000007 1.0000000180025095e-35 249.50000000000003 1.0000000180025095e-35 3473.5000000000005 163.50000000000003 175.50000000000003 1.0000000180025095e-35 1.0000000180025095e-35 1179.5000000000002 2871.0000000000005 21.500000000000004 3633.0000000000005 10.500000000000002 175.50000000000003 76.000000000000014 241.50000000000003 477.00000000000006 634.50000000000011 1746.0000000000002 2379.0000000000005 169.50000000000003 40.500000000000007
decision_type=2 2 2 2 2 2 2 2 2 2 2 2 2 2 2 2 2 2 2 2 2 2 2 2 2 2 2 2 2 2
left_child=8 2 -2 4 5 6 -4 -3 9 10 14 -12 -10 -11 15 17 -17 18 22 20 -16 -19 25 24 -23 -1 -27 -28 -24 -9
right_child=1 7 3 -5 -6 -7 -8 29 12 13 11 -13 -14 -15 19 16 -18 21 -20 -21 -22 23 28 -25 -26 26 27 -29 -30 -31
leaf_value=-0.087171971147065 -0.040654108472552894 -0.090470409047379241 0.22100297213124392 0.097507660516826897 0.27447993316336938 0.099277825614568938 0.13943888028106308 -0.087262619701882746 -0.087061389681551637 -0.087373163088781416 -0.086935886178796551 -0.087207788316728083 -0.087182364892365014 -0.087203751931532264 -0.087198532322939282 -0.087241696134859992 -0.087085487690401017 -0.087265135284597992 -0.087153216266201594 -0.087221040606721367 -0.087070973435459331 -0.087176756039812814 -0.087222522121422466 -0.08722211590415857 -0.087103734682497963 -0.08737054829061261 -0.087214238630726693 -0.087316257170711661 -0.087315805739569 -0.087157137284872302
leaf_weight=0.1292680921032956 0.72950796759687264 0.13932289043441404 0.80899310205131847 1.4423242374323306 1.0225439718924461 1.4491640487685797 1.3464247346855698 0.18928933213464916 0.71014462597668238 0.19662862853147167 0.14343477855436582 0.16134305344894528 0.35442615952342749 0.24252777430228889 0.27297512255609102 0.48989354888908632 0.78519526799209416 0.30598380486480881 0.88878136314451683 0.32646305859088898 0.58052091300487518 4.7624180887360126 2.2515355199575429 0.78249753569252778 0.65653726365417231 0.26491806982085109 0.31289109727367759 0.37846642476506531 0.20849388744682062 0.6223679396789521
leaf_count=27 39 10 19 38 36 25 25 38 44 18 35 10 22 31 24 70 174 27 199 27 63 365 305 69 46 21 37 41 14 126
internal_value=0 0.105638 0.132675 0.153508 0.170964 0.141599 0.170052 -0.0876635 -0.0871831 -0.0871892 -0.0871863 -0.0870798 -0.0871017 -0.0872796 -0.0871887 -0.0871932 -0.0871455 -0.0871988 -0.0872278 -0.087142 -0.0871118 -0.087179 -0.0872465 -0.0871747 -0.0871679 -0.0872829 -0.0872979 -0.0872701 -0.0872304 -0.0871817
internal_weight=0 7.74994 6.79896 6.06945 4.62713 3.60458 2.15542 0.95098 15.2053 14.1408 13.7016 0.304778 1.06457 0.439156 13.3968 12.2169 1.27509 10.9418 4.43435 1.17996 0.853496 6.50744 3.54557 6.20145 5.41896 1.08554 0.956276 0.691358 2.46003 0.811657
internal_count=2025 356 182 143 105 69 44 174 1669 1603 1554 45 66 49 1509 1395 244 1151 644 114 87 507 445 480 411 126 99 78 319 164
is_linear=0
shrinkage=0.1


Tree=25
num_leaves=31
num_cat=0
split_feature=5 43 13 5 7 9 5 9 3 9 3 9 5 5 5 9 3 4 8 36 5 6 6 3 9 5 9 6 5 7
split_gain=41.5444 27.3212 11.9886 9.47695 10.1902 9.94647 4.39869 4.64196 4.18758 4.25831 3.96284 3.40904 3.321 10.2301 3.80837 1.59514 2.91536 1.58039 1.06593 0.881697 0.563528 0.427207 0.457732 0.638994 0.943159 0.390287 0.348455 0.413873 0.78862 0.33896
threshold=2088.5000000000005 1.0000000180025095e-35 1.0000000180025095e-35 395.50000000000006 237.50000000000003 5130.0000000000009 788.00000000000011 933.50000000000011 114.00000000000001 2363.5000000000005 122.00000000000001 1387.5000000000002 5000.0000000000009 4584.0000000000009 2957.5000000000005 772.50000000000011 76.000000000000014 104.50000000000001 93.500000000000014 1.0000000180025095e-35 4199.0000000000009 220.50000000000003 189.50000000000003 157.50000000000003 1791.5000000000002 807.50000000000011 1472.0000000000002 241.50000000000003 211.00000000000003 242.50000000000003
decision_type=2 2 2 2 2 2 2 2 2 2 2 2 2 2 2 2 2 2 2 2 2 2 2 2 2 2 2 2 2 2
left_child=1 2 3 18 5 15 26 -8 9 11 29 20 13 14 -13 16 -5 19 -1 21 -2 22 -17 24 -24 -18 -3 28 -28 -6
right_child=8 6 -4 4 10 -7 7 -9 -10 -11 -12 12 -14 -15 -16 17 25 -19 -20 -21 -22 -23 23 -25 -26 -27 27 -29 -30 -31
leaf_value=0.21226967470525679 -0.010860974620522081 0.22197870134027428 -0.093228066678403151 0.19594707205916362 0.17194868541651154 0.26295736475122267 0.17862217217282519 -0.068415561475858019 -0.086910088742238226 -0.085099306770220831 0.0046714807127265336 0.11592804277659019 -0.071902971964119405 0.36233278583434392 -0.095039338073901872 -0.094169223374204997 0.018047944233456303 0.068873799148801845 0.1200407548081322 0.025682694305798726 -0.094342394324177403 -0.086024584749027411 -0.061854164011571823 -0.07373143238604056 0.063235727023743346 -0.094073289396824841 0.21074510983837219 0.21413311077296304 0.09691763718778125 0.23878410284696738
leaf_weight=2.7468392662704018 1.3373668044805547 6.3826861418783647 7.9209062810987225 0.78876177407802162 1.2482136739417904 1.1848777830600727 1.7658146657049649 1.3362090140581129 33.247182874940336 6.7966816122643641 1.2875628722831605 1.855430578812957 1.3778719082474706 1.1570103950798509 1.5880292588844893 1.581273331306871 0.52477195765823104 1.0462565161287773 2.3044166527688503 1.1258170008659369 2.0451501235365868 5.8892647260800004 1.1614955198019745 1.9658028595149515 1.2529897931963203 0.76021377928555012 1.2938787303864958 2.6744736731052399 1.1493079811334608 1.9353575799614189
leaf_count=49 19 116 356 21 25 26 33 20 575 122 24 35 12 29 24 53 12 30 38 21 27 108 28 41 27 28 23 48 17 38
internal_value=0 0.0631208 0.0148596 0.0468009 0.0181473 -0.0166665 0.177887 0.0722097 -0.0666142 -0.0248516 0.152708 0.0188926 0.0642855 0.105075 0.0186357 -0.0372497 0.0446104 -0.0493554 0.170194 -0.0588878 -0.0613358 -0.0669219 -0.0480509 -0.0314023 0.00306085 -0.0482844 0.206392 0.186953 0.157199 0.212579
internal_weight=0 49.3272 34.7248 26.8039 21.7527 17.2815 14.6024 3.10202 49.4047 16.1575 4.47113 9.36086 5.97834 4.60047 3.44346 16.0966 2.07375 14.0229 5.05126 12.9766 3.38252 11.8508 5.96156 4.38029 2.41449 1.28499 11.5003 5.11766 2.44319 3.18357
internal_count=2025 1182 925 569 482 395 257 53 843 268 87 146 100 88 59 369 61 308 87 278 46 257 149 96 55 40 204 88 40 63
is_linear=0
shrinkage=0.1


Tree=26
num_leaves=31
num_cat=0
split_feature=10 26 9 33 4 5 8 9 5 8 46 46 2 9 23 3 8 14 4 6 6 5 7 35 6 3 7 5 8 52
split_gain=41.1701 2.39812 3.1174 2.68845 2.81411 2.51612 3.37619 2.46538 2.38608 1.76062 1.7021 1.55476 1.16654 1.14493 2.03966 1.49017 1.07554 0.585939 0.283577 0.149704 0.0469372 0.00359237 4.9332e-05 4.00386e-06 3.11427e-06 2.158e-06 2.02971e-06 1.8374e-06 1.67846e-06 1.23194e-06
threshold=1.0000000180025095e-35 1.0000000180025095e-35 1860.5000000000002 1.0000000180025095e-35 55.500000000000007 521.00000000000011 162.50000000000003 731.50000000000011 788.00000000000011 129.50000000000003 1.0000000180025095e-35 1.0000000180025095e-35 28.500000000000004 701.50000000000011 1.0000000180025095e-35 92.500000000000014 147.50000000000003 1.0000000180025095e-35 104.50000000000001 186.50000000000003 193.50000000000003 891.50000000000011 229.50000000000003 1.0000000180025095e-35 194.50000000000003 76.000000000000014 249.50000000000003 2713.5000000000005 163.50000000000003 1.0000000180025095e-35
decision_type=2 2 2 2 2 2 2 2 2 2 2 2 2 2 2 2 2 2 2 2 2 2 2 2 2 2 2 2 2 2
left_child=1 2 3 4 8 7 10 9 13 12 -7 19 -6 14 17 -16 -15 20 -8 -10 -1 -21 -23 25 -24 27 29 -2 -25 -27
right_child=23 -3 -4 -5 5 6 18 -9 11 -11 -12 -13 -14 16 15 -17 -18 -19 -20 21 -22 22 24 28 -26 26 -28 -29 -30 -31
leaf_value=-0.041367404472670774 -0.088351286045119798 0.24664816618223251 -0.089412223298485888 0.30077939816236632 0.21776252267131468 0.24610631485730289 0.42678160533573756 0.23573045098777926 -0.031792419777552636 -0.091471660548309075 0.040151609348677494 0.11617722192688938 0.0043171103567017704 0.10735463908878227 0.029866265966218809 0.2430810898619496 0.28350402102110517 0.067567401523043052 0.32206047407388005 -0.10371923470321368 -0.092066180693239186 -0.090145362723178524 -0.088832006865335572 -0.087991645830500953 -0.08822256062330433 -0.088197928261701253 -0.088379455078378938 -0.0882252556311348 -0.088198818237257948 -0.088023994849694295
leaf_weight=0.30229736259206419 1.9495632718317271 1.4952641800045974 0.71929528843611557 0.81064496375620443 0.52007723134011052 0.81351729575544618 0.53445737808942773 0.85584672726690758 0.70984124578535579 0.71890740748494852 0.791869742795825 0.65372643340378989 0.50436962395906448 0.76854213140904881 0.54049374209716916 0.83295904379338026 0.63141022995114326 0.49643827741965652 0.50096509139984846 0.22948474832810462 0.46121529419906437 0.33991278894245625 0.13669545110315084 1.175291865132748 0.21687276381999254 15.359303268371148 0.6084093074314304 2.8447320631239563 0.58607271127402771 0.41830540751107115
leaf_count=17 141 39 33 25 20 28 22 22 39 39 15 23 24 21 29 26 22 26 19 11 35 24 18 44 34 987 35 149 22 36
internal_value=0 0.126674 0.112969 0.124737 0.112391 0.166577 0.235323 0.0967298 0.0674647 0.0284917 0.144518 -0.0141432 0.112676 0.113729 0.074882 0.159175 0.186802 -0.0170043 0.376115 -0.0663196 -0.071993 -0.092874 -0.0892852 -0.0882054 -0.0884582 -0.0882175 -0.0882002 -0.0882765 -0.0880606 -0.0881933
internal_weight=0 14.5851 13.0898 12.3705 11.5599 5.24001 2.64081 2.5992 6.31989 1.74335 1.60539 2.28653 1.02445 4.03336 2.6334 1.37345 1.39995 1.25995 1.03542 1.63281 0.763513 0.922966 0.693481 22.9417 0.353568 21.1803 16.386 4.7943 1.76136 15.7776
internal_count=2025 611 572 539 514 189 84 105 325 83 43 149 44 176 133 55 43 78 41 126 52 87 76 1414 52 1348 1058 290 66 1023
is_linear=0
shrinkage=0.1


Tree=27
num_leaves=31
num_cat=0
split_feature=5 5 9 9 7 6 7 3 42 3 9 52 3 3 52 51 7 9 6 7 5 4 7 5 3 4 7 4 6 35
split_gain=5.02403 7.42761 6.69065 6.63451 3.38326 3.19645 2.31551 1.85731 2.52619 1.21088 1.10693 1.69641 0.643733 0.089834 0.0344235 0.000214249 9.68848e-05 0.00016502 2.92814e-05 1.3323e-05 1.01018e-05 3.36601e-06 3.36367e-06 2.56299e-06 2.28384e-06 1.96084e-06 7.17953e-07 6.48617e-07 5.25979e-07 3.68474e-07
threshold=1918.5000000000002 4391.0000000000009 2935.5000000000005 1531.5000000000002 248.50000000000003 220.50000000000003 235.50000000000003 177.50000000000003 1.0000000180025095e-35 51.000000000000007 2307.5000000000005 1.0000000180025095e-35 122.00000000000001 630.50000000000011 1.0000000180025095e-35 1.0000000180025095e-35 240.50000000000003 2314.0000000000005 229.50000000000003 249.50000000000003 2871.0000000000005 5.5000000000000009 239.50000000000003 3719.0000000000005 205.50000000000003 72.500000000000014 236.50000000000003 52.500000000000007 210.50000000000003 1.0000000180025095e-35
decision_type=2 2 2 2 2 2 2 2 2 2 2 2 2 2 2 2 2 2 2 2 2 2 2 2 2 2 2 2 2 2
left_child=14 2 3 18 5 7 9 8 -5 -7 -11 -12 -8 15 16 19 -1 -18 21 22 -4 -2 25 -23 -24 29 27 -22 -26 -3
right_child=1 13 20 4 -6 6 12 -9 -10 10 11 -13 -14 -15 -16 -17 17 -19 -20 -21 26 23 24 -25 28 -27 -28 -29 -30 -31
leaf_value=-0.086776195895849575 -0.086816516075988684 -0.086792282127711506 -0.087467591610097595 0.2720746041772103 0.45589107432032749 0.31069013183336236 0.26369336823581419 -0.089081084298022362 -0.057768166082797646 0.26006229844175699 -0.043854721380057554 0.18459643122668123 0.43862130724375253 -0.020799029896044433 -0.11509062629710486 -0.089182868932132411 -0.086814039156013406 -0.090541091739942597 -0.088200481469882575 -0.087641271158440517 -0.086774747075071795 -0.087025806525404092 -0.087343656778091694 -0.08748191431190637 -0.08703057432163365 -0.087031720835149928 -0.086984162776002558 -0.086966128930523162 -0.086826660582032131 -0.086683813683434696
leaf_weight=4.3703424601117176 0.29661682294681468 1.6472237557172795 0.31573504395782936 0.54281403869390465 0.41189046599902202 0.44269726704806167 0.39250489976257075 0.64384481776505709 0.40576540818437934 0.45487036905251432 0.60466107260435797 0.70290243998169899 0.45336047047749162 0.21521729556843627 0.47643396817147721 0.47939257696270932 0.3100117592839523 0.19260173942893744 0.33317668456584215 0.23889518622308958 0.96789403771981575 0.25909685017541051 0.19907555449753989 0.23488995339721441 0.30269049713388085 0.33812673995271314 0.29478750564157952 0.21674247528426349 0.21731044258922338 0.38670895714312781
leaf_count=1041 38 176 27 32 19 30 17 39 18 38 34 17 25 22 3 12 87 8 18 16 92 23 21 17 29 27 26 17 24 32
internal_value=0 0.0270927 0.0829877 0.132359 0.181214 0.156849 0.21679 0.0420059 0.130981 0.162835 0.125696 0.078953 0.35745 -0.0836552 -0.0894357 -0.0872063 -0.0869274 -0.0882422 -0.0874142 -0.0869218 -0.0869541 -0.0870828 -0.0868662 -0.0872427 -0.0870556 -0.0868087 -0.0868445 -0.0868098 -0.0869454 -0.0867717
internal_weight=0 11.9989 7.97425 6.17909 5.05531 4.64342 3.051 1.59242 0.948579 2.20513 1.76243 1.30756 0.845865 4.02464 5.34939 3.80942 4.87296 0.502613 1.12378 3.33003 1.79516 0.790604 3.09114 0.493987 0.719076 2.37206 1.47942 1.18464 0.520001 2.03393
internal_count=2025 886 527 365 269 250 161 89 50 119 89 51 42 359 1139 337 1136 95 96 325 162 78 309 40 74 235 135 109 53 208
is_linear=0
shrinkage=0.1


Tree=28
num_leaves=31
num_cat=0
split_feature=5 5 25 7 35 4 4 25 5 5 3 9 3 3 4 9 6 9 2 9 3 7 5 5 4 42 7 4 3 6
split_gain=73.5666 6.60306 6.17828 5.8723 4.11255 3.5228 3.04741 2.80449 2.70118 4.25669 4.80127 2.90659 3.08187 2.16411 1.98705 1.96883 1.81725 6.5416 1.69072 2.09225 1.68761 2.3314 2.72201 2.95329 2.67956 1.62277 2.02274 1.46081 1.43673 1.29956
threshold=1903.5000000000002 1026.5000000000002 1.0000000180025095e-35 240.50000000000003 1.0000000180025095e-35 -19.499999999999996 101.50000000000001 1.0000000180025095e-35 2606.0000000000005 4021.0000000000005 428.00000000000006 2456.5000000000005 263.00000000000006 466.50000000000006 46.500000000000007 868.00000000000011 233.50000000000003 2354.0000000000005 11.500000000000002 3132.5000000000005 87.500000000000014 231.50000000000003 1593.5000000000002 1394.0000000000002 10.500000000000002 1.0000000180025095e-35 244.50000000000003 16.500000000000004 377.50000000000006 226.50000000000003
decision_type=2 2 2 2 2 2 2 2 2 2 2 2 2 2 2 2 2 2 2 2 2 2 2 2 2 2 2 2 2 2
left_child=1 7 3 4 6 -3 13 -1 -5 -10 11 12 -11 15 29 -2 28 -18 -19 -20 21 22 23 24 -7 26 -22 -6 -17 -4
right_child=2 5 14 8 27 20 -8 -9 9 10 -12 -13 -14 -15 -16 16 17 18 19 -21 25 -23 -24 -25 -26 -27 -28 -29 -30 -31
leaf_value=-0.11139652868778266 0.085359014594535501 0.098197281225946037 -0.12064626971090263 -0.1175877564468463 0.13606470537052975 -0.067179314194330875 -0.048837517670647576 -0.0038095989630735835 0.08539060199827446 0.00098637634718484442 -0.10385960691563934 -0.046867182205250463 0.12728536213980943 0.094528519960421178 0.020669589285979395 0.054081190781963086 -0.09553720953300926 0.11066776668368171 0.076840844151509893 -0.02374799601204235 -0.10617254750395476 -0.0923949859316954 0.10185950730610963 -0.12594611338202796 0.10198624366679197 -0.024596411259807553 0.021029935287057072 0.065546115166943461 -0.0064795839511658064 -0.027264735360697574
leaf_weight=40.301941674202681 12.319364022463558 1.6479510813951517 2.7416961416602117 1.7276639323681617 8.1385293900966627 1.7439410723745843 3.0037557184696189 2.5778740122914305 5.8695934694260385 4.5575026907026785 4.3563970141112796 4.3993221521377563 3.3537856005132198 11.347018145024775 4.0614122971892357 58.251275334507227 4.1623634397983542 3.3370069880038491 4.1190127748996002 4.152420062571764 10.838162478059532 3.331642359495163 2.2005096152424812 2.0316370390355587 2.0220061521977186 5.1490606516599646 1.4131022430956353 4.5967067480087271 4.1997782476246348 3.2650974541902542
leaf_count=769 55 7 23 34 30 26 19 19 38 29 42 29 14 48 26 322 42 17 34 24 141 55 14 28 16 39 17 20 23 25
internal_value=0 -0.0796589 0.0423384 0.0477095 0.0569492 -0.0439898 0.0504339 -0.104929 0.00291794 0.012156 -0.013635 0.0182931 0.0545276 0.0533605 -0.0333575 0.0482011 0.042349 0.0120181 0.0505835 0.0263433 -0.0521456 -0.02211 0.00716747 -0.0287735 0.0236488 -0.0717025 -0.0915006 0.110611 0.0500085 -0.0698871
